{
    "weights_hidden": [
        [
            0.24300000071525574,
            0.1152999997138977,
            -0.030799999833106995,
            0.133200004696846,
            -0.08330000191926956,
            -0.09740000218153,
            0.12309999763965607,
            -0.046300001442432404,
            0.12690000236034393,
            0.0406000018119812,
            -0.19939999282360077,
            0.21289999783039093,
            0.11249999701976776,
            -0.04969999939203262,
            0.06880000233650208,
            0.0551999993622303
        ],
        [
            0.05979999899864197,
            0.04179999977350235,
            -0.11909999698400497,
            0.13619999587535858,
            -0.1492999941110611,
            0.10849999636411667,
            -0.05920000001788139,
            -0.006500000134110451,
            -0.02319999970495701,
            0.03799999877810478,
            -0.17419999837875366,
            0.22169999778270721,
            0.06610000133514404,
            -0.13670000433921814,
            0.16459999978542328,
            0.016699999570846558
        ],
        [
            0.04100000113248825,
            0.0421999990940094,
            -0.15690000355243683,
            0.20319999754428864,
            -0.08619999885559082,
            -0.04540000110864639,
            0.03139999881386757,
            0.10499999672174454,
            0.03269999846816063,
            -0.09440000355243683,
            -0.2800000011920929,
            0.07079999893903732,
            -0.11249999701976776,
            -0.1453000009059906,
            -0.027699999511241913,
            -0.13089999556541443
        ],
        [
            0.05979999899864197,
            -0.07329999655485153,
            -0.041200000792741776,
            0.25440001487731934,
            -0.14640000462532043,
            -0.0934000015258789,
            0.1282999962568283,
            -0.06469999998807907,
            0.1200999990105629,
            0.062199998646974564,
            -0.21279999613761902,
            0.09799999743700027,
            0.07680000364780426,
            0.0731000006198883,
            -0.1080000028014183,
            -0.10980000346899033
        ],
        [
            0.01140000019222498,
            -0.020600000396370888,
            -0.008100000210106373,
            0.1973000019788742,
            0.0723000019788742,
            -0.03959999978542328,
            -0.0038999998942017555,
            -0.1054999977350235,
            0.02459999918937683,
            -0.013199999928474426,
            -0.349700003862381,
            -0.05689999833703041,
            0.023399999365210533,
            0.10220000147819519,
            -0.15489999949932098,
            -0.05490000173449516
        ],
        [
            -0.027400000020861626,
            -0.004800000227987766,
            -0.07020000368356705,
            0.11299999803304672,
            -0.08179999887943268,
            0.07829999923706055,
            -0.05490000173449516,
            -0.12070000171661377,
            0.0632999986410141,
            0.12229999899864197,
            -0.383899986743927,
            -0.1257999986410141,
            -0.10620000213384628,
            -0.004100000020116568,
            -0.06279999762773514,
            0.0934000015258789
        ],
        [
            0.17000000178813934,
            -0.050599999725818634,
            -0.10660000145435333,
            0.30250000953674316,
            0.10859999805688858,
            -0.10490000247955322,
            0.05429999902844429,
            0.07209999859333038,
            0.08749999850988388,
            0.013899999670684338,
            -0.3928999900817871,
            -0.0006000000284984708,
            0.10639999806880951,
            0.0949999988079071,
            0.08550000190734863,
            -0.1371999979019165
        ],
        [
            0.131400004029274,
            0.03779999911785126,
            0.014399999752640724,
            0.3659999966621399,
            -0.06780000030994415,
            -0.0892999991774559,
            -0.039900001138448715,
            -0.06800000369548798,
            0.08730000257492065,
            0.003700000001117587,
            -0.3391999900341034,
            0.0026000000070780516,
            -0.014999999664723873,
            -0.09369999915361404,
            -0.014399999752640724,
            0.010599999688565731
        ],
        [
            0.0471000000834465,
            0.019500000402331352,
            -0.16140000522136688,
            0.38600000739097595,
            -0.09080000221729279,
            0.07989999651908875,
            -0.07349999994039536,
            -0.05689999833703041,
            -0.2101999968290329,
            0.00139999995008111,
            -0.4659000039100647,
            -0.033399999141693115,
            0.03700000047683716,
            0.08579999953508377,
            0.010900000110268593,
            -0.00559999980032444
        ],
        [
            -0.03629999980330467,
            -0.019999999552965164,
            -0.030899999663233757,
            0.23180000483989716,
            0.10140000283718109,
            -0.1574999988079071,
            -0.14190000295639038,
            0.1282999962568283,
            -0.012000000104308128,
            0.053700000047683716,
            -0.3257000148296356,
            -0.30149999260902405,
            -0.06319999694824219,
            -0.060499999672174454,
            0.06379999965429306,
            -0.22380000352859497
        ],
        [
            -0.1607999950647354,
            -0.09920000284910202,
            -0.15489999949932098,
            0.43140000104904175,
            -0.04230000078678131,
            -0.11969999969005585,
            -0.13349999487400055,
            -0.05810000002384186,
            -0.026200000196695328,
            0.07999999821186066,
            -0.4767000079154968,
            -0.2892000079154968,
            -0.003800000064074993,
            -0.12479999661445618,
            -0.17430000007152557,
            0.0706000030040741
        ],
        [
            -0.11500000208616257,
            -0.14149999618530273,
            0.02199999988079071,
            0.42250001430511475,
            0.14309999346733093,
            0.120899997651577,
            0.07490000128746033,
            0.03290000185370445,
            -0.20440000295639038,
            0.13680000603199005,
            -0.357699990272522,
            -0.18629999458789825,
            0.04780000075697899,
            -0.12269999831914902,
            -0.04490000009536743,
            -0.2775999903678894
        ],
        [
            -0.11710000038146973,
            -0.06719999760389328,
            -0.16940000653266907,
            0.18690000474452972,
            -0.10909999907016754,
            -0.10840000212192535,
            -0.15809999406337738,
            0.03629999980330467,
            -0.08330000191926956,
            0.07159999758005142,
            -0.35120001435279846,
            -0.2418999969959259,
            -0.029899999499320984,
            -0.06949999928474426,
            0.026799999177455902,
            0.056299999356269836
        ],
        [
            0.002899999963119626,
            -0.09200000017881393,
            -0.04399999976158142,
            0.32519999146461487,
            -0.13590000569820404,
            -0.026599999517202377,
            -0.15569999814033508,
            -0.14270000159740448,
            0.02759999968111515,
            -0.06129999831318855,
            -0.3434999883174896,
            -0.2353000044822693,
            0.10239999741315842,
            0.07819999754428864,
            0.00570000009611249,
            0.0071000000461936
        ],
        [
            0.06790000200271606,
            0.04800000041723251,
            -0.131400004029274,
            0.07729999721050262,
            0.07000000029802322,
            0.13089999556541443,
            0.14920000731945038,
            0.039900001138448715,
            0.1014999970793724,
            0.08150000125169754,
            -0.27459999918937683,
            -0.06719999760389328,
            0.06800000369548798,
            0.06360000371932983,
            -0.005799999926239252,
            -0.19670000672340393
        ],
        [
            0.09210000187158585,
            -0.07400000095367432,
            -0.12540000677108765,
            0.26010000705718994,
            -0.14499999582767487,
            0.04879999905824661,
            -0.08780000358819962,
            0.06030000001192093,
            0.11869999766349792,
            0.1624000072479248,
            -0.1412000060081482,
            -0.2070000022649765,
            0.12359999865293503,
            0.09019999951124191,
            0.0066999997943639755,
            0.11900000274181366
        ],
        [
            0.16459999978542328,
            0.13289999961853027,
            -0.09030000120401382,
            0.19589999318122864,
            0.14339999854564667,
            0.07980000227689743,
            0.05689999833703041,
            -0.10270000249147415,
            -0.008700000122189522,
            0.13989999890327454,
            -0.18880000710487366,
            -0.3125,
            0.03310000151395798,
            -0.05660000070929527,
            0.045099999755620956,
            -0.09290000051259995
        ],
        [
            0.005799999926239252,
            0.08089999854564667,
            -0.03280000016093254,
            0.24740000069141388,
            -0.005499999970197678,
            -0.07540000230073929,
            0.14259999990463257,
            -0.10369999706745148,
            0.14489999413490295,
            0.09740000218153,
            -0.17870000004768372,
            -0.2092999964952469,
            -0.13979999721050262,
            0.07760000228881836,
            0.11999999731779099,
            -0.04490000009536743
        ],
        [
            0.05820000171661377,
            -0.008799999952316284,
            0.09049999713897705,
            0.05739999935030937,
            0.0031999999191612005,
            0.06199999898672104,
            0.17219999432563782,
            -0.13510000705718994,
            0.24250000715255737,
            0.1216999962925911,
            -0.03750000149011612,
            -0.08139999955892563,
            -0.15880000591278076,
            -0.01679999940097332,
            -0.01889999955892563,
            -0.10580000281333923
        ],
        [
            0.0649000033736229,
            0.026399999856948853,
            0.120899997651577,
            0.022299999371170998,
            0.027799999341368675,
            -0.10679999738931656,
            0.14720000326633453,
            0.013000000268220901,
            -0.0034000000450760126,
            0.09189999848604202,
            0.025699999183416367,
            0.07249999791383743,
            0.10429999977350235,
            0.06830000132322311,
            0.12080000340938568,
            -0.18369999527931213
        ],
        [
            0.1437000036239624,
            -0.010599999688565731,
            -0.017999999225139618,
            -0.08969999849796295,
            0.13079999387264252,
            0.017000000923871994,
            -0.11209999769926071,
            -0.07890000194311142,
            0.0406000018119812,
            0.1703999936580658,
            -0.1298999935388565,
            -0.08730000257492065,
            0.11140000075101852,
            0.041999999433755875,
            0.023900000378489494,
            -0.07580000162124634
        ],
        [
            -0.05460000038146973,
            0.09000000357627869,
            0.20229999721050262,
            0.04349999874830246,
            0.09510000050067902,
            -0.07580000162124634,
            -0.08699999749660492,
            0.026200000196695328,
            -0.0006000000284984708,
            0.2614000141620636,
            0.03480000048875809,
            0.04360000044107437,
            -0.04749999940395355,
            0.11029999703168869,
            -0.05299999937415123,
            -0.11980000138282776
        ],
        [
            -0.1054999977350235,
            -0.0835999995470047,
            0.04580000042915344,
            -0.040699999779462814,
            0.12300000339746475,
            -0.06069999933242798,
            0.06530000269412994,
            -0.11900000274181366,
            0.16050000488758087,
            0.25110000371932983,
            -0.1151999980211258,
            0.019999999552965164,
            -0.09769999980926514,
            0.022700000554323196,
            -0.09790000319480896,
            -0.0989999994635582
        ],
        [
            0.15549999475479126,
            -0.10409999638795853,
            0.2045000046491623,
            -0.04259999841451645,
            0.016200000420212746,
            -0.13689999282360077,
            -0.05640000104904175,
            -0.03480000048875809,
            0.07069999724626541,
            0.2897999882698059,
            0.06599999964237213,
            0.08560000360012054,
            0.12430000305175781,
            -0.07479999959468842,
            0.18469999730587006,
            0.03150000050663948
        ],
        [
            0.1965000033378601,
            0.08290000259876251,
            -0.044599998742341995,
            -0.28870001435279846,
            0.12630000710487366,
            0.09520000219345093,
            0.12399999797344208,
            0.08739999681711197,
            0.1412999927997589,
            0.11789999902248383,
            0.03269999846816063,
            0.1096000000834465,
            0.03790000081062317,
            -0.07360000163316727,
            0.12630000710487366,
            -0.13809999823570251
        ],
        [
            -0.1421000063419342,
            -0.08269999921321869,
            0.15850000083446503,
            -0.2581000030040741,
            0.04450000077486038,
            0.09290000051259995,
            -0.005499999970197678,
            0.0738999992609024,
            0.008200000040233135,
            0.1469999998807907,
            0.019099999219179153,
            0.14800000190734863,
            -0.11309999972581863,
            0.04230000078678131,
            0.09950000047683716,
            -0.14409999549388885
        ],
        [
            -0.07890000194311142,
            -0.13050000369548798,
            0.23360000550746918,
            -0.374099999666214,
            -0.013000000268220901,
            -0.11829999834299088,
            -0.0017000000225380063,
            0.003599999938160181,
            0.15860000252723694,
            0.3246999979019165,
            -0.0038999998942017555,
            0.07660000026226044,
            0.08100000023841858,
            0.058800000697374344,
            0.010400000028312206,
            -0.1842000037431717
        ],
        [
            0.01850000023841858,
            0.09529999643564224,
            0.07909999787807465,
            -0.40939998626708984,
            -0.1467999964952469,
            -0.10700000077486038,
            -0.11959999799728394,
            0.004800000227987766,
            0.03189999982714653,
            0.3386000096797943,
            -0.04019999876618385,
            -0.005400000140070915,
            0.08470000326633453,
            0.10660000145435333,
            -0.03139999881386757,
            -0.07540000230073929
        ],
        [
            -0.1307000070810318,
            0.09399999678134918,
            0.16410000622272491,
            -0.4198000133037567,
            -0.12359999865293503,
            -0.06830000132322311,
            -0.04390000179409981,
            -0.0071000000461936,
            -0.0005000000237487257,
            0.3472999930381775,
            0.08290000259876251,
            0.1995999962091446,
            0.0034000000450760126,
            0.01600000075995922,
            0.016200000420212746,
            -0.2621000111103058
        ],
        [
            -0.14589999616146088,
            0.07150000333786011,
            -0.0035000001080334187,
            -0.6675000190734863,
            -0.04839999973773956,
            -0.05950000137090683,
            0.0284000001847744,
            0.03799999877810478,
            -0.05660000070929527,
            0.23720000684261322,
            0.06080000102519989,
            -0.0364999994635582,
            -0.11620000004768372,
            0.020400000736117363,
            -0.06459999829530716,
            -0.13590000569820404
        ],
        [
            0.022099999710917473,
            -0.1517000049352646,
            -0.06620000302791595,
            -0.5813000202178955,
            -0.03220000118017197,
            -0.1356000006198883,
            0.006500000134110451,
            0.04170000180602074,
            0.020800000056624413,
            0.32420000433921814,
            0.012799999676644802,
            0.0851999968290329,
            -0.10409999638795853,
            -0.09019999951124191,
            -0.00800000037997961,
            -0.10159999877214432
        ],
        [
            -0.01119999960064888,
            -0.1306000053882599,
            -0.052400000393390656,
            -0.49230000376701355,
            -0.13410000503063202,
            -0.06610000133514404,
            0.002099999925121665,
            0.08649999648332596,
            -0.16339999437332153,
            0.2881999909877777,
            0.15880000591278076,
            -0.09440000355243683,
            -0.13420000672340393,
            -0.009800000116229057,
            0.004699999932199717,
            0.02319999970495701
        ],
        [
            -0.11299999803304672,
            0.018400000408291817,
            -0.019899999722838402,
            -0.47589999437332153,
            0.04659999907016754,
            0.041999999433755875,
            0.043800000101327896,
            -0.1387999951839447,
            0.1289999932050705,
            0.21220000088214874,
            0.15330000221729279,
            -0.03750000149011612,
            -0.11379999667406082,
            -0.11339999735355377,
            -0.032499998807907104,
            0.011900000274181366
        ],
        [
            0.0640999972820282,
            -0.05550000071525574,
            0.12999999523162842,
            -0.39469999074935913,
            0.08219999819993973,
            0.017799999564886093,
            -0.17260000109672546,
            -0.10899999737739563,
            -0.11550000309944153,
            0.20479999482631683,
            0.08569999784231186,
            -0.23729999363422394,
            -0.13079999387264252,
            -0.10989999771118164,
            0.03500000014901161,
            -0.13850000500679016
        ],
        [
            -0.01489999983459711,
            -0.13050000369548798,
            0.07109999656677246,
            -0.4223000109195709,
            0.14139999449253082,
            -0.07289999723434448,
            -0.13979999721050262,
            -0.13580000400543213,
            -0.2126999944448471,
            0.22089999914169312,
            -0.032999999821186066,
            -0.0658000037074089,
            -0.065700002014637,
            -0.010200000368058681,
            -0.1712999939918518,
            -0.09350000321865082
        ],
        [
            0.00559999980032444,
            -0.1467999964952469,
            0.029999999329447746,
            -0.46700000762939453,
            -0.08429999649524689,
            0.10409999638795853,
            -0.030700000002980232,
            -0.015799999237060547,
            -0.03189999982714653,
            0.1931000053882599,
            0.13680000603199005,
            -0.2621999979019165,
            0.016499999910593033,
            -0.07530000060796738,
            -0.03440000116825104,
            -0.2248000055551529
        ],
        [
            -0.06909999996423721,
            0.015399999916553497,
            -0.0478999987244606,
            -0.334199994802475,
            0.10100000351667404,
            -0.08269999921321869,
            -0.01860000006854534,
            -0.10289999842643738,
            -0.27459999918937683,
            0.32739999890327454,
            0.052000001072883606,
            -0.24369999766349792,
            0.1136000007390976,
            -0.029899999499320984,
            -0.02930000051856041,
            -0.14380000531673431
        ],
        [
            -0.1251000016927719,
            0.13089999556541443,
            0.05209999904036522,
            -0.20020000636577606,
            -0.021900000050663948,
            -0.09210000187158585,
            -0.13050000369548798,
            0.043800000101327896,
            -0.07909999787807465,
            0.25459998846054077,
            0.05779999867081642,
            -0.2328999936580658,
            0.08730000257492065,
            0.11699999868869781,
            -0.05869999900460243,
            -0.32030001282691956
        ],
        [
            -0.13670000433921814,
            -0.06960000097751617,
            0.13840000331401825,
            -0.3183000087738037,
            -0.10040000081062317,
            0.06030000001192093,
            0.05620000138878822,
            -0.05000000074505806,
            -0.15549999475479126,
            0.2443999946117401,
            0.05139999836683273,
            -0.3384000062942505,
            0.03759999945759773,
            -0.12160000205039978,
            -0.14869999885559082,
            0.02810000069439411
        ],
        [
            0.02280000038444996,
            0.061799999326467514,
            -0.1290999948978424,
            -0.2791999876499176,
            -0.08760000020265579,
            -0.1264999955892563,
            -0.08590000122785568,
            -0.10050000250339508,
            -0.1476999968290329,
            -0.01510000042617321,
            0.15029999613761902,
            -0.4205999970436096,
            -0.06939999759197235,
            -0.07970000058412552,
            -0.1469999998807907,
            -0.08839999884366989
        ],
        [
            0.20029999315738678,
            0.09759999811649323,
            -0.10599999874830246,
            -0.15770000219345093,
            0.015300000086426735,
            0.034699998795986176,
            -0.10509999841451645,
            -0.09040000289678574,
            0.019700000062584877,
            0.0737999975681305,
            0.22609999775886536,
            -0.3427000045776367,
            -0.1306000053882599,
            0.07370000332593918,
            -0.02280000038444996,
            -0.0560000017285347
        ],
        [
            -0.12800000607967377,
            -0.08669999986886978,
            0.08150000125169754,
            -0.13819999992847443,
            -0.14820000529289246,
            0.06889999657869339,
            0.08630000054836273,
            0.02759999968111515,
            -0.10180000215768814,
            0.09830000251531601,
            0.20409999787807465,
            -0.34040001034736633,
            -0.14090000092983246,
            0.04899999871850014,
            -0.17679999768733978,
            -0.28679999709129333
        ],
        [
            -0.08299999684095383,
            -0.03539999946951866,
            -0.12370000034570694,
            -0.0430000014603138,
            0.13519999384880066,
            -0.04610000178217888,
            -0.01640000008046627,
            0.04050000011920929,
            0.03680000081658363,
            0.1242000013589859,
            0.20749999582767487,
            -0.4675999879837036,
            -0.022600000724196434,
            -0.02280000038444996,
            0.049300000071525574,
            -0.28279998898506165
        ],
        [
            -0.15299999713897705,
            -0.08320000022649765,
            0.09839999675750732,
            0.03669999912381172,
            -0.0044999998062849045,
            -0.11969999969005585,
            -0.05790000036358833,
            0.13420000672340393,
            0.0860000029206276,
            0.02879999950528145,
            0.07169999927282333,
            -0.36160001158714294,
            0.10329999774694443,
            -0.09730000048875809,
            0.0003000000142492354,
            0.037300001829862595
        ],
        [
            0.021199999377131462,
            -0.08560000360012054,
            -0.0071000000461936,
            0.00989999994635582,
            -0.027899999171495438,
            0.1256999969482422,
            -0.12479999661445618,
            0.07609999924898148,
            -0.01979999989271164,
            0.11810000240802765,
            0.14059999585151672,
            -0.3919999897480011,
            0.11289999634027481,
            0.08309999853372574,
            -0.03830000013113022,
            -0.12380000203847885
        ],
        [
            -0.17020000517368317,
            -0.021299999207258224,
            0.07249999791383743,
            0.11720000207424164,
            -0.07090000063180923,
            0.02759999968111515,
            -0.11860000342130661,
            -0.13619999587535858,
            0.07760000228881836,
            -0.03579999879002571,
            0.35120001435279846,
            -0.48559999465942383,
            0.13300000131130219,
            -0.043699998408555984,
            0.03449999913573265,
            -0.29179999232292175
        ],
        [
            -0.05829999968409538,
            -0.029200000688433647,
            -0.002400000113993883,
            0.09920000284910202,
            -0.000699999975040555,
            0.13009999692440033,
            -0.0494999997317791,
            0.13950000703334808,
            -0.042899999767541885,
            -0.19460000097751617,
            0.28610000014305115,
            -0.487199991941452,
            -0.10610000044107437,
            -0.07109999656677246,
            0.10970000177621841,
            0.06849999725818634
        ],
        [
            -0.047600001096725464,
            0.05849999934434891,
            0.15680000185966492,
            -0.050200000405311584,
            0.11990000307559967,
            -0.13019999861717224,
            0.02810000069439411,
            0.04050000011920929,
            0.02370000071823597,
            0.009600000455975533,
            0.2282000035047531,
            -0.4542999863624573,
            -0.06369999796152115,
            -0.05000000074505806,
            -0.016300000250339508,
            -0.1468999981880188
        ],
        [
            -0.09839999675750732,
            -0.09929999709129333,
            0.357699990272522,
            -0.09570000320672989,
            -0.00019999999494757503,
            0.008700000122189522,
            0.11270000040531158,
            -0.07400000095367432,
            0.35690000653266907,
            -0.07689999788999557,
            0.24289999902248383,
            -0.5221999883651733,
            0.060600001364946365,
            -0.04569999873638153,
            0.0706000030040741,
            -0.13210000097751617
        ],
        [
            -0.09239999949932098,
            -0.11410000175237656,
            -0.0071000000461936,
            -0.0024999999441206455,
            -0.0617000013589859,
            -0.0333000011742115,
            0.06750000268220901,
            0.13089999556541443,
            0.19110000133514404,
            -0.04410000145435333,
            0.2865000069141388,
            -0.2745000123977661,
            -0.05119999870657921,
            0.023399999365210533,
            -0.00419999985024333,
            -0.01489999983459711
        ],
        [
            -0.0071000000461936,
            -0.06889999657869339,
            0.22830000519752502,
            0.10450000315904617,
            0.04529999941587448,
            -0.0052999998442828655,
            0.08129999786615372,
            -0.07410000264644623,
            0.18359999358654022,
            0.09040000289678574,
            0.2282000035047531,
            -0.14229999482631683,
            -0.04190000146627426,
            -0.07829999923706055,
            0.021800000220537186,
            -0.2703000009059906
        ],
        [
            -0.2248000055551529,
            -0.025499999523162842,
            0.2782000005245209,
            0.08420000225305557,
            0.11789999902248383,
            -0.0658000037074089,
            0.14319999516010284,
            0.0649000033736229,
            0.16179999709129333,
            -0.02070000022649765,
            0.2653000056743622,
            0.022299999371170998,
            -0.07840000092983246,
            0.04179999977350235,
            0.30730000138282776,
            -0.019200000911951065
        ],
        [
            -0.04580000042915344,
            -0.14409999549388885,
            0.2718999981880188,
            -0.08969999849796295,
            0.09120000153779984,
            -0.041099999099969864,
            0.31200000643730164,
            0.00039999998989515007,
            0.39969998598098755,
            -0.04820000007748604,
            0.16339999437332153,
            -0.02930000051856041,
            -0.09080000221729279,
            -0.01209999993443489,
            0.10300000011920929,
            -0.06419999897480011
        ],
        [
            -0.05079999938607216,
            -0.06369999796152115,
            0.062300000339746475,
            0.03460000082850456,
            -0.03720000013709068,
            0.08100000023841858,
            0.10450000315904617,
            0.11699999868869781,
            0.3862000107765198,
            0.06840000301599503,
            0.21960000693798065,
            0.14010000228881836,
            0.0357000008225441,
            -0.053199999034404755,
            0.2840999960899353,
            -0.2524000108242035
        ],
        [
            -0.10100000351667404,
            0.03480000048875809,
            0.26339998841285706,
            -0.024399999529123306,
            -0.12030000239610672,
            -0.06949999928474426,
            0.2596000134944916,
            -0.10980000346899033,
            0.3952000141143799,
            0.035999998450279236,
            0.05559999868273735,
            0.1444000005722046,
            -0.05959999933838844,
            -0.010599999688565731,
            0.19130000472068787,
            -0.10760000348091125
        ],
        [
            -0.06809999793767929,
            -0.0031999999191612005,
            0.1354999989271164,
            -0.05900000035762787,
            -0.013700000010430813,
            -0.06719999760389328,
            0.0989999994635582,
            -0.10610000044107437,
            0.4781000018119812,
            0.014600000344216824,
            0.016499999910593033,
            0.16279999911785126,
            -0.12860000133514404,
            -0.07429999858140945,
            0.2653999924659729,
            -0.10790000110864639
        ],
        [
            -0.16750000417232513,
            0.016200000420212746,
            0.20909999310970306,
            -0.24410000443458557,
            -0.06840000301599503,
            0.09969999641180038,
            0.18790000677108765,
            0.035999998450279236,
            0.26010000705718994,
            -0.010499999858438969,
            0.10559999942779541,
            0.30239999294281006,
            -0.09120000153779984,
            0.07129999995231628,
            0.08550000190734863,
            -0.15800000727176666
        ],
        [
            -0.08229999989271164,
            -0.07329999655485153,
            0.2506999969482422,
            -0.050599999725818634,
            0.10050000250339508,
            0.03880000114440918,
            0.3472999930381775,
            -0.01209999993443489,
            0.3305000066757202,
            -0.08299999684095383,
            0.13249999284744263,
            0.2696000039577484,
            -0.06310000270605087,
            -0.10419999808073044,
            0.1737000048160553,
            -0.11990000307559967
        ],
        [
            -0.2551000118255615,
            0.06790000200271606,
            0.3077000081539154,
            -0.08969999849796295,
            -0.08030000329017639,
            0.006399999838322401,
            0.26460000872612,
            0.0010999999940395355,
            0.3199000060558319,
            -0.003599999938160181,
            0.04399999976158142,
            0.46070000529289246,
            -0.034299999475479126,
            -0.13490000367164612,
            0.2547000050544739,
            0.09529999643564224
        ],
        [
            -0.11670000106096268,
            -0.0957999974489212,
            0.20579999685287476,
            -0.10360000282526016,
            -0.07580000162124634,
            -0.004800000227987766,
            0.2761000096797943,
            0.0406000018119812,
            0.3961000144481659,
            -0.03920000046491623,
            0.04170000180602074,
            0.5097000002861023,
            0.015699999406933784,
            0.04500000178813934,
            0.3483999967575073,
            -0.2012999951839447
        ],
        [
            0.032600000500679016,
            0.10890000313520432,
            0.18690000474452972,
            -0.14180000126361847,
            0.026399999856948853,
            0.04600000008940697,
            0.16449999809265137,
            -0.09520000219345093,
            0.45509999990463257,
            0.033399999141693115,
            0.05570000037550926,
            0.3919000029563904,
            -0.11140000075101852,
            0.1315000057220459,
            0.30630001425743103,
            -0.2273000031709671
        ],
        [
            -0.012400000356137753,
            -0.06620000302791595,
            0.21639999747276306,
            -0.26080000400543213,
            -0.07100000232458115,
            0.11969999969005585,
            0.2134999930858612,
            0.07900000363588333,
            0.2721000015735626,
            0.06920000165700912,
            0.06689999997615814,
            0.45089998841285706,
            0.06759999692440033,
            -0.1006999984383583,
            0.2712000012397766,
            -0.020899999886751175
        ],
        [
            -0.01360000018030405,
            -0.0794999971985817,
            0.29190000891685486,
            -0.19210000336170197,
            -0.10119999945163727,
            0.013700000010430813,
            0.10909999907016754,
            -0.07750000059604645,
            0.22830000519752502,
            -0.0421999990940094,
            0.0414000004529953,
            0.5257999897003174,
            -0.11020000278949738,
            -0.0340999998152256,
            0.23469999432563782,
            -0.16539999842643738
        ],
        [
            -0.27489998936653137,
            -0.03750000149011612,
            0.24770000576972961,
            -0.23479999601840973,
            0.10840000212192535,
            -0.12430000305175781,
            0.31200000643730164,
            0.03189999982714653,
            0.19370000064373016,
            0.18729999661445618,
            0.005799999926239252,
            0.6273000240325928,
            -0.06939999759197235,
            0.1080000028014183,
            0.042899999767541885,
            -0.07129999995231628
        ],
        [
            -0.19380000233650208,
            -0.08330000191926956,
            0.2280000001192093,
            -0.25589999556541443,
            -0.0649000033736229,
            0.08209999650716782,
            0.35929998755455017,
            -0.09260000288486481,
            0.2987000048160553,
            0.12870000302791595,
            -0.2013999968767166,
            0.6272000074386597,
            0.06700000166893005,
            -0.13169999420642853,
            0.2919999957084656,
            0.04349999874830246
        ],
        [
            -0.0348999984562397,
            -0.07970000058412552,
            0.2797999978065491,
            -0.19910000264644623,
            0.00139999995008111,
            0.09470000118017197,
            0.30000001192092896,
            -0.11630000174045563,
            0.2540999948978424,
            0.1331000030040741,
            -0.06520000100135803,
            0.6532999873161316,
            0.09539999812841415,
            0.08609999716281891,
            0.15410000085830688,
            -0.17949999868869781
        ],
        [
            -0.12039999663829803,
            0.07729999721050262,
            0.20890000462532043,
            -0.10830000042915344,
            -0.1145000010728836,
            -0.12620000541210175,
            0.04500000178813934,
            0.13120000064373016,
            0.18690000474452972,
            0.009600000455975533,
            -0.04450000077486038,
            0.5877000093460083,
            -0.04769999906420708,
            0.11429999768733978,
            0.14509999752044678,
            0.05429999902844429
        ],
        [
            0.00430000014603138,
            -0.020500000566244125,
            0.13210000097751617,
            0.06920000165700912,
            -0.13830000162124634,
            -0.07419999688863754,
            0.27649998664855957,
            0.014800000004470348,
            0.3720000088214874,
            -0.08110000193119049,
            -0.11940000206232071,
            0.6360999941825867,
            -0.032499998807907104,
            -0.09449999779462814,
            0.0778999999165535,
            -0.16279999911785126
        ],
        [
            -0.06620000302791595,
            0.12960000336170197,
            0.22010000050067902,
            -9.999999747378752e-05,
            -0.12160000205039978,
            0.030700000002980232,
            0.33640000224113464,
            -0.11800000071525574,
            0.2939999997615814,
            -0.23430000245571136,
            -0.29319998621940613,
            0.5688999891281128,
            0.11590000241994858,
            -0.11320000141859055,
            0.042899999767541885,
            -0.025800000876188278
        ],
        [
            -0.1273999959230423,
            0.010300000198185444,
            0.19979999959468842,
            0.06390000134706497,
            -0.046799998730421066,
            0.07199999690055847,
            0.26100000739097595,
            -0.15209999680519104,
            0.3571999967098236,
            -0.0674000009894371,
            -0.195700004696846,
            0.5209000110626221,
            -0.14710000157356262,
            -0.010400000028312206,
            0.08399999886751175,
            -0.1412999927997589
        ],
        [
            -0.19280000030994415,
            0.13330000638961792,
            0.2087000012397766,
            0.09000000357627869,
            -0.05829999968409538,
            -0.12809999287128448,
            0.2597000002861023,
            -0.10809999704360962,
            0.19769999384880066,
            -0.07360000163316727,
            -0.32429999113082886,
            0.5393000245094299,
            0.08330000191926956,
            -0.025699999183416367,
            0.267300009727478,
            0.07069999724626541
        ],
        [
            -0.14910000562667847,
            -0.13019999861717224,
            0.17010000348091125,
            -0.039000000804662704,
            0.13230000436306,
            0.05169999971985817,
            0.06419999897480011,
            0.13420000672340393,
            0.2045000046491623,
            -0.10570000112056732,
            -0.16099999845027924,
            0.4142000079154968,
            -0.14219999313354492,
            0.016599999740719795,
            0.026000000536441803,
            0.013100000098347664
        ],
        [
            -0.14030000567436218,
            0.07020000368356705,
            0.1873999983072281,
            0.039799999445676804,
            0.035999998450279236,
            -0.08420000225305557,
            -0.017400000244379044,
            0.020800000056624413,
            0.23669999837875366,
            -0.14880000054836273,
            -0.06719999760389328,
            0.45010000467300415,
            -0.06509999930858612,
            0.07400000095367432,
            0.15289999544620514,
            0.005900000222027302
        ],
        [
            -0.01850000023841858,
            0.12070000171661377,
            0.20229999721050262,
            0.024399999529123306,
            -0.04500000178813934,
            0.09889999777078629,
            0.019700000062584877,
            0.10360000282526016,
            0.22470000386238098,
            -0.22849999368190765,
            -0.13860000669956207,
            0.3190000057220459,
            -0.10010000318288803,
            -0.03880000114440918,
            0.02500000037252903,
            -0.1387999951839447
        ],
        [
            -0.16009999811649323,
            -0.02539999969303608,
            0.04259999841451645,
            0.12890000641345978,
            0.04010000079870224,
            -0.09109999984502792,
            0.24639999866485596,
            -0.10589999705553055,
            0.25,
            -0.17579999566078186,
            -0.00989999994635582,
            0.21819999814033508,
            -0.14489999413490295,
            -0.10239999741315842,
            0.19249999523162842,
            0.1290999948978424
        ],
        [
            -0.15700000524520874,
            0.1080000028014183,
            0.050599999725818634,
            0.13089999556541443,
            0.10130000114440918,
            -0.045099999755620956,
            0.07620000094175339,
            0.0940999984741211,
            0.310699999332428,
            -0.2538999915122986,
            -0.014999999664723873,
            0.03310000151395798,
            0.0031999999191612005,
            0.0333000011742115,
            0.05220000073313713,
            -0.08129999786615372
        ],
        [
            -0.1559000015258789,
            -0.05559999868273735,
            0.10540000349283218,
            -0.012600000016391277,
            -0.10849999636411667,
            0.07419999688863754,
            0.1940000057220459,
            -0.07410000264644623,
            0.12049999833106995,
            -0.24719999730587006,
            0.06360000371932983,
            0.21289999783039093,
            0.0706000030040741,
            0.14190000295639038,
            0.08590000122785568,
            -0.21400000154972076
        ],
        [
            -0.27900001406669617,
            -0.08049999922513962,
            0.18060000240802765,
            0.14429999887943268,
            -0.03359999880194664,
            0.09239999949932098,
            0.19830000400543213,
            -0.11869999766349792,
            0.1615999937057495,
            -0.29789999127388,
            -0.09510000050067902,
            0.060100000351667404,
            -0.051600001752376556,
            -0.13750000298023224,
            0.013500000350177288,
            -0.0430000014603138
        ],
        [
            -0.06620000302791595,
            -0.028200000524520874,
            0.10019999742507935,
            0.23759999871253967,
            -0.11349999904632568,
            0.1362999975681305,
            0.0957999974489212,
            -0.052799999713897705,
            0.07150000333786011,
            -0.33250001072883606,
            0.05380000174045563,
            0.09589999914169312,
            0.03889999911189079,
            0.0019000000320374966,
            -0.037700001150369644,
            0.17910000681877136
        ],
        [
            -0.12800000607967377,
            0.0892999991774559,
            0.03530000150203705,
            0.19089999794960022,
            0.1136000007390976,
            -0.13019999861717224,
            0.011300000362098217,
            0.13609999418258667,
            0.17730000615119934,
            -0.36649999022483826,
            0.032600000500679016,
            -0.16329999268054962,
            -0.11980000138282776,
            0.10840000212192535,
            0.08659999817609787,
            0.012000000104308128
        ],
        [
            -0.05389999970793724,
            -0.12700000405311584,
            -0.0348999984562397,
            0.18150000274181366,
            -0.07109999656677246,
            -0.13689999282360077,
            -0.04800000041723251,
            0.023000000044703484,
            0.05649999901652336,
            -0.46239998936653137,
            -0.03280000016093254,
            -0.08969999849796295,
            0.007499999832361937,
            0.03790000081062317,
            0.10419999808073044,
            -0.1421000063419342
        ],
        [
            -0.09049999713897705,
            -0.1137000024318695,
            0.14190000295639038,
            0.38920000195503235,
            0.04910000041127205,
            0.007699999958276749,
            -0.032099999487400055,
            0.06360000371932983,
            0.10320000350475311,
            -0.503000020980835,
            0.11349999904632568,
            -0.15479999780654907,
            -0.10819999873638153,
            0.03880000114440918,
            0.05480000004172325,
            0.023900000378489494
        ],
        [
            -0.13529999554157257,
            0.05790000036358833,
            0.16740000247955322,
            0.29499998688697815,
            -0.15219999849796295,
            0.10090000182390213,
            0.21389999985694885,
            0.06440000236034393,
            0.06679999828338623,
            -0.6678000092506409,
            0.14499999582767487,
            -0.1598999947309494,
            -0.12330000102519989,
            -0.07509999722242355,
            0.07699999958276749,
            -0.07639999687671661
        ],
        [
            -0.057100001722574234,
            -0.09910000115633011,
            0.011099999770522118,
            0.4106999933719635,
            0.016499999910593033,
            -0.053700000047683716,
            0.1492999941110611,
            -0.004100000020116568,
            0.04659999907016754,
            -0.5152999758720398,
            0.2957000136375427,
            -0.17489999532699585,
            -0.1216999962925911,
            -0.07000000029802322,
            0.04699999839067459,
            0.21870000660419464
        ],
        [
            -0.08889999985694885,
            -0.14249999821186066,
            0.0868000015616417,
            0.3571000099182129,
            -0.06199999898672104,
            -0.05420000106096268,
            0.1023000031709671,
            0.10409999638795853,
            0.1606999933719635,
            -0.4223000109195709,
            0.26809999346733093,
            -0.22179999947547913,
            -0.00019999999494757503,
            0.12370000034570694,
            0.029400000348687172,
            -0.07490000128746033
        ],
        [
            -0.3160000145435333,
            -0.06239999830722809,
            0.14800000190734863,
            0.24300000071525574,
            0.12439999729394913,
            0.12240000069141388,
            -0.016599999740719795,
            0.07829999923706055,
            0.0737999975681305,
            -0.4569999873638153,
            0.2069000005722046,
            -0.23479999601840973,
            -0.07270000129938126,
            -0.007600000128149986,
            -0.03819999843835831,
            0.005799999926239252
        ],
        [
            -0.025100000202655792,
            -0.04769999906420708,
            -0.042399998754262924,
            0.2784999907016754,
            0.045499999076128006,
            -0.07339999824762344,
            -0.0649000033736229,
            0.008700000122189522,
            -0.04859999939799309,
            -0.15950000286102295,
            0.11389999836683273,
            -0.29840001463890076,
            0.05920000001788139,
            -0.12600000202655792,
            -0.06159999966621399,
            0.06400000303983688
        ],
        [
            -0.09629999846220016,
            -0.05090000107884407,
            0.12790000438690186,
            0.3659999966621399,
            -0.02759999968111515,
            -0.007400000002235174,
            -0.04520000144839287,
            0.061400000005960464,
            -0.015799999237060547,
            -0.18369999527931213,
            0.01679999940097332,
            -0.31709998846054077,
            0.13359999656677246,
            0.12330000102519989,
            -0.026399999856948853,
            -0.12269999831914902
        ],
        [
            -0.18559999763965607,
            -0.12039999663829803,
            -0.03779999911785126,
            0.21410000324249268,
            -0.08100000023841858,
            0.014800000004470348,
            0.14090000092983246,
            -0.1103999987244606,
            -0.05260000005364418,
            -0.21060000360012054,
            0.06469999998807907,
            -0.3158999979496002,
            0.012400000356137753,
            -0.09480000287294388,
            0.003599999938160181,
            0.26080000400543213
        ],
        [
            -0.18690000474452972,
            -0.07989999651908875,
            0.07190000265836716,
            0.3172000050544739,
            -0.05999999865889549,
            0.062199998646974564,
            -0.09939999878406525,
            0.003700000001117587,
            0.059300001710653305,
            -0.1664000004529953,
            -0.020999999716877937,
            -0.2745000123977661,
            0.022299999371170998,
            -0.0071000000461936,
            -0.08879999816417694,
            -0.11140000075101852
        ],
        [
            -0.20430000126361847,
            0.11720000207424164,
            0.04659999907016754,
            0.35690000653266907,
            -0.0034000000450760126,
            -0.03970000147819519,
            0.065700002014637,
            -0.04529999941587448,
            0.12070000171661377,
            -0.2020999938249588,
            -0.021800000220537186,
            -0.1768999993801117,
            0.06319999694824219,
            0.09179999679327011,
            0.014700000174343586,
            0.09920000284910202
        ],
        [
            -0.22679999470710754,
            -0.07119999825954437,
            0.12939999997615814,
            0.3124000132083893,
            0.07649999856948853,
            -0.10599999874830246,
            -0.050200000405311584,
            0.019700000062584877,
            0.07249999791383743,
            -0.07819999754428864,
            0.10599999874830246,
            -0.22619999945163727,
            -0.013299999758601189,
            -0.12770000100135803,
            0.010900000110268593,
            -0.021900000050663948
        ],
        [
            -0.030400000512599945,
            -0.05950000137090683,
            0.13019999861717224,
            0.3260999917984009,
            -0.08510000258684158,
            0.05869999900460243,
            0.09849999845027924,
            -0.04830000177025795,
            0.052000001072883606,
            0.0044999998062849045,
            -0.2290000021457672,
            -0.14300000667572021,
            -0.0625,
            0.040800001472234726,
            0.17829999327659607,
            -0.0210999995470047
        ],
        [
            -0.13619999587535858,
            -0.15369999408721924,
            0.18649999797344208,
            0.4406999945640564,
            -0.06129999831318855,
            0.04320000112056732,
            -0.06790000200271606,
            -0.14489999413490295,
            0.057100001722574234,
            0.0908999964594841,
            -0.18410000205039978,
            -0.1898999959230423,
            0.045099999755620956,
            -0.09260000288486481,
            -0.02930000051856041,
            0.23909999430179596
        ],
        [
            0.01119999960064888,
            -0.045499999076128006,
            -0.07270000129938126,
            0.3472999930381775,
            -0.059700001031160355,
            0.13189999759197235,
            -0.007000000216066837,
            0.061500001698732376,
            0.20819999277591705,
            0.22939999401569366,
            -0.21580000221729279,
            -0.2175000011920929,
            -0.1152999997138977,
            0.02250000089406967,
            0.017500000074505806,
            -0.03530000150203705
        ],
        [
            -0.2092999964952469,
            -0.006000000052154064,
            0.08370000123977661,
            0.2906000018119812,
            -0.12559999525547028,
            0.0697999969124794,
            0.06920000165700912,
            -0.05889999866485596,
            -0.05920000001788139,
            0.3321000039577484,
            -0.2517000138759613,
            -0.3257000148296356,
            0.11230000108480453,
            0.05810000002384186,
            0.18029999732971191,
            0.1768999993801117
        ],
        [
            -0.0052999998442828655,
            -0.08100000023841858,
            0.028599999845027924,
            0.28600001335144043,
            0.0406000018119812,
            0.10849999636411667,
            -0.11219999939203262,
            -0.08669999986886978,
            -0.12870000302791595,
            0.26260000467300415,
            -0.35019999742507935,
            -0.25920000672340393,
            -0.062300000339746475,
            -0.13300000131130219,
            0.10790000110864639,
            0.045499999076128006
        ],
        [
            -0.21160000562667847,
            0.11010000109672546,
            -0.07509999722242355,
            0.21619999408721924,
            -0.05950000137090683,
            0.009600000455975533,
            -0.1145000010728836,
            0.02449999935925007,
            -0.14190000295639038,
            0.42879998683929443,
            -0.45750001072883606,
            -0.3070000112056732,
            0.012600000016391277,
            -0.046799998730421066,
            0.007699999958276749,
            0.16429999470710754
        ],
        [
            -0.010400000028312206,
            0.011699999682605267,
            -0.07900000363588333,
            0.17710000276565552,
            0.01360000018030405,
            -0.06419999897480011,
            -0.053599998354911804,
            -0.009399999864399433,
            -0.12449999898672104,
            0.413100004196167,
            -0.5070000290870667,
            -0.2500999867916107,
            -0.012199999764561653,
            0.12359999865293503,
            -0.2287999987602234,
            -0.0034000000450760126
        ],
        [
            -0.3154999911785126,
            -0.09889999777078629,
            -0.17980000376701355,
            0.15629999339580536,
            0.1128000020980835,
            -0.03849999979138374,
            -0.23899999260902405,
            -0.04450000077486038,
            -0.18039999902248383,
            0.3993000090122223,
            -0.560699999332428,
            -0.15440000593662262,
            -0.09749999642372131,
            -0.1062999963760376,
            -0.20489999651908875,
            0.1808999925851822
        ],
        [
            -0.12240000069141388,
            0.008200000040233135,
            -0.04859999939799309,
            0.09319999814033508,
            -0.023800000548362732,
            -0.07649999856948853,
            -0.13580000400543213,
            0.10559999942779541,
            -0.010900000110268593,
            0.5979999899864197,
            -0.5396000146865845,
            -0.2483000010251999,
            -0.12800000607967377,
            -0.1111999973654747,
            0.01860000006854534,
            0.12039999663829803
        ],
        [
            -0.10180000215768814,
            0.018699999898672104,
            -0.1834000051021576,
            0.24060000479221344,
            0.034299999475479126,
            0.08540000021457672,
            -0.2160000056028366,
            0.04780000075697899,
            -0.12039999663829803,
            0.3749000132083893,
            -0.4471000134944916,
            -0.31700000166893005,
            -0.045099999755620956,
            -0.032999999821186066,
            -0.1459999978542328,
            0.18930000066757202
        ],
        [
            -0.06989999860525131,
            0.10899999737739563,
            -0.08789999783039093,
            0.20110000669956207,
            0.037300001829862595,
            0.08749999850988388,
            -0.21089999377727509,
            -0.004900000058114529,
            -0.10289999842643738,
            0.23029999434947968,
            -0.5619999766349792,
            -0.241799995303154,
            -0.09539999812841415,
            -0.050999999046325684,
            -0.021199999377131462,
            0.08940000087022781
        ],
        [
            -0.1784999966621399,
            -0.07769999653100967,
            -0.010300000198185444,
            -0.019099999219179153,
            0.08540000021457672,
            0.02539999969303608,
            -0.03779999911785126,
            -0.0908999964594841,
            -0.1680999994277954,
            0.42899999022483826,
            -0.5741000175476074,
            -0.24740000069141388,
            0.01269999984651804,
            0.026799999177455902,
            -0.08479999750852585,
            -0.04600000008940697
        ],
        [
            0.017500000074505806,
            -0.08950000256299973,
            -0.15800000727176666,
            -0.007499999832361937,
            -0.14489999413490295,
            -0.13989999890327454,
            -0.07670000195503235,
            -0.12060000002384186,
            -0.26089999079704285,
            0.4185999929904938,
            -0.5943999886512756,
            -0.27709999680519104,
            -0.002400000113993883,
            0.07739999890327454,
            -0.23260000348091125,
            0.08320000022649765
        ],
        [
            -0.01899999938905239,
            0.030700000002980232,
            -0.12099999934434891,
            0.0632999986410141,
            -0.12250000238418579,
            -0.07490000128746033,
            -0.25099998712539673,
            -0.004999999888241291,
            -0.23489999771118164,
            0.25760000944137573,
            -0.5392000079154968,
            -0.3479999899864197,
            0.066600002348423,
            -0.05909999832510948,
            -0.2806999981403351,
            0.23579999804496765
        ],
        [
            -0.09709999710321426,
            0.04899999871850014,
            -0.267300009727478,
            -0.009200000204145908,
            0.08429999649524689,
            -0.03240000084042549,
            -0.17069999873638153,
            0.05550000071525574,
            -0.3368000090122223,
            0.24740000069141388,
            -0.46369999647140503,
            -0.2303999960422516,
            -0.13349999487400055,
            0.07609999924898148,
            -0.23569999635219574,
            0.10119999945163727
        ],
        [
            0.013100000098347664,
            -0.12120000272989273,
            -0.1981000006198883,
            -0.020600000396370888,
            0.005200000014156103,
            0.10119999945163727,
            -0.18320000171661377,
            -0.008200000040233135,
            -0.352400004863739,
            0.13729999959468842,
            -0.3479999899864197,
            -0.28439998626708984,
            -0.016899999231100082,
            -0.13109999895095825,
            -0.1704999953508377,
            -0.03779999911785126
        ],
        [
            0.004999999888241291,
            -0.06530000269412994,
            -0.1729000061750412,
            -0.10249999910593033,
            -0.05990000069141388,
            0.11890000104904175,
            -0.08749999850988388,
            -0.11999999731779099,
            -0.3327000141143799,
            0.053599998354911804,
            -0.09220000356435776,
            -0.32260000705718994,
            0.07639999687671661,
            0.10130000114440918,
            -0.12449999898672104,
            0.15729999542236328
        ],
        [
            0.08160000294446945,
            0.01679999940097332,
            -0.12139999866485596,
            -0.1387999951839447,
            -0.05860000103712082,
            -0.0348999984562397,
            -0.09399999678134918,
            -0.11320000141859055,
            -0.34790000319480896,
            0.08299999684095383,
            -0.07460000365972519,
            -0.14509999752044678,
            -0.023499999195337296,
            -0.14550000429153442,
            -0.29170000553131104,
            0.18019999563694
        ],
        [
            -0.20399999618530273,
            -0.1266999989748001,
            -0.06129999831318855,
            -0.06939999759197235,
            0.11699999868869781,
            0.013399999588727951,
            -0.19820000231266022,
            -0.0038999998942017555,
            -0.2410999983549118,
            -0.15800000727176666,
            0.12489999830722809,
            -0.3619999885559082,
            -0.14270000159740448,
            0.08100000023841858,
            -0.2840999960899353,
            0.019700000062584877
        ],
        [
            -0.14579999446868896,
            0.019200000911951065,
            -0.05779999867081642,
            -0.13199999928474426,
            -0.07800000160932541,
            -0.032499998807907104,
            -0.1979999989271164,
            -0.06930000334978104,
            -0.3224000036716461,
            -0.263700008392334,
            -0.0746999979019165,
            -0.20499999821186066,
            0.020899999886751175,
            -0.03970000147819519,
            -0.0794999971985817,
            0.04039999842643738
        ],
        [
            -0.050599999725818634,
            0.08659999817609787,
            -0.21490000188350677,
            -0.14090000092983246,
            -0.03460000082850456,
            0.04309999942779541,
            -0.14319999516010284,
            -0.1460999995470047,
            -0.05400000140070915,
            -0.392300009727478,
            0.164900004863739,
            -0.07370000332593918,
            -0.011900000274181366,
            0.13860000669956207,
            -0.13379999995231628,
            0.19760000705718994
        ],
        [
            0.04259999841451645,
            -0.11469999700784683,
            -0.17010000348091125,
            -0.11620000004768372,
            0.021199999377131462,
            0.08820000290870667,
            -0.2793000042438507,
            -0.04019999876618385,
            -0.14579999446868896,
            -0.2623000144958496,
            0.16410000622272491,
            -0.13510000705718994,
            0.1225999966263771,
            -0.051100000739097595,
            -0.027300000190734863,
            0.2976999878883362
        ],
        [
            -0.06310000270605087,
            -0.04320000112056732,
            -0.02290000021457672,
            -0.0868000015616417,
            -0.1151999980211258,
            0.013100000098347664,
            -0.2590999901294708,
            -0.0617000013589859,
            -0.1315000057220459,
            -0.5126000046730042,
            0.3449000120162964,
            -0.04340000078082085,
            -0.051600001752376556,
            0.07890000194311142,
            -0.06759999692440033,
            0.0272000003606081
        ],
        [
            0.0010000000474974513,
            -0.0949999988079071,
            -0.2615000009536743,
            -0.016699999570846558,
            -0.09229999780654907,
            0.002300000051036477,
            -0.2257000058889389,
            -0.061000000685453415,
            -0.033399999141693115,
            -0.48190000653266907,
            0.2476000040769577,
            0.0005000000237487257,
            -0.03970000147819519,
            -0.12559999525547028,
            -0.225600004196167,
            0.3111000061035156
        ],
        [
            -0.2117999941110611,
            -0.11240000277757645,
            -0.14169999957084656,
            -0.09369999915361404,
            -0.020400000736117363,
            -0.15520000457763672,
            -0.011300000362098217,
            -0.09570000320672989,
            -0.028699999675154686,
            -0.4957999885082245,
            0.43059998750686646,
            0.02419999986886978,
            0.03500000014901161,
            -0.04879999905824661,
            -0.026499999687075615,
            0.013100000098347664
        ],
        [
            0.125,
            0.12970000505447388,
            -0.15929999947547913,
            -0.07360000163316727,
            0.12319999933242798,
            0.07999999821186066,
            -0.0989999994635582,
            0.03819999843835831,
            -0.0478999987244606,
            -0.5536999702453613,
            0.5023000240325928,
            0.17839999496936798,
            0.10580000281333923,
            0.056299999356269836,
            0.0348999984562397,
            0.08240000158548355
        ],
        [
            -0.005100000184029341,
            0.10379999876022339,
            0.04349999874830246,
            0.07680000364780426,
            0.07959999889135361,
            0.09449999779462814,
            0.13570000231266022,
            -0.03350000083446503,
            0.0568000003695488,
            -0.5437999963760376,
            0.4708000123500824,
            0.04879999905824661,
            -0.07689999788999557,
            -0.05829999968409538,
            0.09679999947547913,
            0.28610000014305115
        ],
        [
            -0.10520000010728836,
            0.0568000003695488,
            0.13269999623298645,
            -0.18320000171661377,
            -0.12189999967813492,
            -0.09669999778270721,
            0.16050000488758087,
            -0.14990000426769257,
            0.2328999936580658,
            -0.4765999913215637,
            0.5134999752044678,
            0.2214999943971634,
            -0.10840000212192535,
            -0.11720000207424164,
            0.19449999928474426,
            0.2556999921798706
        ],
        [
            -0.06379999965429306,
            0.031199999153614044,
            0.11540000140666962,
            -0.26899999380111694,
            0.040800001472234726,
            0.042399998754262924,
            0.12129999697208405,
            -0.1347000002861023,
            0.1290999948978424,
            -0.39660000801086426,
            0.4982999861240387,
            0.19539999961853027,
            0.12720000743865967,
            -0.14499999582767487,
            0.06509999930858612,
            0.21799999475479126
        ],
        [
            0.09220000356435776,
            0.10999999940395355,
            -0.03840000182390213,
            -0.11190000176429749,
            0.031700000166893005,
            -0.053700000047683716,
            0.11140000075101852,
            -0.1412999927997589,
            0.04690000042319298,
            -0.2757999897003174,
            0.4595000147819519,
            0.22509999573230743,
            0.08659999817609787,
            -0.11789999902248383,
            0.05810000002384186,
            0.2578999996185303
        ],
        [
            0.07209999859333038,
            -0.008799999952316284,
            0.08370000123977661,
            -0.09319999814033508,
            -0.08950000256299973,
            0.041099999099969864,
            0.2199999988079071,
            -0.009399999864399433,
            0.13109999895095825,
            -0.23100000619888306,
            0.3490999937057495,
            0.19449999928474426,
            -0.10689999908208847,
            -0.01140000019222498,
            0.1753000020980835,
            0.30219998955726624
        ],
        [
            -0.050200000405311584,
            -0.010099999606609344,
            0.07559999823570251,
            -0.257099986076355,
            0.010099999606609344,
            -0.09440000355243683,
            -0.015599999576807022,
            -0.01590000092983246,
            0.04470000043511391,
            -0.09019999951124191,
            0.31709998846054077,
            0.1242000013589859,
            -0.09430000185966492,
            -0.14730000495910645,
            0.08730000257492065,
            0.11590000241994858
        ],
        [
            0.1128000020980835,
            -0.004600000102072954,
            0.18729999661445618,
            -0.11429999768733978,
            -0.02449999935925007,
            0.08150000125169754,
            0.03420000150799751,
            -0.14329999685287476,
            0.20600000023841858,
            -0.017999999225139618,
            0.38199999928474426,
            0.2985000014305115,
            0.11259999871253967,
            0.058800000697374344,
            0.12770000100135803,
            0.3109000027179718
        ],
        [
            0.1404999941587448,
            0.11299999803304672,
            0.13109999895095825,
            -0.25099998712539673,
            -0.11349999904632568,
            -0.14839999377727509,
            0.19979999959468842,
            -0.05860000103712082,
            0.13760000467300415,
            -0.06509999930858612,
            0.2476000040769577,
            0.28349998593330383,
            -0.15399999916553497,
            -0.1348000019788742,
            0.08500000089406967,
            0.11500000208616257
        ],
        [
            0.18289999663829803,
            -0.04129999876022339,
            -0.02329999953508377,
            -0.39590001106262207,
            0.05820000171661377,
            -0.10040000081062317,
            -0.010200000368058681,
            0.11760000139474869,
            0.09000000357627869,
            0.17980000376701355,
            0.10580000281333923,
            0.04580000042915344,
            -0.12800000607967377,
            0.01769999973475933,
            0.15800000727176666,
            0.04390000179409981
        ],
        [
            0.0071000000461936,
            0.032499998807907104,
            -0.06930000334978104,
            -0.31859999895095825,
            0.039799999445676804,
            0.01979999989271164,
            0.04019999876618385,
            -0.023499999195337296,
            0.08540000021457672,
            0.34290000796318054,
            0.1168999969959259,
            0.06769999861717224,
            0.07800000160932541,
            -0.01600000075995922,
            0.05820000171661377,
            0.14550000429153442
        ],
        [
            0.0706000030040741,
            0.045099999755620956,
            -0.06390000134706497,
            -0.304500013589859,
            0.001500000013038516,
            0.08179999887943268,
            -0.04230000078678131,
            0.09960000216960907,
            0.022600000724196434,
            0.2953999936580658,
            -0.029899999499320984,
            0.13339999318122864,
            -0.07029999792575836,
            -0.09669999778270721,
            0.1331000030040741,
            0.12800000607967377
        ],
        [
            0.0697999969124794,
            -0.04899999871850014,
            -0.16349999606609344,
            -0.2761000096797943,
            0.09210000187158585,
            0.018400000408291817,
            0.133200004696846,
            0.0803999975323677,
            0.06710000336170197,
            0.4336000084877014,
            0.0877000018954277,
            -0.11509999632835388,
            0.0007999999797903001,
            -0.12639999389648438,
            0.021700000390410423,
            0.1712000072002411
        ],
        [
            0.06809999793767929,
            -0.032600000500679016,
            -0.13650000095367432,
            -0.1890999972820282,
            -0.030899999663233757,
            0.020899999886751175,
            0.0940999984741211,
            -0.09709999710321426,
            -0.11879999935626984,
            0.30720001459121704,
            0.1534000039100647,
            -0.12409999966621399,
            0.1137000024318695,
            -0.13979999721050262,
            -0.13109999895095825,
            0.24279999732971191
        ],
        [
            -0.02539999969303608,
            -0.10689999908208847,
            -0.2295999974012375,
            -0.15209999680519104,
            -0.08619999885559082,
            0.0835999995470047,
            0.06419999897480011,
            0.07270000129938126,
            -0.1006999984383583,
            0.3790999948978424,
            0.15410000085830688,
            -0.1534000039100647,
            0.10260000079870224,
            0.03370000049471855,
            0.06599999964237213,
            0.04190000146627426
        ],
        [
            0.19099999964237213,
            -0.08479999750852585,
            -0.26100000739097595,
            -0.2046000063419342,
            -0.0731000006198883,
            0.017400000244379044,
            -0.11500000208616257,
            0.12780000269412994,
            -0.12150000035762787,
            0.2897000014781952,
            0.09650000184774399,
            -0.13510000705718994,
            0.009600000455975533,
            0.11469999700784683,
            -0.257999986410141,
            0.19670000672340393
        ],
        [
            0.1103999987244606,
            -0.13379999995231628,
            -0.23819999396800995,
            -0.16369999945163727,
            0.1152999997138977,
            -0.09920000284910202,
            0.012500000186264515,
            -0.026599999517202377,
            -0.17990000545978546,
            0.2231999933719635,
            -0.050599999725818634,
            -0.15600000321865082,
            0.048900000751018524,
            0.04430000111460686,
            0.015799999237060547,
            0.23389999568462372
        ],
        [
            -0.011900000274181366,
            -0.0908999964594841,
            -0.18320000171661377,
            -0.1632000058889389,
            0.06830000132322311,
            -0.026200000196695328,
            -0.17350000143051147,
            -0.07440000027418137,
            -0.24959999322891235,
            0.24480000138282776,
            0.05730000138282776,
            -0.21330000460147858,
            0.03680000081658363,
            -0.03929999843239784,
            -0.020600000396370888,
            0.13300000131130219
        ],
        [
            0.07880000025033951,
            0.07419999688863754,
            -0.05959999933838844,
            -0.2264000028371811,
            -0.10540000349283218,
            -0.15320000052452087,
            -0.03750000149011612,
            0.13989999890327454,
            -0.04919999837875366,
            0.19509999454021454,
            0.006399999838322401,
            -0.15469999611377716,
            -0.05990000069141388,
            0.06109999865293503,
            -0.0013000000035390258,
            0.08569999784231186
        ],
        [
            0.006500000134110451,
            0.005900000222027302,
            -0.06599999964237213,
            -0.2492000013589859,
            0.13600000739097595,
            0.014700000174343586,
            -0.19419999420642853,
            -0.009100000374019146,
            -0.21040000021457672,
            0.3855000138282776,
            0.09510000050067902,
            -0.040300000458955765,
            0.020999999716877937,
            -0.05939999967813492,
            -0.023099999874830246,
            0.22220000624656677
        ],
        [
            0.06849999725818634,
            -0.037300001829862595,
            -0.22779999673366547,
            -0.2750000059604645,
            0.13750000298023224,
            -0.06549999862909317,
            -0.0142000000923872,
            0.04580000042915344,
            -0.09049999713897705,
            0.3361000120639801,
            -0.13379999995231628,
            -0.18479999899864197,
            0.13600000739097595,
            0.0560000017285347,
            -0.13459999859333038,
            0.2434999942779541
        ],
        [
            0.121799997985363,
            0.08070000261068344,
            -0.30090001225471497,
            -0.0917000025510788,
            0.08749999850988388,
            0.038100000470876694,
            -0.16210000216960907,
            -0.10970000177621841,
            -0.08940000087022781,
            0.16949999332427979,
            -0.03310000151395798,
            -0.1728000044822693,
            0.09109999984502792,
            0.08070000261068344,
            -0.039500001817941666,
            0.289900004863739
        ],
        [
            -0.027000000700354576,
            0.00839999970048666,
            -0.15850000083446503,
            -0.12630000710487366,
            -0.10209999978542328,
            -0.10130000114440918,
            0.030300000682473183,
            -0.024399999529123306,
            -0.0828000009059906,
            0.0005000000237487257,
            0.0786999985575676,
            -0.09740000218153,
            -0.027499999850988388,
            0.13030000030994415,
            -0.1859000027179718,
            0.12269999831914902
        ],
        [
            0.2872999906539917,
            -0.028200000524520874,
            -0.14910000562667847,
            0.010200000368058681,
            -0.06369999796152115,
            -0.05209999904036522,
            0.08640000224113464,
            0.049300000071525574,
            -0.1509999930858612,
            -0.08760000020265579,
            -0.03350000083446503,
            -0.11029999703168869,
            0.0017999999690800905,
            0.00930000003427267,
            0.09889999777078629,
            0.19930000603199005
        ],
        [
            0.15569999814033508,
            0.10859999805688858,
            0.07580000162124634,
            0.006500000134110451,
            -0.147599995136261,
            -0.10000000149011612,
            0.010999999940395355,
            -0.03400000184774399,
            -0.018300000578165054,
            -0.05909999832510948,
            -0.020500000566244125,
            -0.026799999177455902,
            0.09539999812841415,
            -0.12890000641345978,
            0.00039999998989515007,
            0.23469999432563782
        ],
        [
            0.22439999878406525,
            -0.11580000072717667,
            -0.14880000054836273,
            0.08370000123977661,
            -0.014100000262260437,
            -0.1340000033378601,
            -0.03830000013113022,
            -0.061799999326467514,
            0.22210000455379486,
            -0.25130000710487366,
            0.1673000007867813,
            0.1632000058889389,
            -0.041999999433755875,
            -0.12489999830722809,
            -0.04540000110864639,
            0.21780000627040863
        ],
        [
            0.032600000500679016,
            0.03310000151395798,
            0.026499999687075615,
            -0.07479999959468842,
            -0.07479999959468842,
            -0.03440000116825104,
            0.07959999889135361,
            -0.14740000665187836,
            0.21080000698566437,
            -0.22030000388622284,
            0.2110999971628189,
            -0.010099999606609344,
            0.1088000014424324,
            0.11349999904632568,
            0.08250000327825546,
            0.0729999989271164
        ],
        [
            0.06369999796152115,
            0.09019999951124191,
            0.038100000470876694,
            0.11249999701976776,
            -0.14810000360012054,
            -0.018200000748038292,
            0.12229999899864197,
            -0.05169999971985817,
            0.13420000672340393,
            -0.1876000016927719,
            0.11729999631643295,
            0.1889999955892563,
            -0.05660000070929527,
            -0.004699999932199717,
            0.08009999990463257,
            0.08829999715089798
        ],
        [
            0.2619999945163727,
            0.0746999979019165,
            -0.09539999812841415,
            0.19539999961853027,
            -0.11540000140666962,
            0.08730000257492065,
            -0.05570000037550926,
            0.0568000003695488,
            0.07349999994039536,
            -0.1378999948501587,
            0.2957000136375427,
            0.20960000157356262,
            -0.15440000593662262,
            -0.06780000030994415,
            0.14319999516010284,
            0.1412000060081482
        ],
        [
            0.21539999544620514,
            0.13220000267028809,
            0.04399999976158142,
            0.1251000016927719,
            0.04170000180602074,
            -0.12549999356269836,
            0.07029999792575836,
            0.10260000079870224,
            0.03739999979734421,
            -0.10809999704360962,
            0.10719999670982361,
            0.37630000710487366,
            -0.07680000364780426,
            0.06530000269412994,
            0.18619999289512634,
            0.17239999771118164
        ],
        [
            0.27709999680519104,
            -0.1281999945640564,
            0.034299999475479126,
            0.23319999873638153,
            -0.11219999939203262,
            0.08980000019073486,
            0.13600000739097595,
            -0.12479999661445618,
            0.20309999585151672,
            -0.18799999356269836,
            -0.09809999912977219,
            0.29010000824928284,
            -0.03759999945759773,
            0.007199999876320362,
            0.1761000007390976,
            0.2125999927520752
        ],
        [
            0.020999999716877937,
            0.00800000037997961,
            -0.10300000011920929,
            0.2700999975204468,
            -0.02070000022649765,
            -0.10729999840259552,
            0.0674000009894371,
            -0.012500000186264515,
            0.1428000032901764,
            -0.2957000136375427,
            0.13920000195503235,
            0.3366999924182892,
            -0.12860000133514404,
            -0.1145000010728836,
            0.22470000386238098,
            0.10499999672174454
        ],
        [
            0.18850000202655792,
            -0.1266999989748001,
            0.002899999963119626,
            0.1340000033378601,
            0.11389999836683273,
            0.04390000179409981,
            0.2712000012397766,
            -0.06530000269412994,
            0.2660999894142151,
            -0.27970001101493835,
            -0.09830000251531601,
            0.43380001187324524,
            -0.0982000008225441,
            0.09380000084638596,
            0.2775000035762787,
            0.1307000070810318
        ],
        [
            0.334199994802475,
            -0.017999999225139618,
            -0.05990000069141388,
            0.2671999931335449,
            0.08129999786615372,
            0.0421999990940094,
            0.24740000069141388,
            -0.12460000067949295,
            0.1046999990940094,
            -0.08380000293254852,
            -0.04019999876618385,
            0.2630000114440918,
            0.06109999865293503,
            0.10520000010728836,
            0.28029999136924744,
            0.0794999971985817
        ],
        [
            0.047600001096725464,
            -0.13439999520778656,
            -0.1256999969482422,
            0.20059999823570251,
            0.057500001043081284,
            -0.06419999897480011,
            0.23260000348091125,
            -0.010499999858438969,
            0.15150000154972076,
            -0.019200000911951065,
            -0.025699999183416367,
            0.4717999994754791,
            -0.03620000183582306,
            0.1273999959230423,
            0.21400000154972076,
            0.10750000178813934
        ],
        [
            0.06360000371932983,
            0.07819999754428864,
            0.07739999890327454,
            0.2362000048160553,
            -0.12359999865293503,
            -0.08240000158548355,
            0.16089999675750732,
            -0.08380000293254852,
            0.3102000057697296,
            -0.15139999985694885,
            0.05959999933838844,
            0.3395000100135803,
            0.11240000277757645,
            -0.08389999717473984,
            0.2955000102519989,
            0.262800008058548
        ],
        [
            0.2791000008583069,
            -0.11599999666213989,
            -0.023099999874830246,
            0.059700001031160355,
            0.1160999983549118,
            0.03280000016093254,
            0.05939999967813492,
            -0.14630000293254852,
            0.32339999079704285,
            -0.16419999301433563,
            -0.07580000162124634,
            0.45579999685287476,
            0.12150000035762787,
            -0.06870000064373016,
            0.02539999969303608,
            -0.03999999910593033
        ],
        [
            0.2321999967098236,
            -0.09870000183582306,
            0.07329999655485153,
            0.155799999833107,
            -0.13099999725818634,
            -0.056299999356269836,
            0.1632000058889389,
            0.06449999660253525,
            0.1289999932050705,
            0.13860000669956207,
            -0.12559999525547028,
            0.28850001096725464,
            -0.036400001496076584,
            0.027799999341368675,
            -0.02199999988079071,
            0.039000000804662704
        ],
        [
            0.05779999867081642,
            -0.008999999612569809,
            0.03620000183582306,
            -0.11540000140666962,
            -0.04830000177025795,
            0.00839999970048666,
            0.01140000019222498,
            -0.15080000460147858,
            0.23330000042915344,
            0.31299999356269836,
            0.0071000000461936,
            0.35519999265670776,
            0.050599999725818634,
            -0.013399999588727951,
            0.017899999395012856,
            0.019500000402331352
        ],
        [
            0.13779999315738678,
            0.10649999976158142,
            -0.11969999969005585,
            -0.11479999870061874,
            -0.019899999722838402,
            0.06270000338554382,
            0.1460999995470047,
            -0.07670000195503235,
            0.1891999989748001,
            0.3109999895095825,
            -0.14560000598430634,
            0.31130000948905945,
            -0.08649999648332596,
            0.030899999663233757,
            0.25440001487731934,
            0.23000000417232513
        ],
        [
            0.11140000075101852,
            -0.07039999961853027,
            -0.12520000338554382,
            -0.19769999384880066,
            0.04390000179409981,
            -0.005799999926239252,
            0.07829999923706055,
            0.10559999942779541,
            0.22130000591278076,
            0.2206999957561493,
            -0.11890000104904175,
            0.353300005197525,
            -0.04650000110268593,
            -0.034699998795986176,
            0.14509999752044678,
            0.03610000014305115
        ],
        [
            0.27730000019073486,
            0.0885000005364418,
            -0.15119999647140503,
            -0.05950000137090683,
            -0.06279999762773514,
            -0.014299999922513962,
            -0.00039999998989515007,
            -0.15219999849796295,
            0.14069999754428864,
            0.1964000016450882,
            -0.18780000507831573,
            0.18690000474452972,
            -0.13580000400543213,
            -0.06920000165700912,
            0.14480000734329224,
            -0.016300000250339508
        ],
        [
            0.13809999823570251,
            -0.019600000232458115,
            -0.045099999755620956,
            -0.20069999992847443,
            0.013799999840557575,
            0.12780000269412994,
            0.07840000092983246,
            -0.033399999141693115,
            -0.025599999353289604,
            0.258899986743927,
            0.011099999770522118,
            0.06109999865293503,
            0.026900000870227814,
            -0.08590000122785568,
            0.18639999628067017,
            0.22779999673366547
        ],
        [
            0.24300000071525574,
            -0.15620000660419464,
            -0.038100000470876694,
            -0.07999999821186066,
            -0.11509999632835388,
            -0.0010999999940395355,
            0.08410000056028366,
            -0.06989999860525131,
            -0.07249999791383743,
            0.24279999732971191,
            -0.0689999982714653,
            0.02199999988079071,
            -0.14730000495910645,
            -0.06800000369548798,
            -0.05260000005364418,
            0.0272000003606081
        ],
        [
            -0.007000000216066837,
            -0.11389999836683273,
            -0.20649999380111694,
            -0.20399999618530273,
            -0.025100000202655792,
            0.009399999864399433,
            -0.030700000002980232,
            -0.058400001376867294,
            -0.11670000106096268,
            0.2313999980688095,
            0.05959999933838844,
            -0.025800000876188278,
            -0.11559999734163284,
            0.09920000284910202,
            -0.155799999833107,
            0.09619999676942825
        ],
        [
            0.3147999942302704,
            0.02280000038444996,
            -0.07270000129938126,
            -0.22419999539852142,
            0.007000000216066837,
            0.04270000010728836,
            0.005400000140070915,
            -0.06849999725818634,
            -0.11569999903440475,
            0.2362000048160553,
            0.09799999743700027,
            0.05169999971985817,
            -0.027300000190734863,
            -0.013299999758601189,
            -0.1996999979019165,
            0.17470000684261322
        ],
        [
            0.27469998598098755,
            -0.01140000019222498,
            -0.21490000188350677,
            -0.18539999425411224,
            0.120899997651577,
            0.004600000102072954,
            0.015599999576807022,
            0.10019999742507935,
            -0.16220000386238098,
            0.28290000557899475,
            -0.11949999630451202,
            -0.024800000712275505,
            -0.09809999912977219,
            -0.10000000149011612,
            -0.10700000077486038,
            0.07249999791383743
        ],
        [
            0.22010000050067902,
            -0.03880000114440918,
            0.051899999380111694,
            -0.29420000314712524,
            -0.0892999991774559,
            -0.04520000144839287,
            0.06880000233650208,
            0.0754999965429306,
            -0.10660000145435333,
            0.2879999876022339,
            0.016899999231100082,
            -0.11620000004768372,
            -0.1396999955177307,
            -0.13770000636577606,
            0.04349999874830246,
            0.20990000665187836
        ],
        [
            0.10740000009536743,
            0.03799999877810478,
            -0.11379999667406082,
            -0.11890000104904175,
            -0.12290000170469284,
            -0.15309999883174896,
            -0.08470000326633453,
            0.018799999728798866,
            -0.050999999046325684,
            0.12729999423027039,
            0.013199999928474426,
            0.03449999913573265,
            0.006300000008195639,
            -0.0005000000237487257,
            -0.14560000598430634,
            0.030799999833106995
        ],
        [
            0.16740000247955322,
            -0.021700000390410423,
            -0.043299999088048935,
            -0.251800000667572,
            -0.009999999776482582,
            -0.013100000098347664,
            0.024299999698996544,
            0.04659999907016754,
            -0.13670000433921814,
            0.23190000653266907,
            0.0340999998152256,
            0.049400001764297485,
            -0.14730000495910645,
            0.10080000013113022,
            -0.02850000001490116,
            0.18449999392032623
        ],
        [
            0.19480000436306,
            -0.10320000350475311,
            0.016300000250339508,
            -0.05400000140070915,
            -0.13670000433921814,
            -0.03790000081062317,
            0.10809999704360962,
            0.12639999389648438,
            -0.13930000364780426,
            0.148499995470047,
            -0.053199999034404755,
            -0.07289999723434448,
            -0.10419999808073044,
            0.09149999916553497,
            -0.1347000002861023,
            0.23309999704360962
        ],
        [
            0.20100000500679016,
            0.12150000035762787,
            -0.12070000171661377,
            -0.12110000103712082,
            0.053599998354911804,
            -0.06710000336170197,
            0.043699998408555984,
            -0.12489999830722809,
            0.09130000323057175,
            -0.012500000186264515,
            0.1006999984383583,
            -0.08910000324249268,
            0.12160000205039978,
            0.0013000000035390258,
            0.11959999799728394,
            -0.12129999697208405
        ],
        [
            0.2264000028371811,
            -0.06909999996423721,
            0.03970000147819519,
            -0.046799998730421066,
            0.09799999743700027,
            -0.15360000729560852,
            -0.08709999918937683,
            -0.003599999938160181,
            0.09870000183582306,
            -0.014499999582767487,
            0.08079999685287476,
            0.09309999644756317,
            0.12780000269412994,
            0.09279999881982803,
            0.012400000356137753,
            -0.01759999990463257
        ],
        [
            0.1500999927520752,
            -0.02239999920129776,
            -0.005100000184029341,
            0.012900000438094139,
            0.04800000041723251,
            0.08269999921321869,
            0.045499999076128006,
            0.040300000458955765,
            -0.02630000002682209,
            -0.052000001072883606,
            0.042500000447034836,
            0.12250000238418579,
            -0.08160000294446945,
            -0.12110000103712082,
            -0.09279999881982803,
            0.1289999932050705
        ],
        [
            0.23000000417232513,
            0.09300000220537186,
            -0.09860000014305115,
            -0.11410000175237656,
            0.040300000458955765,
            0.07859999686479568,
            0.1404999941587448,
            -0.08569999784231186,
            0.024800000712275505,
            0.11289999634027481,
            0.06369999796152115,
            0.032499998807907104,
            0.08380000293254852,
            -0.14069999754428864,
            -0.09440000355243683,
            0.1331000030040741
        ],
        [
            0.23240000009536743,
            -0.0024999999441206455,
            0.1281999945640564,
            0.11159999668598175,
            0.02449999935925007,
            -0.06270000338554382,
            0.03500000014901161,
            0.03629999980330467,
            0.0731000006198883,
            0.06960000097751617,
            0.11410000175237656,
            0.08839999884366989,
            -0.1525000035762787,
            0.0851999968290329,
            0.17910000681877136,
            -0.14339999854564667
        ],
        [
            -0.09759999811649323,
            -0.039000000804662704,
            -0.040300000458955765,
            0.04919999837875366,
            0.05339999869465828,
            -0.08760000020265579,
            -0.004999999888241291,
            0.04639999940991402,
            0.14419999718666077,
            -0.009700000286102295,
            0.13609999418258667,
            0.1216999962925911,
            -0.021900000050663948,
            0.008899999782443047,
            0.021400000900030136,
            -0.013899999670684338
        ],
        [
            0.27810001373291016,
            -0.05770000070333481,
            -0.0024999999441206455,
            0.16699999570846558,
            0.06509999930858612,
            -0.13210000097751617,
            -0.00139999995008111,
            0.00430000014603138,
            0.027400000020861626,
            0.11150000244379044,
            -0.00279999990016222,
            0.03550000116229057,
            0.09350000321865082,
            -0.13510000705718994,
            0.08410000056028366,
            0.07419999688863754
        ],
        [
            0.07639999687671661,
            -0.07760000228881836,
            -0.043800000101327896,
            0.19249999523162842,
            -0.05939999967813492,
            0.07609999924898148,
            -0.008799999952316284,
            -0.10369999706745148,
            -0.03830000013113022,
            0.08190000057220459,
            0.06599999964237213,
            0.21889999508857727,
            -0.07479999959468842,
            -0.03869999945163727,
            0.15950000286102295,
            -0.08020000159740448
        ],
        [
            0.020899999886751175,
            0.12639999389648438,
            0.1396999955177307,
            0.2296999990940094,
            0.017899999395012856,
            0.12300000339746475,
            0.1404000073671341,
            -0.13289999961853027,
            0.21950000524520874,
            0.10339999943971634,
            -0.0957999974489212,
            0.08330000191926956,
            -0.13279999792575836,
            0.0003000000142492354,
            0.10859999805688858,
            -0.18299999833106995
        ],
        [
            0.18379999697208405,
            0.035999998450279236,
            0.03359999880194664,
            0.12250000238418579,
            -0.02459999918937683,
            -0.01600000075995922,
            0.24899999797344208,
            -0.14339999854564667,
            0.1656000018119812,
            0.00930000003427267,
            -0.002300000051036477,
            0.2676999866962433,
            0.07400000095367432,
            -0.03620000183582306,
            0.11349999904632568,
            -0.03519999980926514
        ],
        [
            0.2289000004529953,
            0.1054999977350235,
            0.02160000056028366,
            0.16609999537467957,
            -0.062199998646974564,
            -0.0502999983727932,
            0.2644999921321869,
            0.12080000340938568,
            0.3675999939441681,
            -0.010900000110268593,
            0.042100001126527786,
            0.05119999870657921,
            0.11500000208616257,
            -0.11150000244379044,
            0.06080000102519989,
            0.20589999854564667
        ],
        [
            0.18379999697208405,
            0.05000000074505806,
            0.17599999904632568,
            0.09839999675750732,
            0.002300000051036477,
            -0.09929999709129333,
            0.051600001752376556,
            -0.13189999759197235,
            0.3411000072956085,
            0.006899999920278788,
            0.02370000071823597,
            0.17069999873638153,
            -0.07180000096559525,
            -0.04830000177025795,
            0.11230000108480453,
            -0.0575999990105629
        ],
        [
