float weights_hidden[INPUT_SIZE][16] = {{0.1794606894254684, 0.0335388630628586, 0.1938655078411102, 0.1123021915555000, 0.2507773637771606, 0.0635457336902618, -0.3125016391277313, -0.0813429951667786, 0.1394502669572830, -0.0780846774578094, -0.2305233031511307, 0.1095241457223892, 0.0161176919937134, 0.1361920684576035, -0.1967857778072357, 0.0268510598689318},
 {0.2261680662631989, 0.0961429700255394, 0.1189905852079391, -0.0501168519258499, 0.2039775848388672, -0.1689009666442871, -0.0791987031698227, -0.0077033308334649, -0.1285048723220825, -0.0737740099430084, -0.3689409196376801, 0.0744123607873917, 0.0139069827273488, 0.0806457847356796, -0.2275223731994629, -0.0413315296173096},
 {0.1310601383447647, -0.0118472166359425, 0.0957219749689102, -0.0745005905628204, 0.2930268347263336, -0.1192054301500320, 0.0603775680065155, 0.0706834048032761, -0.0343090295791626, 0.0331836640834808, -0.2630985975265503, 0.0874952897429466, -0.0499527156352997, 0.0572717227041721, -0.2192508727312088, 0.0247269161045551},
 {0.0339056737720966, -0.0882625430822372, 0.2099642455577850, -0.0991435348987579, 0.2731668949127197, -0.2008070498704910, -0.2075256407260895, 0.0980760529637337, -0.0708232074975967, 0.0509910359978676, -0.3007598519325256, 0.0831673890352249, -0.0601882860064507, 0.1796941012144089, 0.0372434705495834, -0.0491417385637760},
 {0.1846058666706085, 0.0500401221215725, 0.1696268022060394, 0.0587573945522308, 0.4186549484729767, -0.0114617254585028, 0.0480958931148052, 0.0031344569288194, 0.1234183013439178, 0.0489259772002697, -0.2296149879693985, 0.0479321330785751, -0.0584317147731781, 0.1103198602795601, -0.0533505044877529, -0.1043696403503418},
 {0.0761635154485703, 0.0019606109708548, -0.0057928189635277, 0.1398011744022369, 0.2191331833600998, -0.0381497330963612, -0.0866299644112587, 0.0052098943851888, 0.0127127151936293, 0.1520527303218842, -0.2624038457870483, 0.0023992413189262, 0.0696565732359886, 0.0801103040575981, -0.1230834946036339, -0.1015896648168564},
 {0.2070789486169815, -0.0035492195747793, -0.0730927661061287, 0.0867419317364693, 0.3881548047065735, -0.2229276597499847, -0.0216074120253325, 0.1362989544868469, 0.0783263295888901, 0.0895454511046410, -0.3529360294342041, -0.1050602346658707, -0.0834818780422211, -0.1056000962853432, -0.1241546720266342, 0.0768975988030434},
 {0.2469235062599182, 0.0970305949449539, 0.0745271593332291, -0.0949097797274590, 0.4144857823848724, -0.1345836818218231, -0.0158501863479614, -0.0760710239410400, -0.0811363905668259, 0.0813408046960831, -0.2674053311347961, 0.0374222919344902, 0.0335813201963902, 0.1391364037990570, -0.0868342891335487, 0.1277878135442734},
 {0.2165919989347458, 0.1714790165424347, 0.0376227684319019, -0.0804230198264122, 0.3692177534103394, -0.2041994780302048, -0.0168688204139471, -0.0432627201080322, 0.0034062962513417, 0.1503584831953049, -0.0931050032377243, -0.0934983193874359, -0.0036662130150944, 0.1478069871664047, 0.1506547778844833, -0.1139910146594048},
 {0.2754295170307159, 0.1023310497403145, 0.1713114231824875, 0.1251123249530792, 0.2240740209817886, -0.0753923878073692, -0.1084106490015984, 0.1610904633998871, -0.1062071770429611, -0.0412129499018192, -0.1931544393301010, -0.1509362161159515, -0.0111764380708337, -0.0575437247753143, -0.0815301612019539, 0.0328300260007381},
 {0.3298436701297760, 0.0975450575351715, 0.1147429272532463, 0.0312876030802727, 0.2189275771379471, -0.2483036965131760, -0.2027941793203354, 0.0689303576946259, 0.1461624056100845, -0.0543563626706600, -0.1210799738764763, 0.0421236827969551, 0.1000294089317322, 0.0397093594074249, 0.0070068766362965, -0.1236606836318970},
 {0.1029399931430817, 0.1640695482492447, -0.0691811591386795, 0.1650246977806091, 0.2660471200942993, -0.3295899331569672, 0.1938470900058746, -0.0775527283549309, -0.0706158801913261, -0.0022064105141908, -0.0504821501672268, -0.0505572222173214, 0.1147582158446312, 0.0719579383730888, -0.0841257348656654, -0.1330623924732208},
 {0.2957457900047302, 0.1001618802547455, 0.2204996198415756, 0.1716550439596176, 0.2179024964570999, -0.0713977515697479, -0.0002518878900446, -0.1112874448299408, 0.1205018535256386, 0.0513208918273449, -0.0453239418566227, 0.1097582653164864, -0.0697537362575531, 0.1277012825012207, -0.0310916434973478, -0.1272328346967697},
 {0.1605526357889175, 0.1409929096698761, 0.0024032946676016, 0.1032964661717415, 0.2415013909339905, -0.1175057739019394, -0.0139864776283503, -0.1986615955829620, 0.1811996400356293, -0.0052170888520777, 0.0168829336762428, -0.0125717865303159, 0.1139622926712036, 0.0066960966214538, -0.1828312873840332, -0.0040072449482977},
 {0.2455314546823502, 0.1333047449588776, 0.2517424821853638, 0.0915360003709793, 0.0272799637168646, -0.1273876577615738, 0.0983348339796066, -0.0717768818140030, 0.2143804132938385, 0.1556870341300964, -0.1411425918340683, 0.1085451021790504, -0.0545303560793400, 0.0784190222620964, -0.2090566158294678, 0.0519841462373734},
 {0.2482539713382721, 0.1545802205801010, -0.0241370480507612, 0.1050956100225449, 0.1925357580184937, -0.0424191579222679, 0.0917893126606941, 0.0361267812550068, 0.2176931053400040, 0.1113693863153458, 0.0779424533247948, 0.0388623997569084, 0.0585877038538456, 0.2216640114784241, -0.0523623526096344, 0.0235198773443699},
 {0.2358467280864716, 0.0882558152079582, -0.0303237717598677, -0.0650492310523987, 0.2535047531127930, -0.0208560265600681, 0.0656556561589241, -0.0529723800718784, -0.1142439320683479, -0.0414629951119423, 0.0352374836802483, -0.0737111717462540, 0.0731225609779358, 0.1607575267553329, 0.1054368838667870, 0.0420885607600212},
 {0.1431063115596771, 0.1396830826997757, 0.2470849454402924, 0.1196441873908043, 0.0689656734466553, -0.0682498961687088, -0.0237122233957052, -0.0108903963118792, 0.0686907619237900, 0.1469978988170624, 0.0954747200012207, 0.0859751403331757, 0.0194544550031424, 0.1142637059092522, -0.2032570093870163, -0.1576086580753326},
 {0.1542853564023972, -0.0904596596956253, 0.2036092430353165, 0.0722541138529778, -0.0426978506147861, -0.1227389946579933, 0.0932027548551559, 0.0054339873604476, 0.0425697863101959, -0.0775627866387367, 0.1460007429122925, -0.1539189219474792, 0.1017429828643799, 0.0082991207018495, -0.0631258189678192, -0.1210071519017220},
 {0.0433235205709934, 0.1322604864835739, 0.0900442823767662, 0.1224289610981941, 0.1596437394618988, 0.0810515508055687, -0.1366443932056427, 0.1054300218820572, 0.2049721926450729, -0.0895716920495033, 0.0667445436120033, -0.1279411315917969, 0.0517160408198833, 0.1372605562210083, -0.2030812352895737, 0.1026750132441521},
 {0.0853247717022896, 0.0630493983626366, 0.0945932120084763, 0.0541617721319199, 0.0627637580037117, 0.0300795268267393, -0.0054103787988424, -0.0479766391217709, 0.0739091113209724, 0.1114286333322525, 0.1192056834697723, -0.1508090198040009, -0.0315153375267982, 0.0709749832749367, -0.2607531547546387, 0.0470167770981789},
 {0.0307364501059055, 0.0791300386190414, 0.1066391840577126, 0.0814906954765320, -0.0865708589553833, -0.0707744434475899, 0.0236713029444218, 0.0658682659268379, 0.0322118923068047, 0.1964001953601837, 0.0393664799630642, -0.0978448763489723, 0.1116764023900032, -0.0210086219012737, 0.0227282345294952, -0.0020701368339360},
 {0.0738929510116577, 0.1323348134756088, 0.0190568640828133, -0.0293971449136734, -0.0973346084356308, 0.1228911057114601, 0.0505853332579136, -0.0038234449457377, -0.0477984882891178, 0.1254920363426208, 0.1118410602211952, -0.1160957440733910, 0.0208433270454407, 0.1365677267313004, 0.1475054770708084, -0.1042189970612526},
 {0.0619497559964657, -0.0029974493663758, 0.1939043998718262, 0.1697801500558853, -0.1722255200147629, -0.0252085030078888, -0.1134268045425415, 0.2372497916221619, 0.0069242794997990, 0.1413040161132812, 0.1751885265111923, -0.0307262130081654, -0.0834498852491379, 0.0626046285033226, -0.1761816293001175, -0.0823915675282478},
 {0.0739475861191750, -0.0074009476229548, 0.1885876804590225, -0.0923425108194351, -0.1339176595211029, 0.0076158270239830, 0.0521439202129841, 0.0244515463709831, 0.0912870466709137, -0.0614174343645573, 0.1133379042148590, 0.1134713441133499, -0.1489413231611252, 0.0654596164822578, -0.0574179515242577, -0.1215215027332306},
 {-0.1203765273094177, -0.1167347729206085, 0.1396517455577850, 0.0111275790259242, -0.0159544795751572, 0.0787712112069130, -0.1246945559978485, 0.1754513382911682, 0.2311566025018692, 0.0133297750726342, 0.0967547297477722, -0.0865273624658585, -0.0249365698546171, -0.1209790408611298, -0.3052565455436707, -0.0095340525731444},
 {-0.0911288410425186, 0.0518188364803791, 0.0551042407751083, 0.1291981041431427, -0.0860124155879021, 0.0399873927235603, -0.0672337114810944, 0.1995153874158859, -0.0794903784990311, 0.0187744535505772, -0.0012042887974530, 0.0820405185222626, 0.1236963048577309, -0.1153241172432899, 0.0721685290336609, 0.0792588293552399},
 {-0.2257024645805359, -0.0897656828165054, 0.0941633880138397, -0.0912526994943619, -0.0696333721280098, 0.0150954183191061, -0.1743552535772324, 0.0912014469504356, 0.2646299600601196, 0.0307901687920094, 0.1248129084706306, -0.1231246665120125, 0.0354781076312065, -0.0583811104297638, -0.2282090187072754, 0.0419417135417461},
 {-0.2331163287162781, 0.1151843219995499, -0.0196712035685778, 0.1249795630574226, 0.0078602926805615, -0.0898869782686234, 0.0580752231180668, 0.1902774274349213, 0.0180533509701490, -0.1107990965247154, 0.1121008992195129, -0.0713859349489212, -0.0197099186480045, -0.0425239615142345, -0.2401204109191895, -0.0245418176054955},
 {-0.0649116411805153, -0.1047254428267479, 0.2763278782367706, 0.1060599461197853, -0.0292726494371891, -0.0717061981558800, 0.1712991297245026, 0.0758225619792938, 0.1199558228254318, 0.0888374149799347, 0.0673301219940186, -0.1145879700779915, -0.0431010089814663, -0.0692565515637398, 0.1642153561115265, -0.0799479633569717},
 {-0.2880582213401794, 0.0254326369613409, 0.0821366012096405, 0.0036019866820425, -0.0055372058413923, -0.0828476175665855, 0.2226636856794357, 0.2251709252595901, 0.2318876981735229, 0.1890017539262772, 0.0522247403860092, -0.0515812858939171, 0.0334784872829914, 0.0426775068044662, -0.0363205038011074, -0.1148570924997330},
 {-0.0877987742424011, -0.1017896085977554, 0.0842437297105789, -0.0049757277593017, 0.0985550060868263, -0.0189695060253143, -0.0017450527520850, 0.0047446028329432, 0.2102659791707993, -0.1314378231763840, -0.0301408916711807, 0.0171167198568583, -0.0095028905197978, -0.0593994148075581, -0.0528123155236244, 0.0615418702363968},
 {-0.2334329038858414, 0.1328659951686859, 0.1249543577432632, 0.1055219918489456, 0.1982951462268829, -0.2204002737998962, 0.1409081965684891, 0.1875691264867783, 0.2368241399526596, 0.0735625177621841, 0.0316641442477703, 0.1229425445199013, 0.1304429024457932, 0.0567002706229687, -0.2250747680664062, 0.0678642019629478},
 {-0.1498614996671677, -0.1036951839923859, 0.1897548735141754, -0.0478960424661636, 0.2455427795648575, -0.1364123523235321, -0.0615836195647717, 0.2379035800695419, -0.0198849588632584, 0.0116379568353295, 0.0060632675886154, -0.0791901051998138, -0.0193549152463675, -0.0059751817025244, -0.1984599679708481, 0.0911961048841476},
 {-0.0928802862763405, -0.1803113222122192, -0.0570077449083328, -0.0588990002870560, 0.1013417243957520, -0.1482113599777222, 0.0386160910129547, 0.1524968445301056, 0.0869263708591461, -0.1813938170671463, 0.0752920284867287, 0.1249877214431763, 0.1157351583242416, -0.0166690219193697, -0.0090507883578539, 0.0561370886862278},
 {-0.0806055068969727, -0.1314646303653717, 0.1035877242684364, -0.1274420320987701, 0.1581412255764008, -0.2144910395145416, 0.0686227455735207, 0.1048311293125153, 0.0818680748343468, 0.1287750154733658, 0.1481822729110718, 0.0659452751278877, -0.0122252926230431, -0.0872462019324303, 0.0120267532765865, -0.0777358263731003},
 {-0.3256983160972595, -0.0460448786616325, 0.0395755395293236, 0.0244152210652828, 0.2219359874725342, -0.1482617408037186, 0.1792080849409103, 0.0887670218944550, 0.1393935680389404, -0.1265976279973984, 0.0694086179137230, 0.1161478385329247, -0.0439103916287422, 0.0400972925126553, -0.1552156955003738, -0.0270303525030613},
 {-0.1476580053567886, 0.0094141494482756, 0.0250209774821997, 0.0768125504255295, 0.1924873143434525, -0.2265318632125854, -0.0238402504473925, 0.0318896882236004, -0.0446250028908253, -0.0176341831684113, 0.0543588772416115, -0.0902216732501984, 0.0786292180418968, -0.0917462632060051, 0.0456645153462887, -0.0955693423748016},
 {-0.0250216089189053, -0.0108913853764534, 0.0921560823917389, -0.0471211560070515, 0.1932307779788971, -0.1843483448028564, 0.1635837852954865, 0.0927593111991882, 0.2255785167217255, 0.0654837116599083, 0.1658966839313507, -0.0753238275647163, -0.0651129633188248, -0.1081077903509140, -0.0805794075131416, 0.0430758148431778},
 {-0.2765070199966431, 0.1117978990077972, 0.1259093731641769, -0.1405904889106750, -0.0086285965517163, -0.2560395896434784, -0.0566671043634415, -0.0496607497334480, 0.2750106155872345, 0.0047040581703186, 0.1720916330814362, 0.1270301491022110, -0.0063734264113009, 0.0680893138051033, -0.2354426085948944, -0.1267785429954529},
 {-0.2109663933515549, -0.1163857653737068, -0.0517843812704086, 0.0137724205851555, -0.0233710650354624, -0.2274719774723053, 0.0254948735237122, 0.0477881804108620, 0.1306248158216476, 0.0498039461672306, 0.3352894484996796, 0.1390430778264999, -0.0172877907752991, -0.0629396215081215, 0.0402526296675205, 0.1209379136562347},
 {-0.2190586775541306, -0.0893761441111565, 0.1346047371625900, 0.1237443536520004, 0.0606547966599464, -0.0039342101663351, -0.0175433438271284, 0.0679726600646973, -0.0060218232683837, -0.0966994985938072, 0.3504344820976257, -0.0502293854951859, -0.0191371999680996, -0.1251056194305420, -0.1700468808412552, 0.0297239478677511},
 {-0.1114138141274452, 0.0509328171610832, 0.1072626709938049, 0.0608611255884171, 0.1091743782162666, -0.0817213803529739, 0.0447137393057346, -0.0330973081290722, 0.2091293185949326, -0.0926775783300400, 0.3283003568649292, 0.0183209422975779, 0.0047689331695437, 0.0586132965981960, -0.0846958160400391, 0.0551218688488007},
 {-0.2122930586338043, -0.0829094648361206, -0.0771480798721313, 0.0113866738975048, 0.1178621724247932, 0.0587969981133938, 0.0508214496076107, 0.0068513546139002, 0.2372210621833801, 0.1027444973587990, 0.3777759075164795, -0.0538401491940022, 0.0131766460835934, 0.0200368836522102, 0.0153050888329744, 0.0460202172398567},
 {-0.3398240506649017, 0.0201775357127190, 0.0386937148869038, 0.0655235201120377, -0.0864538475871086, 0.1020753160119057, 0.0164469536393881, 0.0765954256057739, 0.2513099014759064, 0.1319040656089783, 0.2853885293006897, -0.1038835942745209, 0.0727346464991570, 0.1448507010936737, 0.0180546361953020, 0.0627652853727341},
 {-0.2495101392269135, 0.0224162638187408, 0.1179182007908821, -0.0021276893094182, -0.0878462120890617, -0.0141650047153234, 0.0809572860598564, 0.1495570689439774, 0.0708592981100082, -0.0416289977729321, 0.3025222122669220, 0.0497326031327248, 0.0642557367682457, 0.0992167443037033, -0.0665177628397942, -0.0959093868732452},
 {-0.1681318581104279, 0.0753230154514313, 0.0116625633090734, 0.1052618622779846, 0.0480560809373856, 0.0858672112226486, 0.1801874488592148, 0.0501798503100872, 0.0923089385032654, 0.0353677719831467, 0.1890062838792801, 0.1075659468770027, 0.1141471266746521, 0.2023567259311676, -0.1660796999931335, -0.0148396473377943},
 {-0.2786558568477631, 0.0206420756876469, 0.1320583820343018, 0.0010988158173859, -0.0943287163972855, 0.1724390387535095, 0.1147708967328072, 0.0010185528080910, 0.1571556925773621, 0.0598982833325863, 0.3406172692775726, 0.0306760463863611, 0.0625077262520790, 0.2558968067169189, 0.2143880426883698, -0.0866175144910812},
 {-0.1406001448631287, -0.0218425095081329, 0.0393138937652111, 0.1852998733520508, -0.0676340460777283, 0.1148940771818161, 0.1543966829776764, 0.1630883961915970, 0.0236837901175022, 0.2084511369466782, 0.0972434058785439, 0.1000274568796158, 0.0836413800716400, 0.1030000150203705, -0.2040853351354599, -0.0779182836413383},
 {-0.2713365852832794, -0.0395625047385693, 0.1841861605644226, 0.0978997722268105, -0.1079262793064117, 0.1719142347574234, -0.0166882798075676, 0.2096928358078003, -0.0186543110758066, 0.0863232687115669, 0.1668690592050552, 0.1033351346850395, -0.1418640166521072, 0.1692282557487488, -0.0104989800602198, -0.1217125505208969},
 {-0.1689073145389557, 0.0886584073305130, -0.0344708897173405, 0.1585933119058609, -0.0043524741195142, 0.1600004583597183, 0.2076182216405869, 0.2624872624874115, 0.0572731532156467, 0.0432517714798450, 0.1847418695688248, 0.0611451156437397, -0.1114280298352242, 0.1539682298898697, -0.1815016269683838, -0.1430438607931137},
 {-0.2588291466236115, 0.0161391254514456, -0.1526151150465012, 0.1398976147174835, -0.0734282881021500, 0.2248626500368118, 0.1860293895006180, 0.2519608736038208, 0.1136614531278610, 0.2007902115583420, 0.2139880061149597, -0.0613225027918816, -0.0057346276007593, 0.1472999602556229, 0.0770984590053558, -0.1390706598758698},
 {-0.0978729128837585, 0.0155805442482233, -0.0423370376229286, 0.0214500445872545, -0.0384692773222923, 0.0853318274021149, 0.1131824031472206, 0.1935693174600601, 0.2921448051929474, 0.0282625816762447, 0.0110882604494691, -0.1045824661850929, 0.1383872181177139, 0.2157893031835556, 0.1682580411434174, 0.0125504434108734},
 {-0.1657110750675201, -0.0069160209968686, 0.1297212839126587, 0.2138532251119614, 0.1094184294342995, 0.1077465340495110, 0.1959429085254669, 0.1915044784545898, 0.0594502463936806, 0.2757483422756195, 0.0097928773611784, -0.0107915755361319, 0.0760807171463966, 0.1238716915249825, 0.0822424143552780, 0.0445961728692055},
 {-0.1235768049955368, 0.1269384622573853, 0.0995387360453606, 0.1088997796177864, 0.0209050755947828, 0.2193808108568192, 0.2238870710134506, 0.2814280688762665, 0.0970473363995552, -0.0622177533805370, -0.0320186838507652, -0.1056226864457130, -0.0356176681816578, 0.0911290273070335, -0.1205776482820511, 0.0217027422040701},
 {0.0357253327965736, 0.1231814324855804, -0.0317015200853348, 0.0665235891938210, 0.1460251510143280, 0.1681272536516190, -0.0274917166680098, 0.3222473561763763, -0.0333146750926971, 0.1231729537248611, -0.0512655712664127, -0.0931566208600998, -0.0295944530516863, -0.0408782623708248, -0.0651971325278282, -0.0684945210814476},
 {-0.2372577488422394, -0.0009897192940116, -0.0674581080675125, -0.0480683483183384, 0.0023880929220468, 0.1347162872552872, 0.1429653018712997, 0.2591362893581390, 0.2572241425514221, 0.1467388868331909, 0.0643111318349838, -0.1469562649726868, 0.1260577887296677, -0.0336197093129158, -0.0550579726696014, 0.0707615241408348},
 {-0.2013144195079803, 0.0233636498451233, -0.0328881666064262, 0.1004868075251579, 0.1794410496950150, 0.0064941025339067, 0.1731003969907761, 0.2100923061370850, 0.1703067868947983, 0.0797724127769470, 0.0575365684926510, -0.1476058363914490, 0.0546004511415958, -0.0124546755105257, 0.0235635787248611, 0.1172395572066307},
 {-0.0400550141930580, 0.1655378043651581, 0.0538959912955761, 0.1629521548748016, 0.1716451197862625, 0.0288202054798603, 0.1178656071424484, 0.0794373005628586, 0.1184594109654427, 0.0931050404906273, 0.0503307282924652, 0.0105214845389128, -0.0292115379124880, -0.0187932960689068, -0.0475649684667587, 0.1242962256073952},
 {-0.0883595794439316, 0.1096517071127892, 0.0323519259691238, 0.1076334863901138, 0.0583656989037991, 0.1507012546062469, 0.1508696675300598, 0.1174964383244514, 0.2239669561386108, -0.0446948111057281, -0.1079519540071487, -0.0651934891939163, -0.0302470251917839, 0.1369443982839584, 0.0259179621934891, -0.0877986699342728},
 {-0.0651458725333214, 0.0139214275404811, -0.2538491189479828, 0.1333926916122437, 0.2239824384450912, 0.1351791471242905, 0.0734354034066200, 0.1948083341121674, 0.1276050955057144, 0.0016481885686517, -0.0601998120546341, -0.0677247494459152, 0.0521871447563171, 0.0232613757252693, 0.0747760236263275, 0.1106662079691887},
 {0.0423778109252453, 0.0710438340902328, 0.0555686391890049, 0.0741413235664368, 0.1102173179388046, -0.0893907621502876, 0.0123613337054849, 0.1595156639814377, 0.0599896982312202, 0.0738936439156532, -0.0168188251554966, -0.1212779358029366, -0.1026834696531296, 0.0974090248346329, 0.1760346889495850, -0.0093172108754516},
 {-0.0599939338862896, -0.0892480015754700, -0.0175392609089613, 0.0925250351428986, 0.0047280541621149, -0.1182280406355858, 0.0472523421049118, 0.0668593272566795, 0.2079771757125854, -0.1481395065784454, -0.0455178320407867, -0.0441842675209045, 0.1232112199068069, -0.1581077575683594, -0.0005726572708227, -0.1264942586421967},
 {-0.1701300740242004, -0.1496675312519073, -0.0979007035493851, -0.1648790091276169, 0.0302056279033422, -0.0918521508574486, 0.1177589520812035, 0.0997378006577492, 0.0696060582995415, -0.0741479992866516, -0.0375391803681850, 0.1251094639301300, -0.1394864022731781, -0.1675132811069489, 0.0034054617863148, -0.1154648885130882},
 {-0.1149452477693558, 0.0044870455749333, -0.2148842066526413, -0.1079731658101082, 0.0662959814071655, -0.1551614850759506, 0.1073601767420769, 0.0560293048620224, -0.0564138330519199, -0.0829627513885498, 0.0661266893148422, 0.0027510039508343, -0.1474987417459488, -0.0859953835606575, 0.0823216587305069, -0.0311680696904659},
 {-0.0665420219302177, -0.0890761911869049, 0.0438973866403103, -0.0353369377553463, -0.0005727798561566, -0.0336512476205826, 0.0090614464133978, -0.1667180359363556, 0.1921467334032059, -0.0363188162446022, 0.0949783250689507, -0.0237120892852545, 0.0909219384193420, 0.1353492587804794, 0.0998564139008522, -0.1238323301076889},
 {0.0307728033512831, -0.1335240006446838, 0.1001219451427460, -0.0362614504992962, -0.0258199051022530, -0.0054831532761455, 0.1031211018562317, -0.0643302351236343, 0.2066000401973724, 0.1181935220956802, -0.0184777714312077, 0.0872945114970207, -0.0250766184180975, -0.0703613236546516, 0.0032998335082084, -0.1479937881231308},
 {0.0973597019910812, -0.0180904250591993, -0.0994784906506538, -0.1259393095970154, -0.1667091250419617, 0.0562651790678501, 0.0904179513454437, -0.1929938793182373, -0.1067010015249252, -0.0327758565545082, 0.1128442883491516, 0.0965852215886116, 0.0331615209579468, 0.0920676589012146, 0.1115636155009270, 0.0762605816125870},
 {0.0202322695404291, -0.0391557738184929, -0.0944911241531372, 0.0037512315902859, -0.1071646213531494, 0.0739938467741013, 0.1268993318080902, -0.1205956414341927, -0.0437665134668350, 0.0108169652521610, 0.1721142679452896, -0.0065258359536529, -0.0964678004384041, -0.0158799495548010, -0.1265452504158020, 0.0550937876105309},
 {0.0493445433676243, -0.0803995132446289, -0.0532395318150520, 0.1064381077885628, -0.1806796640157700, 0.0190688669681549, 0.1404037624597549, -0.1018059998750687, -0.0097916368395090, 0.1032734811306000, 0.0393175818026066, 0.1076182723045349, 0.0256919357925653, 0.0616946965456009, 0.1834224760532379, -0.0611133202910423},
 {0.1667737811803818, -0.2134065032005310, 0.0411545857787132, 0.0495292022824287, -0.2315357476472855, -0.0107291303575039, 0.1233960390090942, -0.2423940002918243, 0.1354689896106720, -0.0169934369623661, 0.1939392238855362, 0.0893509835004807, 0.1386215090751648, 0.0541026368737221, 0.2001811414957047, 0.1145402193069458},
 {0.1520994603633881, 0.0831613987684250, -0.1428246051073074, 0.0521609373390675, -0.3498598933219910, 0.0656862184405327, 0.0281894803047180, -0.1966990828514099, 0.0609224140644073, -0.0522321015596390, 0.0597820430994034, 0.0632522851228714, 0.0150825809687376, -0.0458037853240967, -0.0346741490066051, 0.1141842454671860},
 {0.0233636237680912, -0.0586335062980652, -0.0388790518045425, -0.0792168900370598, -0.3553352057933807, 0.2406993657350540, -0.0856915265321732, -0.3096661567687988, -0.0637757554650307, -0.0267292223870754, 0.0026029981672764, -0.1388635337352753, -0.0169723555445671, -0.0166299324482679, -0.0537079870700836, 0.0505100898444653},
 {0.1174158751964569, -0.0095089906826615, -0.1520340293645859, -0.0073825232684612, -0.4027739465236664, 0.0804075449705124, -0.0061642751097679, -0.2664762139320374, 0.0478331856429577, -0.1951983273029327, 0.1150441393256187, -0.1331140249967575, 0.0621949136257172, -0.0094002718105912, -0.0996158942580223, 0.0806449279189110},
 {0.2687093317508698, 0.0884626731276512, -0.0945633724331856, 0.0110932057723403, -0.4253433942794800, 0.3368751108646393, 0.1359258145093918, -0.2321895956993103, -0.0311581715941429, -0.0795260965824127, 0.1187405064702034, 0.0586559772491455, -0.1349227875471115, 0.1077444925904274, 0.2829770743846893, 0.0105052925646305},
 {0.2188919186592102, 0.0359190776944160, -0.0167706739157438, -0.0139488875865936, -0.4416876733303070, 0.3075553774833679, -0.0209773778915405, -0.2379247546195984, -0.0327889136970043, -0.0348599739372730, 0.1371197104454041, -0.0577555000782013, 0.0037136876489967, -0.1152704954147339, -0.0061281207017601, -0.0580399781465530},
 {0.3579211831092834, 0.0803316831588745, -0.1321789473295212, -0.1012197881937027, -0.4188519120216370, 0.2023424655199051, 0.2130340784788132, -0.2495329231023788, 0.0182162038981915, 0.0047855116426945, -0.0491350442171097, -0.1315359175205231, 0.1294347345829010, -0.0900369063019753, 0.1174733489751816, -0.0441904067993164},
 {0.3142218887805939, -0.0610056780278683, -0.2263347506523132, 0.0118285510689020, -0.3883739113807678, 0.3508045673370361, -0.0103278001770377, -0.2011991739273071, 0.1356608122587204, -0.1272638589143753, -0.0369951389729977, 0.1198977306485176, -0.0331608392298222, 0.1081573814153671, 0.2396892011165619, -0.1236905604600906},
 {0.3026556670665741, 0.0920024812221527, -0.1619657874107361, 0.0809421017765999, -0.4754456281661987, 0.3064516186714172, 0.1434080451726913, -0.2561585009098053, 0.1430990099906921, -0.0758074298501015, 0.0917111113667488, -0.1293662041425705, -0.1298302114009857, -0.1685268878936768, 0.0257682036608458, -0.1521873474121094},
 {0.2959262430667877, 0.0749669522047043, -0.2894454002380371, 0.0235324874520302, -0.3033756315708160, 0.2174577564001083, 0.0899937003850937, -0.1563378125429153, 0.0357973091304302, -0.0150353824719787, -0.2044622302055359, 0.0527785234153271, -0.0374232679605484, 0.1222893148660660, 0.0462698787450790, -0.1127715557813644},
 {0.1300073564052582, 0.0220417100936174, -0.0284746717661619, 0.1751846522092819, -0.2583557963371277, 0.2987938225269318, 0.1415974497795105, -0.1246742904186249, 0.1893912702798843, 0.0357741564512253, -0.2318609952926636, 0.0498641505837440, -0.0718193277716637, 0.0598400905728340, 0.0704637691378593, 0.0678878501057625},
 {0.2399500012397766, -0.0895374491810799, -0.0158507302403450, 0.1062938421964645, -0.1641354262828827, 0.1468997597694397, 0.2257528901100159, -0.0658946409821510, -0.0706110820174217, 0.0135646946728230, -0.1789027601480484, 0.0247437600046396, 0.0618234574794769, -0.0194825734943151, 0.2582426071166992, 0.0035523881670088},
 {0.1599354743957520, 0.0782222226262093, -0.2908392250537872, -0.1148692220449448, -0.1518550813198090, 0.1962571144104004, 0.2533100545406342, -0.1040140911936760, -0.0101454872637987, -0.1552450656890869, -0.2804973125457764, -0.1269010603427887, -0.0163210164755583, -0.1041576638817787, 0.0162076912820339, 0.0195898879319429},
 {0.2083601057529449, -0.0310161113739014, -0.0609652437269688, -0.0739959999918938, -0.1296018809080124, 0.1984495520591736, 0.0273772496730089, -0.0913759097456932, -0.0767182037234306, -0.1037127152085304, -0.3816852867603302, -0.0265542380511761, -0.0670531764626503, -0.0277525652199984, 0.2071649134159088, -0.1235953345894814},
 {0.3185786306858063, -0.0420727916061878, -0.2535147964954376, 0.0558288469910622, 0.1510183662176132, 0.1867732554674149, -0.0884445607662201, -0.2366905212402344, 0.0237817335873842, 0.1072388961911201, -0.3444277346134186, -0.1061087474226952, 0.0834605842828751, -0.1366388797760010, 0.1603704392910004, 0.1275974512100220},
 {0.1505075395107269, 0.1086620092391968, -0.2422260791063309, -0.0370708666741848, 0.1941755264997482, 0.1537407636642456, 0.1135380864143372, -0.2397141605615616, -0.1270951926708221, -0.1200229376554489, -0.4753799140453339, -0.1158718541264534, -0.0074325427412987, -0.1121387481689453, 0.0592331774532795, 0.0725880339741707},
 {0.2152259647846222, 0.0253920126706362, -0.0267453566193581, -0.0631766393780708, 0.2207929641008377, -0.0383171625435352, 0.1649603843688965, -0.0048042540438473, -0.0011091169435531, 0.0724635273218155, -0.3430891633033752, -0.1519443541765213, -0.0818864554166794, 0.0610755793750286, 0.2091892063617706, 0.1267011314630508},
 {0.1346364617347717, 0.0518324077129364, -0.1515495628118515, -0.0834201872348785, 0.1447606384754181, 0.0561921596527100, 0.2684581875801086, -0.2512817978858948, -0.0172332581132650, 0.1256499886512756, -0.2749186158180237, -0.0223421007394791, -0.1293019950389862, 0.0627781674265862, 0.0906608924269676, -0.0612625218927860},
 {0.1342398673295975, 0.0841626226902008, -0.1047980934381485, -0.1378562450408936, 0.1085092797875404, 0.0576453283429146, 0.1270285546779633, -0.0998305752873421, -0.0042665945366025, -0.1312766522169113, -0.2084844708442688, -0.0238211117684841, 0.1115160882472992, 0.0808454304933548, 0.1032036319375038, -0.0569390766322613},
 {0.1587770283222198, 0.0627298131585121, -0.2145783305168152, -0.0457400269806385, 0.2838997542858124, -0.1191300600767136, 0.1024816930294037, -0.0911510959267616, 0.0042542382143438, 0.0979820415377617, -0.2744233608245850, 0.0159348044544458, -0.1479863077402115, -0.1134667471051216, 0.2055696249008179, 0.1234466955065727},
 {0.1769735664129257, 0.1241108253598213, -0.2128853648900986, 0.0255819298326969, 0.3286137878894806, -0.0158019643276930, 0.1004116833209991, -0.0536409243941307, -0.1694302260875702, -0.0477086864411831, -0.3498741388320923, -0.0342117920517921, 0.0871197208762169, 0.0909237861633301, -0.0192447565495968, 0.1249949261546135},
 {0.0796303227543831, -0.1067869961261749, -0.2219839394092560, -0.0122112166136503, 0.3270350694656372, -0.1297358125448227, 0.1039831489324570, 0.0031330166384578, -0.0630688369274139, 0.0219537857919931, -0.2075364589691162, -0.0181880760937929, -0.1253995746374130, 0.0325138717889786, 0.2563179135322571, -0.1218161135911942},
 {-0.1262870132923126, -0.0981793925166130, -0.0892509967088699, -0.1061732843518257, 0.2716646492481232, -0.2405786812305450, 0.0946240127086639, -0.0551299788057804, 0.0608582422137260, -0.0316011719405651, -0.1827957928180695, -0.1240689083933830, -0.0619291067123413, -0.0617184899747372, 0.2088938951492310, -0.1269432902336121},
 {-0.0587280355393887, 0.0490995198488235, -0.2563344240188599, 0.1073352396488190, 0.2491076737642288, 0.0944953784346581, -0.1296450644731522, -0.1637090295553207, -0.0250360686331987, -0.1238921582698822, -0.1922927349805832, -0.0965757444500923, 0.0119679374620318, -0.0181368403136730, 0.0981958210468292, 0.0592127442359924},
 {0.0040283477865160, 0.1141819432377815, -0.2693313360214233, 0.0725188553333282, 0.0847867131233215, 0.0016303828451782, -0.0157610662281513, -0.1257200390100479, -0.0149600096046925, -0.0964929834008217, -0.1839509457349777, 0.1004617065191269, 0.0425339788198471, -0.1464473754167557, 0.0864293500781059, -0.0181482508778572},
 {-0.0566053502261639, 0.0896396487951279, -0.1105925664305687, -0.0605311468243599, 0.2310568392276764, 0.0233412142843008, -0.0753187090158463, -0.0439289472997189, -0.2461842596530914, 0.0711456388235092, 0.0303784403949976, 0.0888499394059181, 0.0065818713046610, 0.0446398146450520, 0.1868835240602493, 0.0599946156144142},
 {-0.1965464502573013, -0.1597706377506256, -0.1957864612340927, -0.0938265174627304, 0.2258685231208801, 0.1688987463712692, 0.1115743741393089, -0.2039694488048553, -0.1345470249652863, 0.1398699730634689, 0.0103729655966163, 0.0894925147294998, -0.0168624632060528, 0.0486686676740646, 0.0159059297293425, -0.0218775849789381},
 {-0.0779058337211609, 0.0877189710736275, -0.1682700663805008, -0.0320505537092686, 0.1353518813848495, -0.0373835787177086, -0.0609452612698078, -0.1049641296267509, 0.0702029243111610, 0.0249708015471697, -0.0223181359469891, -0.1005774810910225, 0.1274554282426834, 0.0008315694285557, 0.3171176612377167, 0.0899918898940086},
 {-0.1299283802509308, 0.0448687560856342, -0.1754457503557205, 0.0684856101870537, -0.0567225143313408, -0.0308200344443321, 0.0194163508713245, 0.0112143708392978, -0.1792039871215820, 0.0420049428939819, -0.1480281949043274, 0.0253774244338274, -0.1041328012943268, 0.0900437459349632, 0.2013854682445526, -0.0361602455377579},
 {-0.0156576391309500, 0.1368611156940460, -0.3043249547481537, -0.0540091767907143, 0.0374015085399151, 0.1448232680559158, -0.0611642040312290, -0.0591566413640976, -0.1319584697484970, 0.1384074538946152, 0.0757100805640221, -0.0007365900673904, -0.0655882954597473, 0.0873086899518967, 0.2442425489425659, -0.0461926832795143},
 {-0.2663649916648865, 0.1000356078147888, -0.2055161744356155, -0.1081205531954765, -0.1069706082344055, 0.1148222386837006, 0.1946221739053726, -0.0312954075634480, 0.0559772476553917, -0.0079854838550091, 0.0203768908977509, -0.0804067626595497, 0.0123514235019684, -0.1019270271062851, 0.2688793838024139, -0.0451532453298569},
 {-0.1970671266317368, -0.0420439317822456, -0.0859249904751778, 0.1295816004276276, -0.0866551026701927, 0.2190118432044983, 0.1115961223840714, 0.0492292530834675, 0.0543353706598282, -0.0368046313524246, -0.0402813032269478, 0.1047464162111282, 0.0236677154898643, 0.1001423150300980, -0.0503085441887379, 0.1264483034610748},
 {-0.0627067685127258, -0.0053716548718512, -0.1761699616909027, -0.0034533613361418, -0.3230174183845520, 0.1114295572042465, 0.1880959868431091, -0.0702376589179039, -0.1009641066193581, -0.0540003813803196, -0.0435774661600590, 0.0941376015543938, -0.0907222926616669, -0.1172452718019485, 0.2802457511425018, -0.0735782459378242},
 {-0.0259896032512188, -0.1005961149930954, -0.2656157314777374, 0.0925017967820168, -0.3676373362541199, 0.0884267166256905, 0.0409376993775368, 0.0797454193234444, -0.1956780254840851, 0.0820135772228241, -0.1316624134778976, -0.0411890521645546, -0.0389110147953033, -0.0723469331860542, 0.1155404597520828, 0.0232691802084446},
 {0.0582874678075314, -0.0803348273038864, -0.1899637728929520, -0.0826053321361542, -0.3807660937309265, 0.2069820910692215, 0.0990810245275497, -0.0094548594206572, -0.0679284110665321, 0.0206307787448168, -0.0619500614702702, 0.0431342124938965, -0.0258731693029404, -0.0812017843127251, 0.2516258656978607, -0.1025869771838188},
 {-0.0010757712880149, 0.1031001806259155, -0.2932052016258240, 0.1039374843239784, -0.2698512077331543, 0.2434035986661911, 0.2092735171318054, -0.0283655300736427, -0.1030018404126167, -0.1097800955176353, -0.0166040640324354, 0.0174492616206408, -0.1199944093823433, 0.1693298071622849, 0.3145017623901367, 0.0240348633378744},
 {0.1740333586931229, -0.0803702995181084, -0.2358862608671188, -0.0922027975320816, -0.4622742831707001, 0.2167417854070663, 0.0904477238655090, -0.0726020261645317, -0.0756920576095581, 0.0340910553932190, -0.0570297874510288, 0.1287531703710556, 0.0198148041963577, 0.0099350530654192, 0.1913748383522034, -0.0600524954497814},
 {0.0615939423441887, 0.0015639360062778, -0.2577217221260071, -0.1011390388011932, -0.5010629296302795, 0.2034191340208054, -0.0254723392426968, 0.0972500294446945, -0.0402040332555771, 0.0828473493456841, -0.1946539282798767, -0.0571928322315216, -0.1115498915314674, 0.0225849561393261, 0.0209144726395607, -0.1047669053077698},
 {0.1739884763956070, 0.0496301427483559, -0.2086685299873352, -0.0963290110230446, -0.2927755713462830, 0.1169980913400650, 0.2375901788473129, -0.0602037161588669, -0.1755528301000595, 0.0915055498480797, -0.1559109389781952, 0.0625291466712952, 0.0895158201456070, -0.1414288878440857, 0.0566961877048016, -0.1566441506147385},
 {-0.0256553962826729, -0.1367006599903107, -0.2301571220159531, -0.0035811751149595, -0.4089908897876740, -0.0455851852893829, 0.0406128764152527, 0.0411336869001389, -0.2743431925773621, -0.1002197489142418, -0.0864388123154640, -0.0036107464693487, 0.1124414652585983, 0.0269638784229755, 0.2407038062810898, 0.1355937719345093},
 {0.2102135866880417, -0.0972624495625496, -0.2014124691486359, -0.0054327296093106, -0.2072509229183197, -0.0265036914497614, -0.0884793996810913, -0.1520125716924667, -0.0450001358985901, -0.0726241990923882, -0.2439671158790588, -0.0620710439980030, -0.0592006109654903, 0.0441189631819725, 0.1001950353384018, -0.1246800944209099},
 {0.0853878334164619, 0.1051240041851997, -0.3166773915290833, 0.0253935568034649, -0.1028568074107170, -0.0090488409623504, 0.0279975589364767, -0.2080930769443512, 0.0098365684971213, -0.0755130425095558, -0.0314941704273224, -0.0673182234168053, -0.0037198883946985, -0.1450461298227310, 0.3307330906391144, -0.0344956517219543},
 {0.0655565038323402, -0.1837278157472610, -0.2065107077360153, -0.0414926819503307, -0.0664852410554886, -0.1222888752818108, -0.1641302257776260, -0.1440334618091583, -0.0701732039451599, -0.0358332805335522, -0.1430304050445557, -0.1061541661620140, 0.0445472039282322, -0.1913582980632782, 0.0712732970714569, 0.1200051680207253},
 {0.2496157586574554, 0.0401354804635048, -0.2971697449684143, -0.0125277899205685, -0.3032888770103455, -0.1940387636423111, -0.0916839167475700, 0.0088599324226379, -0.2797194123268127, -0.1965984702110291, -0.1936232596635818, -0.0374415367841721, -0.1366836577653885, -0.2254875302314758, 0.2437942326068878, -0.1263645589351654},
 {0.0948810875415802, 0.0081029236316681, -0.0254223290830851, 0.0515074357390404, -0.1690578907728195, -0.1834086477756500, -0.0835244953632355, -0.1650892943143845, -0.1746875494718552, -0.0103984242305160, -0.0030925108585507, 0.0888261198997498, 0.0590394847095013, 0.0075105801224709, 0.3344407081604004, -0.0869342312216759},
 {0.0008898849482648, -0.1207064986228943, -0.1022704690694809, -0.0366546064615250, 0.0537975020706654, -0.3090547919273376, -0.1475996524095535, 0.0510984063148499, -0.1654580384492874, -0.1499262452125549, -0.0966158360242844, -0.0131986327469349, 0.0232022758573294, 0.0031281376723200, -0.0318343751132488, -0.0090572861954570},
 {0.1505159437656403, -0.1071047261357307, -0.2908918559551239, 0.0706969052553177, -0.0772027075290680, -0.3076542913913727, -0.0325384363532066, -0.1145773753523827, -0.1892174035310745, 0.0452141948044300, -0.1033798083662987, 0.0751739218831062, -0.0176333039999008, -0.0539515651762486, 0.2612389326095581, 0.0518243014812469},
 {0.1468470096588135, -0.1050895974040031, -0.0444274619221687, -0.1545131355524063, -0.0633502602577209, -0.3392431139945984, -0.2165681868791580, -0.2115395218133926, -0.2596561312675476, -0.1215101704001427, 0.1062971353530884, -0.0084733860567212, 0.0264067985117435, -0.0532083921134472, 0.1487977355718613, -0.0793122053146362},
 {-0.0401026271283627, 0.0122351134195924, 0.0519446954131126, -0.0464347079396248, -0.1603735089302063, -0.2910621464252472, -0.0555614046752453, -0.1335369795560837, -0.0220881775021553, -0.0438556745648384, 0.0259581860154867, 0.1295464634895325, -0.1347931176424026, -0.0059711923822761, 0.0901850238442421, -0.0424159727990627},
 {0.0104321576654911, -0.0016094016609713, -0.2028713077306747, -0.0659070760011673, -0.0749600306153297, -0.4348701238632202, -0.0198943149298429, -0.1441879719495773, 0.0350904799997807, -0.1964873522520065, 0.1442036032676697, -0.1231716424226761, -0.1265530586242676, -0.1238428056240082, 0.2311386317014694, -0.1295907348394394},
 {-0.0219648517668247, -0.0842077285051346, -0.1992576569318771, -0.1691447794437408, 0.0066612507216632, -0.4265326857566833, -0.0060034990310669, -0.1272117793560028, -0.0882868170738220, -0.1533154845237732, 0.1355347037315369, 0.1202648803591728, -0.0196792054921389, -0.0301676839590073, 0.2610846161842346, -0.0582082234323025},
 {-0.0373760275542736, -0.0520881563425064, -0.1541332900524139, -0.1002094149589539, 0.0664114281535149, -0.5415757298469543, -0.1897002160549164, -0.0644649118185043, -0.1239405423402786, -0.1634333133697510, 0.3134073615074158, -0.0988458991050720, -0.1145268827676773, 0.0289791524410248, 0.0200263876467943, 0.1126707047224045},
 {-0.0772818997502327, -0.1696873754262924, -0.2808447480201721, -0.1117055416107178, 0.0202005114406347, -0.5354312062263489, -0.0815835818648338, 0.0026154499500990, -0.3128969371318817, -0.1281035691499710, 0.1722948253154755, 0.0623362846672535, -0.1209892630577087, 0.1011778488755226, 0.1046511828899384, -0.0203845053911209},
 {-0.1318802237510681, 0.0812812447547913, -0.1914739608764648, 0.0543769188225269, 0.0173699315637350, -0.5292841792106628, -0.2492644488811493, -0.0561328306794167, -0.1097489893436432, -0.0833639129996300, 0.1174046248197556, 0.0943670123815536, -0.0546198673546314, -0.0662131458520889, 0.1241729930043221, -0.0724691823124886},
 {-0.2202002257108688, 0.0191450845450163, -0.1837952435016632, -0.1462379693984985, 0.1111451536417007, -0.6001296639442444, 0.0886683091521263, 0.0702821984887123, -0.0598654262721539, -0.0587976090610027, 0.3285863697528839, 0.0768317729234695, 0.0770419687032700, -0.1078565120697021, 0.1265633553266525, 0.0086344396695495},
 {-0.0959550514817238, 0.1328200846910477, -0.1746538728475571, 0.0273032579571009, -0.0763366743922234, -0.3672713339328766, 0.0393133424222469, -0.0568869002163410, -0.2745310366153717, -0.0016020396724343, 0.2494298815727234, 0.0016750425565988, -0.0792156457901001, -0.0645819082856178, 0.2609969377517700, -0.0910552963614464},
 {-0.1646041721105576, -0.0715204998850822, -0.1844450980424881, -0.0383313819766045, 0.0792486146092415, -0.4736359417438507, -0.0832972377538681, 0.0033944342285395, -0.1541823744773865, 0.0584946610033512, 0.2655116319656372, -0.0910330638289452, -0.0512086898088455, 0.1964434534311295, 0.1731164753437042, -0.0464831590652466},
 {-0.1954001188278198, 0.0199066828936338, -0.1754017025232315, -0.0398179292678833, 0.1579006016254425, -0.4019140899181366, -0.1320047676563263, -0.0345611460506916, -0.1559159457683563, 0.1145227700471878, 0.2325259000062943, -0.0201437845826149, 0.0362001694738865, 0.1899728327989578, 0.0464781150221825, 0.0817381367087364},
 {-0.1867145299911499, 0.1612009257078171, -0.1031077727675438, 0.0893680751323700, 0.0642870813608170, -0.2203394621610641, -0.0076768272556365, 0.1627928316593170, 0.0070011280477047, 0.0657009929418564, 0.3210041522979736, -0.1039831116795540, 0.1050637364387512, 0.0857287868857384, -0.0045298845507205, 0.0767824649810791},
 {-0.1056760996580124, 0.1401738077402115, -0.1071385592222214, 0.2095452845096588, 0.0898595750331879, -0.1428314149379730, -0.0317890085279942, 0.1312799155712128, -0.3139648139476776, 0.2569040060043335, 0.1780835241079330, -0.0941355600953102, -0.1094760522246361, 0.1911832243204117, 0.3400096297264099, 0.0080940118059516},
 {0.0152445631101727, 0.2528088688850403, -0.1833562552928925, 0.1628954261541367, 0.0305994991213083, -0.1995054632425308, -0.0473407767713070, 0.1985606253147125, -0.0589453652501106, 0.1375469863414764, 0.3335388004779816, -0.0491065792739391, 0.0683816596865654, 0.2248748689889908, 0.0094889383763075, 0.0134116644039750},
 {-0.1428821235895157, 0.1696235090494156, 0.0290325731039047, 0.1852954328060150, -0.0515415370464325, -0.0284123942255974, -0.1149184852838516, 0.2518532574176788, -0.1774335205554962, 0.2013656347990036, 0.1630487442016602, 0.1329353153705597, 0.1278415024280548, 0.1419466882944107, 0.2284058630466461, -0.0712407752871513},
 {-0.1276682317256927, 0.0832654163241386, -0.0635786727070808, 0.1797423660755157, 0.0541559047996998, -0.1505009680986404, 0.1173517778515816, 0.1438116431236267, -0.0733088701963425, 0.1549845337867737, 0.2066113799810410, -0.1303865462541580, 0.1224241182208061, 0.1501874774694443, 0.1134147942066193, -0.0963770151138306},
 {-0.0699789077043533, 0.0996123924851418, 0.0413212850689888, 0.2342801988124847, 0.0515454448759556, 0.0097606014460325, -0.0525709837675095, 0.1064557358622551, -0.2896212041378021, 0.1867637187242508, 0.3250633776187897, 0.1215334609150887, 0.1190090477466583, 0.1575003862380981, 0.1108870133757591, -0.0812020078301430},
 {0.0028878746088594, 0.0536252483725548, -0.1707163900136948, 0.2682131826877594, 0.1905440986156464, 0.0335146486759186, -0.0475052185356617, 0.1085428148508072, -0.1850314885377884, 0.0547619424760342, 0.0870569273829460, -0.0277657937258482, -0.1349754184484482, 0.1686496734619141, 0.0777199193835258, -0.0313474051654339},
 {0.0286414474248886, 0.0725367367267609, -0.1037315055727959, 0.1180683150887489, 0.1908044517040253, 0.0741752460598946, -0.0963344275951385, 0.1148079335689545, -0.1437738835811615, 0.1914456486701965, 0.0652332752943039, -0.1429210901260376, 0.1207542121410370, 0.2940946519374847, 0.2232319116592407, 0.0094164600595832},
 {-0.0717967003583908, 0.1339492499828339, -0.1521807163953781, 0.2620017230510712, 0.1682585179805756, -0.0009113409323618, 0.0609817728400230, 0.0987797826528549, 0.0023838311899453, 0.1182532832026482, 0.1939889043569565, -0.1541181504726410, -0.1240627169609070, 0.3941282927989960, 0.0371752008795738, -0.0658514946699142},
 {0.0987968742847443, 0.2250446081161499, 0.0090853162109852, 0.1413055360317230, 0.1862184405326843, 0.0358731672167778, 0.1162597537040710, -0.0576275959610939, -0.3048905432224274, 0.3239561617374420, 0.0406921170651913, -0.0630632862448692, -0.1275646686553955, 0.1303329318761826, 0.2511027753353119, -0.1418596506118774},
 {0.0473223887383938, 0.2436859458684921, -0.1103766039013863, 0.1665275692939758, 0.1211290135979652, 0.1536413431167603, 0.0996942594647408, 0.0771559923887253, -0.2660790979862213, 0.2686789333820343, 0.0844002738595009, 0.1065817028284073, -0.0378798730671406, 0.1187888234853745, 0.1589888036251068, -0.0531772859394550},
 {-0.0240623541176319, 0.2911357879638672, 0.0493846572935581, 0.1954408437013626, 0.2457332611083984, 0.2079200744628906, -0.0501732267439365, 0.0815783441066742, -0.0045772041194141, 0.1425317525863647, 0.0008919667452574, -0.0349251143634319, -0.1037939488887787, 0.1760548204183578, 0.2461878806352615, -0.0545500591397285},
 {-0.0548765733838081, 0.2783532142639160, -0.0130578428506851, 0.1832359582185745, 0.3208605647087097, -0.0071913851425052, -0.0975938141345978, -0.0712928101420403, -0.0575955957174301, 0.0658953562378883, 0.1623399257659912, -0.0413621291518211, -0.1424243301153183, 0.1822873055934906, 0.1351788640022278, 0.0749641135334969},
 {-0.0049394420348108, 0.1291905790567398, 0.0637183189392090, 0.2026166617870331, 0.4070755839347839, 0.0666602328419685, 0.0317785292863846, -0.0880871191620827, -0.1111057847738266, 0.3069800138473511, -0.0171735286712646, -0.0337779223918915, 0.1020845994353294, 0.1180962696671486, -0.0834171473979950, -0.0124886566773057},
 {-0.0994619354605675, 0.3386141955852509, 0.0846776962280273, 0.3301837146282196, 0.3727490603923798, 0.1371385306119919, 0.1001226454973221, -0.1022413223981857, -0.2201640307903290, 0.1084740236401558, 0.1336570382118225, -0.0097423773258924, 0.0880309119820595, 0.1914170831441879, 0.0134071996435523, -0.0346513874828815},
 {-0.1533135026693344, 0.0620226301252842, -0.0922670662403107, 0.1923721581697464, 0.2831435799598694, 0.0428149662911892, -0.2365521788597107, -0.0321404710412025, -0.1322265863418579, 0.2133491635322571, 0.0847200006246567, 0.0958981961011887, -0.0204568132758141, 0.1627094596624374, 0.1956114470958710, -0.0180562138557434},
 {-0.1109979972243309, 0.0785423964262009, -0.1020566076040268, 0.2094203382730484, 0.2658660709857941, -0.0687373802065849, -0.1561123877763748, -0.1794378757476807, -0.0553700998425484, 0.2135371863842010, 0.1916588693857193, -0.0795394182205200, -0.1493726372718811, 0.0048661427572370, 0.0651973336935043, -0.0716901496052742},
 {-0.1388026773929596, 0.1825497597455978, -0.0474177375435829, 0.1551599949598312, 0.3114424049854279, 0.0075037819333375, -0.0421512052416801, -0.1767915636301041, -0.2599550783634186, 0.2370741665363312, 0.0936120152473450, 0.0549410358071327, -0.0433688014745712, 0.1302287727594376, 0.0083446558564901, -0.1400145292282104},
 {-0.1215093657374382, 0.3335041999816895, -0.0417545959353447, 0.0538032315671444, 0.2827579379081726, -0.0440129637718201, 0.0396008677780628, -0.3183086514472961, -0.1656323224306107, 0.2265406250953674, 0.1244241371750832, 0.1276116520166397, 0.0111746862530708, 0.3373698294162750, 0.1116880774497986, -0.0101714758202434},
 {-0.3664897382259369, 0.2194165289402008, 0.0066942204721272, 0.0661800131201744, 0.3112755417823792, 0.1804124116897583, -0.0485519133508205, -0.0241316352039576, -0.0948555544018745, 0.3006180226802826, 0.1664226204156876, -0.0311490930616856, 0.0350609831511974, 0.1562554091215134, 0.1826573461294174, -0.1573416441679001},
 {-0.4135120213031769, 0.2255985140800476, 0.0219424907118082, 0.0249303337186575, 0.3447824120521545, 0.1994142383337021, 0.0340893678367138, -0.1342006623744965, -0.2147245407104492, 0.1926719993352890, 0.1523194462060928, -0.1411016285419464, 0.0673503726720810, 0.2446615397930145, -0.0454654619097710, -0.0438837893307209},
 {-0.4581437706947327, 0.0164005234837532, -0.1264342516660690, 0.1200163662433624, 0.3391959369182587, 0.2414951622486115, -0.1764441281557083, -0.0833584740757942, -0.1984297186136246, 0.1840700656175613, -0.0893308147788048, 0.0987676009535789, -0.1277161687612534, 0.1049449741840363, -0.0137914298102260, 0.1321021169424057},
 {-0.2560043334960938, 0.2226559370756149, 0.0630304515361786, 0.0127227185294032, 0.2953341007232666, 0.1784093528985977, -0.0279887039214373, -0.1021123528480530, -0.0407142154872417, 0.2256436496973038, -0.0465872250497341, 0.0655520632863045, -0.1510326117277145, 0.0508828237652779, -0.0742176622152328, -0.1260506957769394},
 {-0.3655385673046112, -0.0014199792640284, -0.0822754874825478, -0.0047016665339470, 0.2089150696992874, 0.2996503114700317, -0.1292249858379364, -0.1972864270210266, -0.1086933165788651, 0.0165473148226738, 0.0565951913595200, 0.1084979921579361, -0.0711924135684967, 0.1899414658546448, -0.0431966371834278, -0.1020015925168991},
 {-0.2374269664287567, 0.0904682576656342, -0.0187223758548498, -0.0272187683731318, 0.2033282816410065, 0.0950641408562660, -0.0310444124042988, -0.1706022769212723, -0.1658237278461456, -0.0023440583609045, -0.0744580551981926, 0.0532255135476589, -0.1256127804517746, 0.2788340747356415, 0.0394774414598942, 0.1372627317905426},
 {-0.3696987032890320, 0.1714856624603271, -0.0077578136697412, 0.0230098534375429, 0.2053263485431671, 0.2751247584819794, -0.1658370047807693, -0.0690309330821037, -0.1166355311870575, 0.2581087350845337, -0.0920086950063705, -0.1107908263802528, -0.1115380153059959, -0.0039433711208403, 0.2857474088668823, -0.0496227964758873},
 {-0.2081529647111893, -0.0726695209741592, -0.1272570490837097, 0.1385143995285034, 0.1076840087771416, 0.2898573875427246, -0.1110271736979485, -0.0330433398485184, -0.2713654637336731, 0.2186065614223480, -0.1204732879996300, 0.0505551248788834, 0.0743852257728577, -0.0600420273840427, 0.0629200488328934, 0.1333740949630737},
 {-0.2864737510681152, -0.0505469813942909, 0.1054494231939316, 0.1189032196998596, 0.0152277639135718, 0.2926998138427734, -0.2205517292022705, 0.1742927581071854, -0.1293397992849350, -0.0717155784368515, -0.2187968045473099, 0.0052887010388076, 0.1048624068498611, 0.1853056252002716, 0.0352652780711651, -0.0157155301421881},
 {-0.1795015335083008, -0.0408988669514656, 0.1596795320510864, -0.0081343520432711, 0.0965379029512405, 0.4059402048587799, 0.0136696835979819, 0.2349193096160889, -0.1464303135871887, 0.1357479095458984, -0.1858111768960953, -0.0680503100156784, -0.1394184529781342, -0.0393367856740952, -0.1213939860463142, 0.0374136082828045},
 {-0.1923161447048187, -0.0644695013761520, 0.1410861611366272, 0.2032301723957062, 0.0632979869842529, 0.3318594694137573, -0.2313142716884613, 0.1477041989564896, -0.1139131188392639, 0.2015899568796158, -0.1133904606103897, 0.0613899305462837, -0.0551414266228676, 0.0050870943814516, -0.0373970605432987, -0.1177625656127930},
 {-0.1663578003644943, 0.1695332676172256, -0.0347722657024860, 0.1998092681169510, -0.0279976353049278, 0.3379759192466736, -0.1246754899621010, 0.2592236995697021, -0.1025675013661385, -0.0386280529201031, -0.4374999701976776, -0.0447330996394157, -0.1088130846619606, -0.0228954907506704, 0.0145005853846669, 0.0234043318778276},
 {-0.0079127168282866, 0.2209439873695374, 0.1911400705575943, 0.0128455143421888, -0.0686397925019264, 0.2916484177112579, -0.1381119787693024, 0.1772899627685547, -0.0341624692082405, 0.0193265266716480, -0.3416917920112610, 0.0740688592195511, -0.1375569105148315, 0.0604178085923195, 0.1863538920879364, -0.0401553064584732},
 {-0.0187824815511703, 0.0860530883073807, 0.0673475489020348, 0.1132219284772873, 0.0194333400577307, 0.4270121455192566, 0.0098346844315529, 0.1862599104642868, -0.1880346238613129, 0.1506757736206055, -0.4226932823657990, -0.0121235912665725, 0.0609966628253460, 0.0704095289111137, -0.0831805244088173, 0.0696059688925743},
 {-0.1319716572761536, 0.1493001282215118, 0.0862956419587135, 0.0857734680175781, 0.0496292486786842, 0.3312740623950958, -0.2178077548742294, 0.1083095073699951, -0.1925733834505081, 0.0857283622026443, -0.4294809103012085, -0.1390475034713745, 0.0110760694369674, 0.1400867700576782, -0.2322345376014709, -0.1468935906887054},
 {-0.0632598400115967, 0.1023944467306137, 0.1509385108947754, 0.0816073417663574, 0.0108724208548665, 0.2641930282115936, -0.1231607049703598, 0.1035219728946686, -0.2080186456441879, 0.1395597308874130, -0.4543794989585876, -0.1339336186647415, 0.0609733164310455, 0.1048561409115791, 0.0590028911828995, 0.0356821306049824},
 {0.0170912835747004, -0.0666218921542168, 0.2022086828947067, 0.0767872482538223, -0.0796241313219070, 0.2603251934051514, -0.1802252382040024, 0.1268958151340485, -0.0751577168703079, -0.1113915294408798, -0.3731746375560760, -0.1020439639687538, -0.1242465302348137, 0.0460822619497776, -0.1895492374897003, -0.1433774977922440},
 {0.1594883650541306, 0.1237810254096985, 0.0313819833099842, 0.0146640744060278, -0.0841888636350632, 0.3707865774631500, -0.2718883454799652, 0.0345831215381622, -0.1317493170499802, 0.0491867624223232, -0.3260384202003479, -0.1042934879660606, 0.0285782758146524, 0.1110159903764725, -0.0545988790690899, 0.0848408564925194},
 {0.1539568901062012, -0.0551859661936760, -0.0444173812866211, 0.0613238327205181, -0.1197849288582802, 0.4268812239170074, 0.0205740332603455, 0.2040519267320633, 0.0000899293590919, -0.0093568079173565, -0.4840710759162903, 0.0487971194088459, 0.1127711310982704, -0.0877133384346962, -0.0531062781810760, 0.1036493629217148},
 {0.0286222752183676, 0.0841155126690865, 0.0546087697148323, 0.1861345469951630, -0.0519311279058456, 0.4293895661830902, -0.0180985033512115, 0.0725914835929871, -0.0954243913292885, 0.1455339044332504, -0.4678017199039459, 0.1317405849695206, -0.1025993153452873, 0.0024174863938242, -0.0540634319186211, -0.0841434895992279},
 {0.0891778618097305, 0.0425410494208336, 0.0292822197079659, 0.0162572748959064, -0.1258884817361832, 0.4854341149330139, 0.0094480458647013, 0.1118611693382263, -0.0464733876287937, 0.0545496828854084, -0.4360203742980957, 0.0729143992066383, -0.1083418279886246, -0.0525179654359818, 0.0332758314907551, -0.0259176660329103},
 {0.1083825007081032, -0.0432938747107983, 0.0116883916780353, -0.0537774227559566, -0.1788683980703354, 0.3492606878280640, -0.1568550467491150, 0.0125850690528750, -0.0360665656626225, 0.0395635776221752, -0.4193704128265381, -0.0655570179224014, 0.0432217977941036, 0.1197442561388016, 0.0249815322458744, -0.0244671367108822},
 {0.1113158762454987, 0.1399549096822739, 0.1937899440526962, 0.1323031932115555, -0.3771598637104034, 0.3644391298294067, -0.1840301752090454, 0.1831868141889572, -0.0223673470318317, -0.0115879997611046, -0.4032558202743530, 0.0833876654505730, 0.0956300273537636, 0.0414922200143337, 0.1260512173175812, 0.0759409517049789},
 {0.1346330940723419, 0.0150459297001362, -0.0387578904628754, -0.1111094057559967, -0.3391371369361877, 0.3636723756790161, -0.2796937227249146, 0.0965214967727661, -0.0119466995820403, 0.0267285462468863, -0.3416008055210114, 0.0271214246749878, 0.1080540046095848, 0.0170881878584623, -0.0889928191900253, 0.0406721048057079},
 {0.1212593019008636, -0.0138752171769738, -0.0588346906006336, -0.0863426700234413, -0.4191964268684387, 0.2163248807191849, -0.2362308204174042, 0.2425854504108429, -0.2483295947313309, 0.1175825297832489, -0.3268117606639862, 0.0832879990339279, -0.0600990653038025, 0.1154701858758926, -0.2677180767059326, -0.1207558512687683},
 {0.1707598268985748, 0.0360378697514534, -0.0426212847232819, 0.0087843006476760, -0.4712783992290497, 0.1771620810031891, 0.0283511821180582, 0.1766571551561356, 0.0568529069423676, -0.0114548588171601, -0.1926622986793518, -0.0162644535303116, -0.1377200186252594, -0.1338761895895004, -0.0572133995592594, -0.0256095789372921},
 {0.1290763020515442, -0.1198322847485542, 0.2068919837474823, -0.0116152530536056, -0.3832838535308838, 0.0912713184952736, 0.0011002294486389, 0.0767803937196732, -0.2572638988494873, -0.0745432972908020, -0.1646838337182999, -0.0008184096077457, -0.1427208930253983, -0.0921136960387230, -0.0702158510684967, -0.0358952991664410},
 {0.0151108866557479, -0.0203544534742832, 0.1354154050350189, -0.0011897282674909, -0.4247104525566101, -0.0289822798222303, -0.2660326063632965, 0.3234830200672150, -0.1666751354932785, -0.0049710008315742, -0.0721627250313759, -0.1079746335744858, -0.0222200006246567, 0.1427963376045227, -0.0684865340590477, -0.1346908807754517},
 {-0.0460164472460747, -0.1096386387944221, 0.1295255273580551, -0.1456448882818222, -0.5350755453109741, -0.0086396634578705, -0.0494608990848064, 0.2352053523063660, -0.1000473871827126, 0.0319918692111969, 0.0027580049354583, 0.0869179666042328, -0.0065002483315766, 0.0422707386314869, -0.0812579318881035, 0.0535994246602058},
 {-0.0363591052591801, -0.0030271706636995, 0.1533725112676620, -0.0706241875886917, -0.7545217275619507, 0.0790707394480705, -0.2183975875377655, 0.2528498470783234, -0.1704057902097702, 0.1021910384297371, -0.0690891295671463, -0.1178319975733757, -0.1221978142857552, -0.0521692335605621, -0.1958944648504257, -0.0621947646141052},
 {0.0503878705203533, -0.0810887962579727, 0.1974633634090424, -0.0483835600316525, -0.8425754904747009, 0.0064228931441903, -0.2635972499847412, 0.1446091085672379, -0.2143030911684036, 0.0790660753846169, 0.1546194553375244, -0.0516376160085201, -0.1361098587512970, -0.0597989447414875, -0.1125600263476372, 0.1102266237139702},
 {-0.0454384423792362, 0.0334381163120270, 0.1579982340335846, 0.0365651138126850, -0.7193299531936646, -0.1264526247978210, -0.0931489989161491, 0.2649595141410828, -0.1979163587093353, -0.1372974812984467, 0.2228659093379974, -0.1398805975914001, 0.0292788520455360, -0.0468490235507488, -0.0909807458519936, -0.1229264661669731},
 {0.1048343777656555, -0.1077997833490372, 0.0268233381211758, 0.0413617454469204, -0.7317507863044739, -0.1739803403615952, -0.1525417715311050, 0.1633422821760178, 0.0419110767543316, -0.1708755195140839, 0.3033183515071869, 0.1095075756311417, 0.0647926107048988, -0.1624494940042496, -0.0640691593289375, -0.0978048369288445},
 {0.1174448579549789, -0.0375580117106438, 0.0404917895793915, -0.0996770933270454, -0.8233062028884888, -0.1465175151824951, -0.1929903179407120, 0.2649244666099548, -0.1962793916463852, 0.0501283891499043, 0.3180500566959381, 0.0724379345774651, -0.0158150959759951, -0.1231934204697609, -0.0761245861649513, 0.1054404377937317},
 {0.1959923356771469, 0.0594873689115047, 0.1858386695384979, -0.0045959083363414, -0.7279310226440430, -0.1469820588827133, -0.1809898018836975, 0.3105134665966034, -0.1392564773559570, -0.0588750205934048, 0.2449234127998352, 0.1222805455327034, 0.0774723216891289, -0.2198105305433273, -0.0080759814009070, -0.0869011580944061},
 {0.1388489603996277, -0.0608074218034744, 0.2326822280883789, 0.0112349297851324, -0.6574437618255615, -0.3482999205589294, -0.0931908339262009, 0.2441428303718567, 0.0398080572485924, 0.0017088261665776, 0.4743611216545105, -0.0462521053850651, -0.1271768361330032, -0.0616083368659019, -0.1271596699953079, 0.0053243967704475},
 {0.1499886959791183, 0.0057227751240134, 0.1411519050598145, 0.0542876981198788, -0.6611235141754150, -0.3462148308753967, -0.0844124481081963, 0.1826968193054199, -0.1336547881364822, -0.0731797292828560, 0.5263870954513550, 0.1179425790905952, 0.0639377459883690, -0.1165566369891167, -0.3598574101924896, 0.1124769374728203},
 {0.0462298877537251, -0.0782974585890770, -0.0439146570861340, -0.1320670992136002, -0.5430837273597717, -0.3580833673477173, -0.0516288988292217, 0.1089799478650093, -0.0913356617093086, -0.1061373651027679, 0.4401450157165527, 0.0828198492527008, -0.0516759566962719, 0.0226537454873323, 0.0352642573416233, 0.0539587810635567},
 {0.0246347654610872, -0.0089960834011436, 0.0115214195102453, 0.0319106429815292, -0.4191258251667023, -0.2689772248268127, -0.0695168599486351, 0.0359374471008778, 0.0474250651896000, -0.1988176256418228, 0.3256261050701141, -0.1164999604225159, -0.0796547457575798, 0.0372254475951195, -0.0691487938165665, 0.1176851689815521},
 {-0.0469412431120872, 0.0878460109233856, 0.1069809272885323, -0.0745626837015152, -0.4413664937019348, -0.2748607099056244, -0.0175808183848858, -0.2039876133203506, -0.0022627424914390, -0.0745726153254509, 0.5278894901275635, -0.1547639369964600, -0.0178472343832254, -0.1458077877759933, -0.1846529394388199, -0.0833891704678535},
 {0.1061225831508636, -0.1425871998071671, 0.2459094971418381, -0.0689439699053764, -0.3359457552433014, -0.3265333473682404, -0.2412371337413788, -0.1379767507314682, -0.0472180247306824, -0.1433123946189880, 0.5191862583160400, -0.0792830884456635, -0.0345227122306824, 0.0377755016088486, -0.1445136815309525, -0.0238224696367979},
 {0.1651860922574997, -0.0241455454379320, 0.0607747882604599, -0.1807779222726822, -0.2721213400363922, -0.3271689414978027, -0.0899196118116379, -0.2327287495136261, -0.1439879238605499, -0.0637517198920250, 0.2197676002979279, -0.1205976083874702, -0.1383838653564453, -0.1120878159999847, -0.1329045593738556, 0.0914847552776337},
 {-0.0395350120961666, -0.0346175245940685, 0.1074027791619301, -0.1826432049274445, -0.1458218395709991, -0.2015950381755829, -0.0858767703175545, -0.4243993163108826, 0.0808441713452339, -0.1791118681430817, 0.4172842800617218, -0.1501763612031937, -0.1172664538025856, -0.1555462032556534, -0.1847732514142990, 0.0643412172794342},
 {-0.0381232798099518, 0.0437202639877796, 0.1869392395019531, -0.0439334660768509, -0.1608966737985611, -0.2499069422483444, -0.2043993771076202, -0.6231949329376221, -0.1224592775106430, -0.0798605307936668, 0.3852054774761200, -0.1467206031084061, 0.1332650035619736, 0.0324114784598351, -0.2359549254179001, -0.0738010480999947},
 {-0.0336909182369709, 0.0077241710387170, -0.1215782314538956, -0.0768221616744995, 0.0074799736030400, -0.2241189330816269, 0.0652525722980499, -0.5672626495361328, -0.0900841504335403, 0.0318284742534161, 0.2384740859270096, 0.0661933869123459, 0.0225818380713463, -0.1704484671354294, -0.0406641103327274, -0.1057920455932617},
 {0.1001635119318962, -0.0049125174991786, 0.1757759898900986, -0.1717597693204880, 0.0417486764490604, -0.1164706349372864, -0.1337943226099014, -0.8097993731498718, 0.0805402845144272, -0.2167875915765762, 0.2199221849441528, 0.0430597811937332, -0.0007249696063809, -0.0407426580786705, -0.0984855219721794, -0.0171056967228651},
 {0.2128156125545502, -0.0928461402654648, -0.1496826410293579, -0.0425140671432018, 0.1577382683753967, -0.0792229101061821, 0.0110415983945131, -0.9549065232276917, -0.0706168189644814, -0.0245385635644197, 0.1764136105775833, -0.1299540996551514, -0.0779237672686577, -0.0567452199757099, -0.0778656750917435, -0.1262232810258865},
 {0.1572320461273193, 0.0035549239255488, 0.2007162123918533, -0.1595920771360397, 0.2635142803192139, -0.1771739572286606, -0.1849302649497986, -1.0565127134323120, 0.1306869238615036, -0.2281900793313980, 0.1799646168947220, 0.0055892923846841, -0.1354549527168274, -0.0082211019471288, -0.1891978383064270, -0.0080758808180690},
 {0.1424731910228729, -0.1553738415241241, 0.1741428971290588, 0.0086206812411547, 0.3416667580604553, 0.0599546507000923, -0.2116997838020325, -1.0481417179107666, -0.0564671605825424, -0.0411497652530670, 0.1970675587654114, -0.1404284685850143, -0.1453643590211868, -0.2003510147333145, -0.0795340016484261, -0.1248613446950912},
 {0.0715149343013763, -0.1014710068702698, 0.1783882528543472, -0.1512616276741028, 0.4609632790088654, -0.0149257723242044, -0.1149849444627762, -1.1480708122253418, -0.1787253618240356, -0.0359235927462578, 0.0426653623580933, 0.1293267607688904, 0.1161150410771370, -0.2340139448642731, -0.1464191824197769, 0.0104142716154456},
 {0.0498303808271885, -0.1593252271413803, 0.1510328054428101, 0.0453833751380444, 0.2915930151939392, 0.1008291170001030, -0.0474291965365410, -0.9746255278587341, -0.0814071223139763, -0.0832337439060211, -0.0794601216912270, -0.0257288161665201, -0.0885789692401886, 0.0526407435536385, -0.2697516381740570, 0.0039705499075353},
 {0.0820194482803345, -0.1671646982431412, 0.1528950184583664, -0.1716118305921555, 0.4527795910835266, 0.1392986923456192, -0.0704879239201546, -0.8427483439445496, 0.1282587945461273, -0.1138114482164383, -0.2071305960416794, 0.0408635325729847, -0.1362455785274506, 0.0146021787077188, 0.0022295145317912, -0.0367360301315784},
 {0.1910883635282516, -0.0481924377381802, -0.1387451291084290, -0.0950145199894905, 0.3301040828227997, 0.1892710179090500, -0.0406414754688740, -0.7352147698402405, 0.0153900962322950, -0.1364074200391769, -0.3110249638557434, -0.0984080806374550, -0.0090844808146358, -0.1210523173213005, -0.2897446453571320, 0.0553844794631004},
 {0.0905262157320976, -0.0353430546820164, 0.1539304554462433, -0.1759167760610580, 0.4346308112144470, 0.2110104560852051, -0.0274999104440212, -0.5407053232192993, -0.0781256482005119, -0.0763180181384087, -0.2737130224704742, 0.0653899684548378, -0.0858527496457100, 0.0575861260294914, -0.2808004915714264, 0.0504599921405315},
 {-0.0128283081576228, -0.1816925257444382, 0.1993408054113388, 0.0186978150159121, 0.4629555344581604, 0.1677941083908081, -0.1405189335346222, -0.5494095087051392, 0.0767210498452187, -0.1024550050497055, -0.2785980999469757, 0.0770171359181404, -0.0339286923408508, -0.0934235304594040, -0.0163604188710451, -0.0996753200888634},
 {0.0761183351278305, 0.0279764886945486, 0.2051467895507812, 0.0916602611541748, 0.4759879112243652, 0.2027641981840134, -0.0304649658501148, -0.2755453586578369, -0.0567478463053703, -0.1398031562566757, -0.3887444138526917, 0.0837013646960258, 0.1123093068599701, 0.0594926029443741, 0.0289547536522150, -0.0538307949900627},
 {0.0371119007468224, -0.1356757283210754, 0.1594298183917999, -0.1440885514020920, 0.4113973975181580, 0.1257223188877106, 0.0967354327440262, -0.2812294661998749, 0.0891253352165222, 0.0860689207911491, -0.4818943440914154, -0.1170627921819687, 0.0311375856399536, -0.1567263007164001, -0.2757832705974579, 0.0900929570198059},
 {0.1605084091424942, -0.1400022655725479, 0.1713016480207443, -0.0321528054773808, 0.3369350731372833, 0.0855205506086349, -0.1481941044330597, -0.1249333843588829, 0.1131167933344841, 0.0741974115371704, -0.3565755784511566, -0.0013932364527136, -0.0321397855877876, -0.1425588577985764, -0.2478644549846649, 0.1252078413963318},
 {0.0625777915120125, -0.0275743212550879, 0.0703560635447502, 0.0065498338080943, 0.2664616405963898, 0.2094004303216934, 0.1501627266407013, -0.1094123795628548, -0.1029839813709259, 0.1131308823823929, -0.4077502489089966, -0.0509076528251171, -0.1338786929845810, 0.1286903172731400, 0.0400106348097324, 0.0888743773102760},
 {0.1095796078443527, -0.0480160601437092, 0.1767774224281311, -0.0238766837865114, 0.0974023863673210, 0.0531029924750328, 0.1572654545307159, -0.0082477442920208, 0.0427118316292763, -0.1340677887201309, -0.4689046144485474, -0.0652404576539993, 0.0148009480908513, 0.0896247103810310, -0.2636404037475586, -0.0532137677073479},
 {0.0696198120713234, 0.1642956882715225, 0.2363994568586349, -0.0851946100592613, -0.0050728516653180, 0.0304611194878817, -0.0607833676040173, 0.1511800438165665, 0.1379248648881912, -0.0544361732900143, -0.3337021470069885, -0.0110757369548082, -0.1044821962714195, 0.0436009876430035, -0.1752151250839233, 0.1234232038259506},
 {0.2153116911649704, -0.1462081670761108, 0.0388592183589935, -0.0681566745042801, 0.2360516935586929, 0.0454256422817707, -0.0396677777171135, 0.3147974312305450, 0.1761112958192825, 0.0627817958593369, -0.3211963474750519, 0.0247385483235121, -0.1235684901475906, -0.0803929120302200, -0.1936542987823486, -0.0793780833482742},
 {0.1820531785488129, -0.1354793310165405, 0.1263615787029266, 0.0329075343906879, 0.0964164584875107, 0.0467621497809887, 0.0818742811679840, 0.4005902707576752, 0.1103464961051941, -0.0232284311205149, -0.3231774866580963, -0.0796303823590279, -0.1005359962582588, 0.0212828163057566, -0.0762850865721703, 0.0804746523499489},
 {0.1245787739753723, 0.0975054949522018, -0.0133879985660315, 0.1208361908793449, 0.0077917347662151, -0.1553028076887131, -0.1119918301701546, 0.4462130665779114, 0.1513158828020096, 0.1127723157405853, -0.1921097338199615, -0.1124216690659523, -0.0167004037648439, -0.0355621092021465, -0.1162524372339249, 0.1030575856566429},
 {0.3208353221416473, -0.0457803383469582, -0.0121392868459225, 0.0908896178007126, -0.1033575832843781, -0.1619865298271179, 0.0910569801926613, 0.5097885727882385, 0.0257114842534065, 0.1347950398921967, -0.1961645931005478, -0.0628003105521202, -0.1458878666162491, -0.0087582292035222, -0.2286995500326157, -0.0728714093565941},
 {0.2337949424982071, 0.0790956318378448, 0.0284087490290403, 0.1360219120979309, -0.1305223554372787, -0.0633828863501549, 0.2929106354713440, 0.2963210046291351, 0.0155961718410254, 0.0600336976349354, -0.1711081266403198, 0.1356099992990494, 0.0751084163784981, 0.0674347057938576, -0.1687971353530884, 0.0594135038554668},
 {0.2330793440341949, -0.0069537577219307, 0.1598402410745621, -0.0926824584603310, -0.0795064494013786, -0.2822658717632294, -0.0343630798161030, 0.4771511256694794, 0.0790594816207886, -0.0686917677521706, -0.2557350099086761, 0.0136596402153373, 0.0464281886816025, 0.1100783199071884, -0.0720028579235077, -0.0990380942821503},
 {0.2553360164165497, 0.1392657309770584, 0.1202178969979286, -0.0046913670375943, -0.2139525860548019, -0.3302539587020874, 0.1330204010009766, 0.4698074758052826, 0.0960840657353401, -0.0474078617990017, -0.1146916821599007, -0.1407547593116760, 0.1242499575018883, 0.1112992316484451, 0.0599669143557549, 0.1197944879531860},
 {0.1573507636785507, -0.1434408575296402, -0.0660607144236565, -0.0210271235555410, 0.0386443398892879, -0.2514528036117554, 0.0987104028463364, 0.5278121232986450, -0.0814584195613861, 0.1223638579249382, 0.0356251671910286, -0.0641359090805054, -0.0829019024968147, 0.0418710261583328, -0.1628061085939407, -0.1365693807601929},
 {0.2627460658550262, -0.0773355364799500, -0.0166696701198816, 0.1298072785139084, -0.0012938225409016, -0.3063439726829529, 0.0118204830214381, 0.4824642539024353, 0.1296251118183136, 0.0231438055634499, 0.0495937727391720, 0.0426129586994648, 0.0187578815966845, 0.1877040117979050, -0.0531262904405594, -0.0804655030369759},
 {0.2506294846534729, 0.0953863933682442, 0.1431042253971100, 0.0975606665015221, 0.0352010391652584, -0.3165092170238495, 0.0048461826518178, 0.4398857951164246, 0.1092808246612549, 0.1250652670860291, 0.0153372343629599, 0.1374492049217224, 0.1206033006310463, 0.1256457120180130, -0.0858889520168304, -0.0698572471737862},
 {0.0522464960813522, 0.0901712551712990, 0.1598867475986481, 0.1160242483019829, -0.0516190044581890, -0.3768949508666992, 0.1127375736832619, 0.3663327991962433, 0.1674612760543823, 0.0982345715165138, 0.1323579698801041, -0.1563866138458252, -0.0873250141739845, 0.1438937932252884, -0.1766602694988251, 0.0234708562493324},
 {0.0044768541119993, 0.0509601756930351, 0.2414616197347641, 0.0187394060194492, -0.0916001945734024, -0.2978096008300781, 0.1370992213487625, 0.3191634714603424, 0.1510581374168396, 0.2118648439645767, 0.0457848235964775, -0.0757697075605392, -0.0588091835379601, 0.0698787569999695, -0.1126933023333549, 0.1142879799008369},
 {0.1560603380203247, -0.0939451083540916, 0.0721810534596443, 0.1050729975104332, 0.1170505657792091, -0.3272938132286072, 0.1381897479295731, 0.2298089861869812, 0.0616082958877087, 0.0928574129939079, 0.1048457249999046, 0.0615092180669308, 0.1337886303663254, -0.0809833407402039, -0.0026611192151904, -0.0590645931661129},
 {0.1086574643850327, 0.1544429659843445, -0.0266797747462988, -0.0225143674761057, 0.2220749706029892, -0.4171710312366486, 0.0526610426604748, 0.2368291169404984, 0.0417635515332222, 0.0307932253926992, 0.1320871859788895, 0.0399440042674541, -0.0692987069487572, -0.0895653888583183, -0.2316568493843079, -0.0158128906041384},
 {-0.0206422992050648, 0.0589492879807949, 0.0949142128229141, -0.0588915124535561, 0.1452904045581818, -0.4639834463596344, 0.1622923612594604, 0.1629461795091629, -0.0565824061632156, 0.1551005691289902, 0.1768862009048462, 0.0176286771893501, -0.0722591802477837, 0.0640412718057632, -0.0443475656211376, 0.0560345314443111},
 {-0.1202860623598099, 0.1258455961942673, 0.1043585240840912, -0.0987477973103523, 0.2506467401981354, -0.3476379513740540, -0.0481659621000290, 0.0549091920256615, -0.0554634928703308, 0.0897469893097878, 0.1539407670497894, 0.0443824753165245, -0.1370902508497238, -0.0702779144048691, -0.0951308980584145, 0.0833860263228416},
 {-0.0381234511733055, 0.0857042744755745, -0.0371890291571617, 0.0047728405334055, 0.0767102837562561, -0.3416530787944794, -0.1352965235710144, 0.1890677362680435, 0.1017961800098419, -0.0343597196042538, 0.2495485991239548, -0.1068035885691643, 0.1226614937186241, 0.0038212698418647, -0.0841263011097908, -0.1363336443901062},
 {-0.1676777005195618, -0.0956884548068047, 0.0229736063629389, 0.0769909620285034, 0.3350221812725067, -0.1414570659399033, 0.1864784359931946, 0.0486682094633579, -0.0685991942882538, -0.0874253660440445, 0.1809978485107422, -0.0612174905836582, 0.0486853308975697, -0.0788251534104347, -0.0086808186024427, 0.0591462403535843},
 {-0.1670826971530914, 0.1311797499656677, 0.0598934181034565, -0.0121720405295491, 0.3977147042751312, -0.2301097959280014, 0.1081816926598549, -0.0562601163983345, 0.1592615693807602, -0.0119835790246725, 0.1698199659585953, -0.0438976697623730, -0.1157742217183113, -0.0582090243697166, -0.1222611740231514, 0.0992129445075989},
 {-0.2159868627786636, 0.0973796471953392, 0.2961936593055725, 0.0990214124321938, 0.2589551210403442, -0.0236196853220463, -0.0545669347047806, -0.0193034801632166, 0.1869794726371765, 0.0406363569200039, 0.1597056984901428, -0.0509549602866173, 0.0485657043755054, -0.0889964774250984, -0.0526356883347034, 0.0906713381409645},
 {-0.3932417333126068, -0.0459649004042149, -0.1218642741441727, -0.0302310958504677, 0.4347535073757172, -0.2256994247436523, 0.1053668633103371, -0.0620027035474777, 0.0886749476194382, 0.0367852263152599, 0.0573126040399075, 0.0680203735828400, -0.0540049597620964, 0.0342716723680496, -0.1114573180675507, 0.0261881090700626},
 {-0.2932743728160858, 0.0085492962971330, 0.2421065866947174, -0.1146590560674667, 0.2443556636571884, -0.0359600931406021, -0.1237865835428238, 0.0182566624134779, 0.1132690757513046, 0.1181718781590462, 0.0469082407653332, -0.0470043420791626, -0.0706115216016769, 0.0984193608164787, -0.2689238786697388, -0.1431829184293747},
 {-0.2590665817260742, 0.0596416704356670, 0.0550300590693951, -0.0806081146001816, 0.4503920078277588, -0.0593431703746319, -0.0153009770438075, -0.1408024132251740, 0.2087833285331726, -0.1088318377733231, 0.1450547426939011, 0.0911640003323555, 0.1425731033086777, -0.0063581331633031, 0.0404416918754578, -0.0383272990584373},
 {-0.5159390568733215, 0.0325535126030445, -0.0536100938916206, -0.1200224757194519, 0.2540067136287689, 0.0094315558671951, -0.0710514709353447, 0.0655577778816223, 0.1944090127944946, 0.0531123578548431, -0.0260849911719561, -0.1375669986009598, -0.0777874886989594, -0.0643143355846405, -0.0404001437127590, -0.0256118830293417},
 {-0.4214442074298859, -0.0284863095730543, -0.0797050148248672, 0.1601438373327255, 0.4122760593891144, -0.0419251322746277, 0.1169688329100609, 0.0950077101588249, 0.1568723618984222, 0.1652268469333649, 0.0009702729876153, 0.0610799044370651, -0.0487150810658932, 0.0068066259846091, 0.0274045243859291, 0.1327812522649765},
 {-0.2870193719863892, -0.0179891977459192, -0.0994130522012711, 0.1330679208040237, 0.3215691745281219, 0.1387004405260086, 0.1625965088605881, 0.1404051631689072, -0.0118156308308244, 0.1211703941226006, 0.0512009225785732, -0.0036118098068982, -0.0539487078785896, -0.1010757088661194, -0.1229502707719803, 0.1354649066925049},
 {-0.3390138149261475, -0.1130234897136688, -0.0002784028765745, -0.0181832443922758, 0.3195633292198181, 0.2006184011697769, 0.0922190248966217, 0.0694422870874405, 0.0829633548855782, -0.1022112593054771, -0.1248223707079887, -0.0069993180222809, 0.0945131033658981, -0.0000927875225898, -0.0025767709594220, -0.0600604936480522},
 {-0.1367540061473846, 0.0750982984900475, 0.0858053639531136, -0.0361187234520912, 0.3647185266017914, 0.1575687229633331, 0.0973797962069511, 0.0791356265544891, 0.1207477375864983, 0.0043733147904277, -0.0565987154841423, -0.0370319187641144, 0.1375218033790588, -0.0297607891261578, -0.0960897877812386, 0.1207587644457817},
 {-0.3153409659862518, -0.0699117556214333, -0.0964568555355072, -0.0701920762658119, 0.1844388246536255, 0.0849607884883881, 0.0225408021360636, 0.1554968059062958, 0.1509617269039154, 0.1015477702021599, -0.1270490735769272, -0.1524288952350616, -0.1080404669046402, 0.1232515648007393, -0.1416630595922470, 0.0174091309309006},
 {-0.3049104809761047, -0.1127522215247154, 0.1731473952531815, 0.0914712101221085, 0.1246458739042282, 0.0836193263530731, 0.1300841420888901, 0.1562583446502686, 0.1392038762569427, -0.1313646286725998, -0.1183909177780151, -0.1283302158117294, -0.1289188563823700, -0.1201891601085663, -0.0623994953930378, -0.0626097694039345},
 {-0.1495629847049713, -0.0678699761629105, -0.1194251105189323, 0.1475223451852798, 0.1171255335211754, 0.2645385861396790, 0.2308651655912399, 0.1103307753801346, 0.1360617876052856, 0.0511630438268185, -0.0973537862300873, -0.1384938657283783, -0.0467244759202003, -0.0420568101108074, 0.0368638560175896, -0.1313031613826752},
 {-0.0066791009157896, -0.1320963501930237, -0.0071635404601693, 0.1535960435867310, 0.0609223954379559, 0.0850086659193039, 0.0181747470051050, 0.1914638578891754, 0.1043827980756760, 0.1410821825265884, -0.0926005095243454, 0.0235792230814695, 0.0752324089407921, 0.0631692856550217, -0.0223534479737282, -0.0340023450553417},
 {-0.1900286227464676, 0.0920795574784279, 0.1494085639715195, -0.0847863182425499, 0.0462268032133579, 0.2509730756282806, 0.0580654107034206, 0.2356518656015396, 0.1820237785577774, 0.0476260073482990, -0.1004439145326614, -0.0535740070044994, 0.0207608416676521, -0.0450251325964928, 0.0336717702448368, 0.0972581729292870},
 {-0.0016417007427663, 0.0940253883600235, 0.1674833446741104, 0.1143788844347000, -0.1687983125448227, 0.1784600764513016, 0.0957576856017113, 0.2184470593929291, -0.0462772622704506, 0.0338843762874603, -0.1271527707576752, 0.0106825027614832, -0.0344348661601543, 0.0764825195074081, 0.0046266471035779, -0.0850734934210777},
 {0.0919064357876778, 0.0355268977582455, 0.0401489436626434, -0.0331214591860771, -0.2712640166282654, 0.1092390716075897, 0.0969901606440544, 0.2115543037652969, 0.0530429370701313, 0.1699110120534897, -0.0407639592885971, 0.1042173877358437, 0.0832397937774658, 0.0265664774924517, -0.1697251647710800, -0.0136611172929406},
 {0.0398030877113342, -0.0026062407996505, 0.0471454747021198, 0.0068339174613357, -0.3083265125751495, 0.1556041985750198, 0.1349834501743317, 0.0791757777333260, 0.0048846048302948, -0.0081246513873339, -0.0835033431649208, 0.1228785142302513, 0.0267002508044243, 0.1934057772159576, 0.0140983182936907, 0.0738626420497894},
 {0.1431482583284378, 0.1624666601419449, 0.0155323287472129, -0.0332568250596523, -0.1489300727844238, 0.1556067615747452, 0.1724344193935394, 0.1039644554257393, 0.1802096515893936, 0.0172524005174637, 0.0495506413280964, 0.0540051385760307, -0.0197892393916845, 0.0045039230026305, 0.1553304493427277, -0.0876177772879601},
 {0.1208819746971130, 0.1751247495412827, -0.1817460805177689, 0.1194263398647308, -0.3108585774898529, 0.1829657256603241, 0.2914208173751831, 0.1312222778797150, 0.1276313960552216, 0.0304815731942654, 0.1190446317195892, -0.1337955892086029, -0.0544107630848885, 0.2376479953527451, -0.1252943724393845, 0.1223926097154617},
 {0.1741377860307693, 0.1297914981842041, 0.0773876756429672, 0.1751278787851334, -0.1813757270574570, 0.3279780149459839, 0.1449766457080841, 0.1649765521287918, 0.0148054035380483, -0.0013807981740683, 0.0235985480248928, -0.0790988206863403, 0.0937781035900116, 0.0534352324903011, 0.0522755235433578, -0.0306208226829767},
 {0.1262484937906265, -0.0442476645112038, -0.0669812932610512, 0.1472036242485046, -0.2502230107784271, 0.1741755157709122, 0.0599265322089195, 0.1155883818864822, -0.0581030473113060, 0.2278313189744949, 0.2311484366655350, -0.0592117905616760, -0.0885621234774590, 0.1948671191930771, -0.0872633531689644, 0.0178855918347836},
 {0.1186086982488632, -0.0197679195553064, 0.0341259986162186, 0.0425390638411045, -0.3551644086837769, 0.1181713938713074, 0.0146022234112024, -0.0356600917875767, 0.0538674630224705, 0.1094859093427658, 0.2932543456554413, 0.0773755237460136, -0.0317147411406040, -0.0829681530594826, -0.0096819149330258, -0.1163874864578247},
 {0.2235478013753891, 0.1227827072143555, -0.1252965480089188, 0.1765533089637756, -0.3595187366008759, 0.2780370116233826, 0.0196616146713495, 0.0242080241441727, 0.1983133852481842, 0.0397547557950020, 0.1971088647842407, 0.0630635321140289, 0.1339455544948578, -0.0944563299417496, -0.0287262573838234, 0.0687715038657188},
 {0.0482495501637459, 0.1215294227004051, 0.1014707013964653, -0.0450441762804985, -0.4343993067741394, 0.2427713721990585, 0.1123924702405930, -0.0647261589765549, 0.0740408077836037, -0.0557188540697098, 0.3378383815288544, 0.0922702848911285, 0.1075043827295303, 0.0212969370186329, 0.0344627313315868, 0.0947616025805473},
 {0.1298113018274307, -0.0059248483739793, 0.1899984329938889, 0.0916626155376434, -0.2277221232652664, 0.1494114696979523, 0.2411457151174545, 0.0131207928061485, 0.2472144663333893, 0.0310309864580631, 0.2902141511440277, -0.1415294259786606, 0.0148032940924168, -0.0502018071711063, -0.0174047220498323, -0.0592975020408630},
 {-0.0482312142848969, -0.0544297806918621, -0.0824451670050621, -0.0220710020512342, -0.3907525539398193, 0.1978208869695663, 0.1688613444566727, -0.1487963497638702, 0.1408550143241882, 0.2217852622270584, 0.3251856267452240, -0.1466924101114273, 0.0989927351474762, 0.0204737689346075, 0.1475911587476730, 0.0711739137768745},
 {0.0561854466795921, -0.0222897659987211, -0.0985019654035568, 0.1583983153104782, -0.1644273847341537, 0.0778619647026062, 0.1236755177378654, -0.0412037372589111, -0.0834669917821884, -0.0567066036164761, 0.2781878709793091, -0.1403000056743622, 0.0809081196784973, 0.0825205147266388, -0.0252188015729189, -0.1443933099508286},
 {0.1459921449422836, 0.0686132311820984, -0.1120455116033554, 0.0348906144499779, -0.2355940341949463, 0.1461785733699799, 0.1276841759681702, -0.1352782398462296, 0.2537413239479065, 0.1757385134696960, 0.3161150813102722, -0.0968154892325401, 0.0736069977283478, 0.1556224077939987, -0.0802968591451645, -0.0723242163658142},
 {0.0542917661368847, 0.0035073030740023, 0.0150725543498993, 0.0620861947536469, -0.3286735713481903, -0.0101305861026049, 0.1523604691028595, -0.2187625765800476, 0.1108361482620239, 0.1045922040939331, 0.1536265313625336, -0.0987204015254974, -0.0427423566579819, 0.2442488968372345, 0.0660222694277763, 0.0431401841342449}};
float biases_hidden[16] = {-0.0584203153848648, 0.0918234884738922, 0.0571354813873768, 0.1018200889229774, -0.1062677875161171, -0.0430402345955372, 0.1201168671250343, -0.1006102263927460, 0.0464047677814960, 0.1122290715575218, -0.0907849445939064, -0.0077311797067523, -0.0036736652255058, 0.1128067597746849, 0.1134001612663269, -0.0096324933692813};
float weights_output[16][1] = {{1.6065974235534668},
 {-0.6048338413238525},
 {-1.2257759571075439},
 {-0.6113459467887878},
 {1.5013698339462280},
 {1.8518674373626709},
 {-0.4837082028388977},
 {1.5789420604705811},
 {-1.1861453056335449},
 {-0.4389638304710388},
 {1.8538990020751953},
 {0.0505493395030499},
 {-0.2719081640243530},
 {-0.2834261357784271},
 {-0.8785545229911804},
 {0.0031605698168278}};
float biases_output[1] = {-0.0849337875843048};
