0.09565 0.04135 -0.03975 -0.04674 0.26721 -0.10855 -0.14824 -0.06580 -0.11320 0.02992 0.01235 0.12974 -0.03487 -0.13249 0.01556 -0.00014 0.29854 -0.05229 -0.03792 0.01214 0.05353 0.08100 -0.24719 0.08020 0.08531 -0.13123 -0.01171 -0.03582 -0.01792 -0.17037 -0.00560 -0.18013 0.25370 0.08312 -0.02094 0.11850 0.08797 -0.03910 -0.15491 -0.08567 0.09626 0.00919 -0.08748 0.10262 0.16251 -0.05428 -0.01695 -0.12981 0.31068 0.10462 0.11466 0.03848 0.12722 -0.07367 -0.04326 0.11890 -0.03345 -0.15260 -0.10139 0.00041 -0.12749 -0.12265 -0.13401 -0.13079 0.22598 -0.03193 0.03740 -0.13785 -0.02490 0.10220 -0.16481 -0.03592 -0.13607 -0.04488 0.01820 0.06372 -0.07718 0.01849 0.09882 -0.07449 0.22080 0.14028 0.06521 -0.15061 -0.01328 0.01583 -0.11219 -0.08434 0.01159 0.10985 0.01368 0.04051 -0.15582 0.09395 -0.02423 -0.17298 0.29795 -0.05613 0.08250 0.13979 0.06346 -0.15119 -0.04758 0.01134 -0.14768 0.00687 0.13117 0.01086 0.07629 -0.26976 -0.12094 -0.21872 0.12840 0.02192 -0.02159 -0.03331 0.07752 0.14495 -0.04943 -0.01776 0.09291 0.13653 0.06347 -0.09104 -0.02738 -0.10203 -0.11124 -0.15821 0.08547 0.02158 0.09548 -0.07614 0.07225 0.03039 0.03505 -0.01899 -0.00519 -0.11821 0.01922 -0.03201 0.18343 0.05454 -0.03377 -0.26044 0.05026 0.00666 0.02195 0.04255 0.10257 0.10292 -0.01592 -0.09681 -0.05015 -0.13827 -0.00334 -0.03398 0.16044 -0.12600 0.07869 -0.16502 0.04517 0.02266 -0.13574 -0.06047 -0.02684 -0.08510 0.16943 0.08105 0.01625 -0.07644 0.07327 0.03268 -0.08756 0.01552 0.00309 -0.17490 -0.07074 -0.02417 0.11124 -0.08387 0.05329 0.00739 -0.01342 0.11684 0.17194 0.01953 0.06965 0.07828 0.07530 -0.18001 -0.10454 -0.21154 -0.02212 0.09460 -0.10427 0.07643 0.05381 -0.15533 -0.03229 0.13366 0.08845 0.03779 0.19946 -0.06126 -0.08622 -0.16834 -0.03935 -0.13603 -0.23535 0.11139 -0.05751 -0.04019 -0.06281 -0.08742 -0.05469 -0.14246 -0.04154 -0.09013 0.06008 0.14682 0.07597 0.04253 0.05232 -0.13937 -0.13520 0.04912 -0.15346 0.01905 -0.01098 -0.10909 0.15717 -0.01390 -0.00774 0.03827 0.17534 -0.11063 -0.07834 -0.06167 0.04601 -0.13791 -0.22998 -0.05695 -0.13197 0.05527 0.16613 -0.15581 -0.00064 -0.13265 -0.02488 -0.07716 0.07783 -0.05362 -0.02531 -0.09865 0.07744 -0.02721 -0.21593 0.00872 -0.10474 -0.07276 -0.00952 -0.08776 0.05283 0.13779 -0.14135 0.06212 0.01739 -0.03842 -0.08460 -0.05212 -0.13800 -0.05316 -0.42347 -0.03312 -0.06988 0.00876 -0.02131 -0.00103 0.10602 0.13357 0.01866 -0.15154 0.09225 0.05760 -0.00395 -0.19918 -0.11293 0.04210 -0.46212 -0.11008 -0.04246 -0.05328 -0.05418 -0.05837 0.00347 0.08178 -0.26357 -0.11803 0.14593 -0.02830 -0.04774 -0.10426 -0.13035 0.04763 -0.58350 -0.03178 -0.18873 0.11156 0.16405 0.01090 -0.03381 -0.13272 -0.02851 0.11083 0.09860 0.03441 -0.01655 -0.07550 -0.14545 0.05149 -0.60182 -0.15320 0.04512 0.01450 0.13539 0.04893 -0.10722 -0.11640 -0.08629 -0.05598 -0.02154 -0.12555 0.05622 -0.24880 -0.13042 0.05967 -0.48947 0.01130 -0.24287 -0.14136 0.10309 0.02971 -0.11553 0.11296 0.01756 -0.00303 -0.14026 -0.04407 -0.21444 -0.10228 -0.13758 0.12260 -0.54114 -0.10958 0.01289 -0.06737 -0.04500 -0.01539 -0.00466 -0.06887 0.01390 0.14170 0.06066 -0.18964 -0.17883 -0.09227 0.05961 0.10088 -0.59318 -0.00244 0.02405 -0.15016 0.03795 -0.09626 -0.07002 -0.11912 -0.06725 0.13199 -0.22214 -0.19425 -0.03350 -0.11164 -0.06467 0.08132 -0.44608 0.13901 -0.12927 -0.04463 0.14358 -0.21214 -0.07980 0.10708 -0.16413 -0.02772 -0.15476 -0.04276 -0.07056 -0.00981 -0.06012 -0.02977 -0.44902 0.07062 -0.08173 -0.11837 -0.06274 -0.19729 0.03166 -0.12826 -0.10690 -0.02991 -0.18703 -0.15839 -0.12307 -0.14574 0.14553 0.10456 -0.28054 0.12737 -0.11063 -0.11114 -0.16787 0.03396 -0.17656 0.14171 -0.15042 -0.08837 -0.03167 -0.05659 0.03315 -0.27771 0.06849 0.04243 -0.21372 -0.13339 -0.15607 -0.07836 -0.12556 -0.05722 -0.21284 -0.02550 -0.12049 0.00979 -0.15132 -0.16761 -0.06986 -0.20029 0.05804 -0.04133 -0.18493 0.05826 -0.02061 0.05236 -0.00205 -0.09146 -0.08662 -0.07283 -0.18111 0.09125 -0.18617 0.02819 -0.06210 -0.27314 -0.13361 0.04245 -0.16608 0.11683 -0.06961 -0.15354 0.07685 -0.02311 -0.25068 -0.09189 -0.07047 0.12503 -0.10879 0.01072 -0.12901 -0.01284 -0.10033 0.04716 -0.01090 0.02089 0.00275 0.04445 -0.05617 -0.06531 -0.19224 -0.12589 -0.03709 0.03318 -0.14759 -0.02890 -0.03843 -0.05807 0.10415 0.08689 -0.08440 -0.07619 -0.03531 -0.06865 0.10492 -0.07852 -0.31112 0.10420 -0.11188 -0.04259 -0.07301 -0.05861 0.01796 -0.06513 -0.01879 -0.06217 -0.00741 -0.02574 -0.06456 -0.04999 0.09781 0.16573 -0.19655 -0.03645 0.04730 -0.06319 -0.26947 -0.02763 -0.10395 -0.03434 -0.07983 0.05249 0.02106 0.01607 0.11212 -0.10903 -0.13750 -0.04407 -0.18991 -0.11327 -0.00233 0.02961 -0.20933 0.04379 0.13829 -0.07060 0.12692 -0.01116 0.04690 -0.11703 -0.07578 -0.01797 0.13303 0.07175 -0.07508 -0.07221 0.11217 0.03622 -0.20600 -0.00896 0.05518 -0.07395 0.06524 0.12893 0.32938 -0.11653 0.14168 -0.15320 0.08479 -0.07257 -0.15988 -0.11985 0.12568 -0.10912 -0.18078 -0.05364 -0.03965 -0.18526 -0.02136 0.14196 0.24165 0.11990 0.19890 0.07312 -0.01696 -0.04602 -0.14871 -0.11245 0.03208 -0.13251 -0.09414 0.03295 0.00198 -0.19984 -0.01027 -0.08821 0.39097 -0.11075 0.13879 -0.02308 0.09083 0.05236 -0.01475 -0.12975 0.14262 0.05834 -0.12739 0.15203 0.20279 -0.00343 0.00284 0.10898 0.35343 -0.06092 0.20316 0.03225 -0.04596 0.07423 -0.10508 -0.14793 0.06033 -0.11444 0.01129 0.18450 0.26629 -0.21392 0.10196 0.08581 0.23091 0.14214 0.15331 0.13598 -0.08699 0.10854 -0.12230 -0.05763 0.22517 0.12926 -0.15704 0.06935 0.01252 -0.20297 -0.07978 0.12237 0.09193 0.09400 0.26727 -0.13117 -0.00524 0.27903 0.10089 -0.09827 0.12230 0.07908 -0.07847 0.29608 0.22217 -0.02791 -0.13423 0.13003 -0.00984 0.01700 0.07557 0.13085 0.09356 0.06476 -0.04151 -0.09411 0.07479 0.10391 -0.07719 0.27032 0.20525 -0.03927 -0.05477 0.17570 0.13622 0.00744 0.25481 0.01210 0.05274 0.14921 -0.02853 -0.07311 0.17101 -0.04356 -0.06950 0.20950 0.23427 -0.23599 -0.10378 0.05418 0.05814 -0.02875 0.14697 0.04258 0.03314 0.18578 0.03809 0.13265 0.06485 -0.00098 0.14221 0.19323 0.25123 -0.14764 0.11024 0.11968 -0.10573 0.02669 0.23971 -0.07289 -0.07160 0.05563 0.22605 0.01767 0.30501 0.01363 0.00361 0.19321 0.16438 -0.04547 0.04420 0.25961 -0.06687 -0.04323 0.13582 -0.01279 -0.11331 0.08626 0.33776 0.13089 0.12447 -0.08211 0.05637 0.17492 0.18781 -0.05271 0.01355 0.27398 -0.04763 -0.12272 0.05168 -0.12359 -0.08788 0.20053 0.17222 0.08213 0.16741 0.07735 0.10473 0.22639 0.12282 -0.14579 -0.10667 0.23966 -0.15424 -0.03927 0.31056 0.09442 -0.05834 0.29263 0.38576 -0.03505 0.16557 0.06726 0.19099 0.27355 0.11977 -0.17743 -0.00299 0.14933 -0.14980 -0.13514 0.19404 0.05813 0.09914 0.11346 0.36393 0.02721 0.26415 -0.01249 0.09498 0.18204 0.30505 0.11187 -0.13156 0.20429 -0.33602 -0.08561 0.08661 -0.02723 -0.11212 0.19019 0.25648 0.04856 0.01576 -0.04166 0.13647 0.07010 0.16343 -0.18148 -0.11700 0.19393 -0.40829 0.08169 0.28285 0.09265 -0.05612 0.11100 0.40644 -0.13132 0.25886 0.05427 0.12076 0.21437 0.32323 -0.21971 -0.02787 0.32344 -0.46449 -0.13706 0.02506 0.08260 -0.10824 0.22615 0.18049 0.04268 0.15878 -0.02041 0.10532 0.14886 0.14062 -0.04478 -0.13016 0.16174 -0.38728 0.08281 0.10889 -0.15474 0.15677 0.09514 0.17308 -0.08619 0.08138 0.10293 -0.01237 0.07511 0.07063 -0.08019 0.05513 0.30160 -0.25007 0.00726 0.14747 -0.14678 -0.08745 0.26224 0.28273 -0.04226 0.18131 0.12083 0.18350 0.05529 0.17631 -0.21538 -0.02390 0.14698 -0.42281 0.02558 0.04051 0.06781 -0.04303 0.23206 0.28936 0.08944 0.25587 0.14201 -0.00533 0.01360 0.28190 -0.02888 0.03438 0.12567 -0.26351 -0.09377 0.15410 0.04087 -0.10888 0.04406 0.08845 0.07826 0.14414 -0.07931 0.01734 0.06882 0.09551 0.00985 0.14348 0.08859 -0.11342 -0.03632 0.10143 -0.11588 0.08135 0.07024 0.28230 -0.09612 0.19168 0.08293 -0.00030 -0.05188 0.00140 -0.22134 0.04630 0.06147 -0.14925 -0.04167 0.11120 -0.15383 -0.15617 0.22870 0.11336 0.01768 0.02940 -0.14939 0.12765 0.21019 0.05228 -0.14080 -0.13655 0.14862 0.07501 0.13643 0.16661 0.11406 0.00413 0.07261 0.21002 0.02793 0.05704 0.12473 -0.05488 0.25262 0.01970 0.05773 -0.05747 0.10806 -0.03364 -0.08291 0.22979 -0.07932 -0.12173 0.25509 0.08657 -0.00014 0.19700 0.03478 0.00112 0.29145 0.10376 -0.06514 -0.02946 0.07748 0.04068 -0.05431 0.16304 -0.04611 -0.02354 0.18322 0.01584 -0.05098 0.20207 -0.12952 0.13186 0.10260 0.30682 0.01849 -0.11071 -0.06549 0.14635 0.13949 0.22113 0.06280 -0.18541 0.18412 -0.04455 -0.11937 0.17177 0.01050 0.15920 0.13073 0.15249 -0.04968 0.10363 0.19182 0.23877 -0.12700 0.13131 0.12476 0.08453 0.04671 -0.11963 -0.05669 0.17350 0.01727 -0.02794 0.04468 0.23758 0.06493 0.09630 -0.02440 0.24601 -0.01699 0.07295 -0.07755 -0.30039 0.15322 0.05349 0.00194 0.23456 0.08318 0.20553 0.01468 0.03492 0.08712 -0.13760 -0.08098 0.37055 0.06128 0.17516 -0.04433 -0.04197 0.11289 -0.03347 -0.07625 0.05403 -0.09133 0.04091 0.05961 0.00010 -0.25154 -0.07203 0.12627 0.44183 0.07302 0.16080 -0.03288 -0.18331 0.32705 -0.21274 -0.06328 0.25841 -0.06227 0.10585 0.32120 0.12431 0.02038 -0.02132 -0.01028 0.49168 -0.12674 0.09299 -0.06163 0.11674 0.06624 -0.23661 -0.02353 0.18279 -0.09561 0.00753 0.27632 0.05582 0.01006 -0.09617 -0.08400 0.49787 -0.06027 0.15082 0.00497 -0.20843 0.27769 -0.20610 -0.11835 0.27350 -0.12380 -0.07280 0.06972 0.11298 0.18126 -0.09454 0.03154 0.54988 -0.06527 0.18676 0.13060 -0.13898 0.08785 -0.23208 -0.08829 0.22625 -0.04050 0.10523 0.13596 0.08360 -0.01219 -0.13609 -0.15365 0.46374 -0.03852 -0.00594 0.09969 -0.09685 0.00272 -0.20099 0.08732 0.26773 0.03818 -0.05689 0.05490 0.11070 -0.06257 0.01877 -0.05836 0.46824 -0.01313 -0.01534 0.13789 -0.16697 -0.04744 -0.14315 0.10729 0.13452 -0.14079 0.03018 0.22413 0.11390 0.04468 -0.06476 0.05232 0.46136 -0.06127 0.10243 0.00183 -0.06429 0.02214 -0.29387 0.04350 0.20214 -0.10689 0.06052 0.22620 0.04818 -0.06117 0.12937 -0.04972 0.39484 0.01535 0.07748 0.05397 -0.22680 0.00792 -0.08683 -0.09374 0.10265 -0.04996 0.08360 0.09673 0.01782 -0.07489 0.05206 -0.11572 0.35957 -0.11813 0.20937 -0.13255 -0.02252 0.11658 -0.16115 -0.06144 0.19264 0.09128 0.06766 0.16120 -0.04216 0.00069 -0.14695 0.10089 0.23777 0.04970 -0.04296 -0.09297 -0.15040 0.20862 0.13461 0.05404 -0.01084 0.02081 0.00856 0.18400 0.17330 0.03590 -0.05777 0.03212 0.18713 -0.00300 0.04426 -0.08384 -0.15110 0.20755 0.17146 -0.06991 0.15710 0.13872 -0.03366 0.19851 0.20065 0.08147 -0.02108 0.10705 0.23237 -0.14363 0.14911 0.01277 -0.22388 0.20125 0.03518 0.13820 0.05571 -0.02298 -0.11439 0.03625 0.15093 0.10125 -0.09558 -0.12267 0.09076 0.02008 0.03077 -0.05729 -0.22381 0.26628 0.19610 -0.01514 0.25408 -0.05687 -0.08590 0.19987 0.08531 -0.03433 -0.06035 0.05192 0.00213 -0.02453 0.10745 -0.06604 0.02765 0.00951 0.07840 -0.12546 0.13781 -0.11007 0.10162 0.10852 0.09810 0.13271 -0.04557 -0.03745 0.09689 -0.05210 0.08058 -0.00095 -0.12305 0.16451 0.10388 0.09816 0.15091 -0.10856 -0.04858 0.01147 0.05635 0.18584 -0.06079 0.08343 -0.04068 -0.14886 0.20615 0.06449 -0.29862 0.13289 0.14650 0.11257 -0.02817 -0.03325 -0.02544 0.09829 0.23794 0.04823 -0.14293 0.00352 -0.09380 0.06004 -0.05199 0.03625 -0.16726 0.07542 0.35102 -0.00031 -0.05563 0.08570 0.10660 0.14083 0.13131 0.05375 0.02130 0.06977 -0.03675 -0.00210 0.27557 -0.00588 -0.03314 -0.00550 0.22249 -0.01306 0.14567 0.00007 -0.06075 0.16855 0.03532 0.01242 -0.11010 0.01447 0.01543 0.07273 0.16196 -0.02217 -0.04284 0.03119 0.34819 0.00452 0.03602 0.09710 0.08056 0.00501 0.15200 0.11937 0.08864 -0.04540 -0.06455 0.00272 0.15090 -0.05152 -0.17933 -0.00571 0.33806 -0.13323 0.10467 -0.12650 -0.10710 0.06242 -0.06433 0.02377 0.09901 -0.00106 -0.02095 0.01978 0.16665 -0.07147 -0.19741 -0.02301 0.09865 -0.00888 0.03068 0.07160 -0.04168 0.19900 0.06364 0.28503 0.07880 -0.01414 0.01641 -0.13361 -0.08751 -0.14193 -0.20802 0.02033 0.08400 0.10324 0.09783 -0.02337 -0.11419 0.08260 0.07992 0.19263 -0.10684 -0.02034 0.05090 0.10277 0.16040 -0.04734 -0.14553 0.08346 0.08838 -0.08229 0.13428 0.01544 0.02269 0.19406 0.12286 0.00409 0.08446 -0.11406 -0.00228 -0.08362 0.08213 0.04204 -0.31160 0.12133 0.20542 -0.10227 -0.10654 -0.08756 -0.01389 0.09984 0.00166 0.03208 -0.00140 -0.15423 0.03739 -0.12035 -0.10841 0.05976 -0.09969 0.11093 0.14251 -0.06292 -0.03278 -0.01279 0.01933 0.00692 0.07480 0.20067 0.03759 -0.20859 0.18930 0.08229 0.10346 -0.02616 -0.19584 -0.11521 -0.01945 0.03648 0.05838 0.13832 -0.02028 0.02363 -0.01358 -0.08229 -0.13153 -0.29198 0.01942 0.00794 -0.12312 0.01013 -0.13149 0.02866 0.21605 -0.02361 -0.01692 -0.02151 -0.05471 -0.13749 0.07724 0.17038 0.14187 -0.12891 0.13889 -0.04592 0.10838 -0.07370 -0.01922 0.10067 0.13709 0.10708 0.04793 0.04574 0.05125 -0.04648 0.08742 -0.02796 0.06957 -0.23009 0.01956 0.11160 0.07505 0.02221 -0.21571 0.01084 0.18639 -0.09269 0.02209 -0.05578 -0.00835 -0.15330 0.07635 0.03716 0.01664 -0.24864 0.00762 -0.09986 -0.12992 -0.13292 -0.33906 -0.05836 0.11398 -0.14542 -0.10419 0.07887 0.01606 0.02851 -0.07540 0.18126 -0.07571 -0.26323 -0.05076 -0.08540 0.02037 -0.15187 -0.20381 -0.18871 -0.07258 -0.05054 0.03045 -0.07424 0.05787 -0.13428 0.06364 0.04904 -0.11511 -0.29365 -0.05325 0.05136 -0.18747 -0.00549 -0.15457 -0.13507 -0.10298 0.01098 -0.10586 0.08201 0.10878 -0.11291 -0.13430 -0.07230 0.01295 -0.34066 0.07902 -0.12491 -0.00096 0.11999 -0.28793 -0.19450 -0.23206 0.08234 -0.06905 -0.13086 0.11359 -0.03893 -0.01942 0.15208 -0.07326 -0.35346 0.01720 -0.15083 -0.15900 0.05363 -0.13357 -0.15578 -0.31335 -0.15181 0.04621 -0.06003 0.13464 -0.20944 -0.02012 0.03384 0.12739 -0.24942 -0.01716 -0.09593 -0.15959 -0.04472 -0.10126 -0.22054 -0.08781 0.06429 -0.11510 -0.09104 0.02407 -0.21112 -0.29817 0.25413 0.04463 -0.29954 -0.01794 -0.01463 -0.18391 0.02209 -0.28758 -0.13761 -0.14959 0.06096 -0.09067 0.00666 0.05540 -0.14202 -0.26680 0.02775 -0.09537 -0.23963 -0.05267 0.01420 -0.19869 -0.14230 -0.15310 -0.08371 -0.17412 -0.14607 -0.02770 0.11114 0.04761 -0.28965 -0.10243 0.12872 -0.11370 -0.31066 -0.09461 0.09835 -0.30724 -0.11251 -0.09400 -0.20409 -0.20594 0.10143 -0.23520 -0.12705 0.12270 -0.11781 -0.06156 0.26110 -0.05389 -0.15190 -0.05740 -0.08307 -0.13460 -0.07608 -0.13492 -0.10158 -0.18959 -0.12677 -0.08066 0.09540 0.19756 -0.09295 -0.23866 0.30766 -0.10452 -0.34297 -0.13934 -0.03437 -0.03262 0.04747 -0.24438 -0.13342 -0.18265 -0.00480 -0.11547 0.08088 0.10266 -0.06779 -0.14020 0.02144 0.06035 -0.19180 -0.15235 -0.07830 -0.19299 0.04725 0.04806 -0.09989 -0.26153 0.00999 -0.28597 0.00761 0.25078 -0.26465 -0.21164 0.11880 -0.05507 -0.23636 -0.22229 0.01414 -0.07242 -0.05772 -0.21108 -0.21514 -0.35129 0.07956 -0.13192 -0.10962 0.05997 -0.12275 -0.01493 0.17753 -0.04509 -0.16167 -0.10517 0.11803 -0.01603 -0.00197 0.00183 -0.14018 -0.25599 0.12457 -0.25622 -0.05555 0.03363 -0.12480 -0.21774 0.06053 0.11847 -0.07222 -0.07782 -0.05477 -0.07897 0.02248 -0.26659 -0.20748 -0.42352 0.08430 -0.27148 0.02697 0.17591 -0.13404 -0.18009 0.16152 0.02657 -0.10428 -0.18824 -0.10267 -0.10513 -0.00465 -0.22328 -0.15176 -0.29024 -0.07408 -0.17324 -0.07469 -0.01980 -0.08735 -0.05939 0.28415 -0.09811 -0.09070 -0.21092 -0.10375 -0.18806 -0.01934 -0.03471 -0.19150 -0.37786 -0.06343 -0.15787 0.10098 -0.09642 -0.13929 -0.25934 0.32809 -0.08986 0.04796 -0.28861 0.03063 -0.24548 0.13808 0.00297 -0.15316 -0.31149 -0.07535 -0.08766 -0.05900 -0.13455 -0.02192 -0.15867 0.23934 -0.09006 0.07707 -0.01931 0.03158 -0.03715 -0.11036 -0.21337 -0.05375 -0.46183 0.00131 -0.18369 0.04876 -0.24568 -0.05227 -0.23403 -0.00272 0.04526 0.08019 -0.16894 -0.02914 -0.08687 0.05398 -0.22495 -0.15108 -0.29229 0.11022 -0.18402 -0.01351 -0.21464 -0.28244 -0.24251 0.06910 -0.10172 0.11492 -0.07687 -0.05976 -0.28205 0.02749 -0.02983 -0.03636 -0.21702 -0.04932 -0.03197 -0.09453 -0.19045 -0.07230 -0.12755 0.14006 -0.14746 0.10092 -0.15404 0.00848 -0.15534 -0.01348 -0.30351 0.05308 -0.38221 -0.14375 -0.22709 0.01138 -0.13226 -0.21754 -0.00781 0.00087 -0.09927 0.17762 0.09159 0.10001 0.01323 -0.11490 -0.06210 -0.09338 -0.30864 -0.14511 -0.18570 -0.04716 -0.04847 -0.29257 -0.19304 0.08779 0.07622 -0.00249 -0.06672 0.02881 -0.19739 0.03021 -0.24910 -0.21270 -0.29887 0.04170 0.02299 -0.00780 -0.15001 -0.13234 -0.24175 0.19407 -0.07741 0.07839 -0.07937 0.09782 -0.03813 0.01101 0.04668 -0.25217 -0.18345 -0.07993 -0.04331 -0.01345 -0.09314 -0.14898 -0.20969 0.24409 0.08827 -0.03476 -0.02333 -0.06069 -0.07590 -0.14191 -0.09808 -0.16243 -0.19951 -0.08611 -0.09403 -0.11487 -0.26899 -0.22979 -0.26629 0.03155 -0.06294 0.10638 -0.15595 0.12038 -0.04453 -0.07189 -0.19747 -0.11701 -0.18046 0.06155 0.10549 0.04291 -0.11504 -0.18589 0.00840 0.16079 -0.07075 0.14018 0.04432 0.11174 -0.01906 -0.12211 -0.20338 -0.10082 -0.08236 -0.13486 -0.14951 -0.06303 -0.21909 -0.08341 -0.05490 0.14521 -0.09466 0.12861 -0.09760 0.07172 0.02751 -0.14104 0.09622 -0.14748 -0.19198 -0.00616 -0.10041 -0.03334 0.02504 0.00694 0.04613 0.25732 -0.08140 0.14661 0.04281 0.03473 -0.02796 -0.03701 -0.04340 0.06273 -0.07087 -0.02515 0.09367 -0.12126 -0.07283 -0.04580 -0.14370 0.18973 -0.02902 -0.00332 -0.03172 -0.03002 -0.03075 -0.08241 -0.00209 0.04813 -0.18203 -0.08196 -0.14172 -0.12925 0.06142 0.03876 -0.00767 0.23702 -0.07012 -0.00982 -0.04481 -0.14402 -0.05743 -0.09386 0.10807 0.14124 0.02441 0.11408 -0.03519 -0.03401 0.10519 0.13074 0.01566 0.18293 -0.12761 0.02880 -0.18698 0.03704 -0.05201 0.12509 -0.13465 0.12621 -0.08841 0.10134 -0.13770 -0.14612 0.10708 0.00673 0.04012 0.03967 0.05827 -0.10943 -0.08661 0.14079 0.10901 0.10473 0.05031 0.13875 0.02580 -0.09969 0.15505 -0.14467 0.18179 0.07880 0.07126 0.19773 0.05108 0.14403 -0.09703 -0.05161 0.09658 0.00903 0.05215 0.08918 -0.00517 -0.05386 0.04596 -0.10784 0.05638 0.10718 -0.05175 0.18411 0.14697 0.10950 0.10256 -0.00120 0.03509 -0.00444 -0.01540 -0.08913 0.04702 -0.10650 -0.03088 0.13387 0.17783 0.13650 0.04236 0.26975 0.06665 0.07051 0.03777 -0.02846 -0.05481 0.05568 -0.15813 0.11035 0.12423 -0.10420 0.16467 -0.05117 0.11356 -0.06508 0.08268 0.11471 0.04550 -0.05630 -0.00127 0.00127 -0.04029 -0.04786 0.05740 0.07429 0.02405 -0.04081 -0.01042 -0.05186 0.24467 0.20066 -0.03775 0.15592 0.05180 -0.02260 0.00800 0.05201 0.03306 0.13837 -0.09009 0.11904 0.07838 -0.07821 0.28644 -0.04035 0.34644 0.23398 0.00301 0.20703 0.13025 -0.12044 -0.02242 -0.09861 0.04562 -0.14845 0.02745 0.14439 0.14392 0.02204 0.11910 0.06695 0.34593 0.16415 0.16899 0.26566 -0.02401 -0.04208 -0.00974 -0.03555 0.25201 -0.10255 0.18763 0.24379 0.04400 -0.09867 0.17043 -0.15049 0.46028 -0.03468 0.22493 0.06379 -0.02974 -0.07459 0.05462 -0.04095 0.09001 -0.09020 -0.11022 0.00133 -0.01904 -0.13965 0.00543 0.07276 0.26817 0.06226 0.06091 0.18150 -0.07915 -0.05390 -0.02572 -0.01743 -0.00725 -0.10389 0.09923 0.22989 0.06691 0.10841 0.12051 0.09958 0.19027 0.28001 0.20643 0.00429 -0.08804 0.05546 -0.12847 -0.08294 0.12594 0.00361 -0.02151 -0.03904 0.04333 0.13803 0.25883 -0.03687 0.31149 0.18543 0.13305 0.25407 -0.08925 0.23664 -0.04500 -0.01369 0.20606 0.12609 0.17055 0.15238 0.01431 0.06822 0.23721 0.00142 0.28329 0.07080 0.10256 -0.02158 0.05658 0.18738 0.08983 0.13054 0.11726 -0.08668 -0.01534 0.08269 -0.09219 0.06587 0.04758 0.01578 0.15073 0.16585 -0.00910 0.04066 0.06883 0.19971 -0.00931 -0.00632 0.05421 0.13562 0.00236 0.15634 0.13307 -0.05753 -0.04102 -0.06063 0.16842 0.08781 0.09437 0.30774 -0.06205 0.20881 0.14035 -0.10864 0.08981 0.07804 -0.01273 -0.00323 0.03474 -0.14597 0.04169 0.10571 0.07588 -0.16007 0.10940 0.18353 -0.14639 0.29342 0.01354 0.09268 0.04453 -0.07132 0.23167 0.22672 0.02261 -0.08080 0.04737 0.08915 0.08675 0.25305 0.28724 0.13954 -0.14739 0.19247 0.04208 -0.15203 -0.09849 -0.00045 -0.06347 0.05254 -0.06463 0.04283 0.00875 0.02963 -0.06252 -0.00683 0.13171 0.18151 -0.11608 0.36823 0.09890 -0.15453 0.13688 0.13671 -0.01985 0.04435 0.05662 -0.15450 0.20612 0.08949 -0.08272 0.16436 -0.03814 0.00874 0.10036 0.17207 -0.06015 0.13801 0.08893 -0.14549 0.19624 0.04113 -0.02425 0.04995 0.07319 -0.10147 -0.15830 -0.04170 -0.06333 0.06476 0.07631 0.38406 0.01325 -0.11098 0.06701 -0.04488 0.17221 0.07619 -0.06942 -0.14237 0.11338 0.08513 -0.13494 -0.10731 0.10555 0.08527 -0.01254 0.35518 0.09941 -0.14482 -0.05539 -0.00808 0.17846 -0.05415 0.03816 -0.04939 0.04318 -0.15528 -0.32080 0.03026 -0.08661 0.20747 -0.10848 0.24138 0.18503 -0.10329 0.01376 -0.05860 -0.02734 -0.01998 0.11979 0.05895 -0.04750 -0.13716 -0.41782 0.12402 -0.09286 0.23454 -0.06894 0.40434 0.03379 -0.11910 0.02100 0.05063 0.26514 -0.09782 0.09301 0.09359 0.00884 0.02887 -0.49526 -0.11232 -0.10910 0.29420 0.14630 0.37951 -0.02855 -0.07004 0.00816 0.11145 -0.07536 -0.12679 -0.01895 -0.12468 -0.17851 0.10429 -0.62517 -0.12004 0.07489 0.24705 0.08045 0.26963 0.13643 0.07233 -0.04018 -0.02595 0.28263 0.10307 0.06943 0.09405 0.05467 0.01686 -0.57035 -0.00366 -0.09280 0.02958 -0.14648 0.24354 0.08362 -0.15271 -0.00660 0.10224 0.02076 -0.00408 0.20144 0.11683 -0.07869 0.13145 -0.54119 -0.14926 -0.08328 0.24551 -0.08305 0.22175 0.03559 0.01579 -0.09669 0.03982 0.29719 0.09499 0.07844 -0.09704 0.07171 0.02676 -0.70502 -0.03683 0.01492 0.11593 0.06484 0.27654 0.13412 -0.01035 0.07628 -0.01594 0.16398 -0.00057 0.22434 -0.01179 -0.02084 -0.14353 -0.49179 -0.14690 0.11104 0.15115 0.14704 0.33697 0.33492 -0.02147 -0.04100 0.08270 0.02816 0.05546 0.27234 0.03870 0.01891 -0.02669 -0.57739 0.02074 -0.05125 0.05595 -0.04701 0.31293 0.14670 -0.04562 -0.10408 -0.11529 0.24562 0.13329 0.27700 -0.12659 -0.10627 -0.13787 -0.44548 0.01888 -0.14162 0.15338 -0.12501 0.25075 0.25127 -0.08017 0.00180 0.04651 0.09850 -0.09487 0.14432 -0.08146 0.03676 -0.08873 -0.30213 0.12861 0.07178 0.31327 0.03192 0.25854 0.16404 -0.01509 -0.06455 -0.06213 0.16417 -0.04639 0.06992 -0.13230 0.06054 0.02572 -0.39526 0.22065 0.03999 0.07979 0.12131 0.11868 0.21302 -0.04153 0.04614 0.09731 0.12745 -0.05620 0.05933 0.08769 0.01007 -0.05105 -0.26271 0.09846 0.22653 0.07920 -0.06768 0.04863 0.23117 -0.11578 0.02048 0.08837 0.10262 0.20628 0.14391 -0.00405 0.18782 0.04683 -0.18056 0.08609 0.16274 0.00863 -0.11975 -0.09326 0.22553 0.04564 0.02145 -0.05424 0.01209 -0.03452 0.17842 0.04160 0.04686 -0.06672 -0.11148 0.00579 -0.06975 0.21243 -0.03351 -0.09252 0.32814 -0.11972 0.20478 0.12168 0.14669 0.02395 -0.02381 -0.03867 -0.00949 0.10405 -0.14667 0.08076 0.22966 -0.03056 -0.07799 0.07232 0.18197 0.04600 -0.03597 -0.09205 0.09848 0.16830 -0.01319 0.10488 0.08622 -0.13337 0.03468 0.02525 0.15781 0.06493 -0.03678 -0.01657 0.44797 -0.00598 0.10547 -0.14223 0.03676 0.00046 0.05348 0.06638 0.01542 0.06644 -0.01088 0.20677 -0.00661 0.17132 0.08272 0.05800 0.32377 -0.01927 0.16049 0.08661 0.10539 0.13823 0.04646 0.08097 0.10821 -0.12813 0.14244 -0.00646 0.03119 0.10724 -0.00595 0.03359 0.27933 -0.02410 0.21687 -0.04034 0.25245 -0.05062 0.21146 -0.10237 0.01155 -0.14408 0.26629 0.10598 0.03153 0.16450 -0.05581 -0.04706 0.31733 -0.07100 0.23738 -0.04377 0.29412 0.13901 0.23207 -0.04641 0.24203 -0.05831 0.22221 0.21070 0.13652 0.17867 -0.07300 -0.24975 0.20813 0.05573 0.06268 -0.11473 0.30763 0.15438 0.25765 0.12213 0.25804 0.05962 0.24519 0.22862 0.18358 0.14667 -0.11635 -0.35888 0.34309 0.13178 -0.01866 -0.15343 0.13906 0.16279 0.11257 -0.09375 0.19490 -0.12398 0.32678 0.09138 0.24930 -0.01758 -0.12212 -0.29796 0.30240 -0.04072 0.15830 0.00266 0.04678 0.16190 0.15063 0.08764 0.09293 -0.01818 0.49544 0.05533 -0.03315 0.11843 0.09328 -0.46838 0.31060 0.01071 -0.08113 -0.00681 0.23434 0.11320 0.26563 0.00952 0.14315 -0.09189 0.35212 0.17797 0.19105 -0.11543 -0.05211 -0.33131 0.24986 0.09753 -0.03209 -0.01187 0.05532 0.02870 0.19714 -0.08271 0.05994 0.00936 0.49110 -0.04845 -0.05820 0.15343 -0.04255 -0.43412 0.30492 -0.05606 -0.00954 0.03512 0.21003 -0.12221 0.31735 0.11103 0.10339 -0.03585 0.55480 0.11627 -0.03535 0.16267 0.01761 -0.64386 0.21524 -0.12678 0.13795 -0.08334 0.25230 -0.11793 0.37275 0.01956 -0.11192 0.14012 0.40598 0.00163 0.11846 0.06149 0.09634 -0.52887 0.17710 0.14044 -0.01487 -0.12279 0.09625 0.09903 0.22189 0.04417 -0.09460 0.11875 0.34554 -0.08884 0.11460 0.14113 0.14753 -0.50960 0.05970 -0.05034 0.08144 0.03656 0.14305 0.12308 0.24026 -0.10239 0.05817 -0.10174 0.25778 0.02514 0.05629 -0.14114 0.10695 -0.42348 0.11439 0.07978 0.01804 0.04266 0.21687 -0.12547 0.43296 0.04482 -0.01511 -0.14833 0.26945 0.01001 0.00751 -0.10779 0.03938 -0.58295 0.00979 0.04025 0.08028 0.00563 0.17565 0.01265 0.45168 0.01925 0.09889 -0.09168 0.32887 -0.08068 -0.11403 0.11547 -0.08581 -0.56895 0.19933 -0.07688 -0.00812 0.04459 0.20783 0.09104 0.51579 0.14178 0.06141 0.00694 0.25546 0.19094 -0.00370 0.12629 0.09000 -0.51776 0.14181 0.04918 0.06297 -0.06870 0.19320 0.07101 0.38599 -0.11702 -0.11045 0.07936 0.31018 -0.11758 -0.13338 0.14746 0.08881 -0.59635 0.00064 -0.00331 -0.07854 -0.13016 0.20507 0.15901 0.39145 0.01034 -0.10879 -0.07032 0.31592 -0.04846 0.14287 -0.15923 -0.14306 -0.44097 0.08466 -0.12630 0.03465 0.06724 0.01660 -0.04715 0.29218 -0.09407 -0.02428 -0.05534 0.27255 -0.06036 0.04153 0.10668 -0.12579 -0.24331 0.01365 0.03690 0.09218 -0.01953 0.03199 0.12351 0.25347 0.05861 0.03198 0.06955 0.26413 0.08546 -0.12027 -0.00521 0.01728 -0.39360 -0.03941 0.00765 -0.09940 -0.02560 0.30627 -0.11129 0.25835 -0.15364 -0.12216 0.00225 0.14856 0.04000 -0.04263 -0.12317 0.05118 -0.30314 -0.15584 -0.02878 -0.03700 -0.07759 -0.01859 0.11247 0.20512 0.00960 -0.05295 0.13073 0.15783 0.04883 0.12919 0.01635 0.06026 -0.19752 -0.12335 -0.07108 0.02874 -0.15471 -0.09545 -0.02813 0.20898 0.04549 -0.10734 -0.00155 0.32042 0.02020 0.11308 -0.10388 0.12980 -0.28829 0.00035 -0.00930 0.15044 0.04992 0.25105 -0.05712 0.12360 -0.05905 -0.00613 -0.08855 0.19907 0.03533 -0.01963 0.18520 0.00709 -0.09512 -0.16873 -0.00348 -0.02074 0.02206 -0.01177 0.19535 -0.15468 0.02631 0.14593 0.05600 0.31230 0.13444 0.17728 -0.14237 0.06350 -0.00712 -0.01895 -0.07879 0.14028 0.13739 -0.00261 0.07381 -0.00916 -0.02412 -0.02208 -0.09795 0.12643 0.04361 0.09973 -0.14075 0.11753 0.16660 -0.14557 -0.00152 0.11390 -0.15013 0.20162 0.01730 -0.16849 0.06227 0.04162 0.04784 0.17582 0.02718 -0.06540 -0.14003 -0.07774 0.22832 -0.28912 0.07207 -0.00288 -0.06250 0.20922 -0.04222 -0.20881 -0.13785 -0.05568 -0.02030 0.15440 -0.01492 0.09268 0.11688 -0.04458 0.14503 -0.34582 -0.04237 -0.07508 -0.10929 0.16432 0.10872 -0.30256 -0.00390 0.15405 0.02214 0.28612 0.13521 0.07871 -0.07218 -0.13382 0.36047 -0.29574 -0.03838 0.04747 0.04184 -0.05422 0.12866 -0.49280 0.01245 0.10694 -0.08839 0.31250 0.03857 -0.00810 -0.20393 0.05297 0.36838 -0.14182 -0.05728 0.00674 0.09275 0.27487 -0.08256 -0.53957 -0.00342 0.00180 -0.07692 0.35891 0.13774 0.07184 0.10153 -0.14526 0.40635 -0.18383 0.06079 0.04574 0.07671 0.05332 0.11624 -0.52437 -0.01063 0.17006 -0.09300 0.20038 0.22102 0.08492 -0.04064 -0.10994 0.33625 -0.35265 -0.01798 0.18245 0.10354 0.22341 0.07146 -0.56727 -0.13411 0.14712 -0.11848 0.14459 0.07340 0.02087 -0.12865 0.02944 0.44049 -0.07849 -0.11429 -0.10563 0.00621 0.18011 0.10297 -0.57118 0.07059 -0.00618 0.05831 0.12606 0.01172 -0.01779 -0.00169 -0.13833 0.48126 -0.09719 0.03486 -0.07126 0.00487 0.15574 -0.01861 -0.47279 0.08213 -0.08332 0.01458 0.12145 -0.09787 0.15822 -0.14743 -0.11162 0.46228 -0.10527 0.11386 -0.09515 0.08932 0.18323 0.05326 -0.47377 -0.02191 -0.03130 -0.08396 0.15748 0.01421 -0.08530 -0.14553 0.12421 0.26155 -0.22874 -0.07574 -0.10590 -0.01308 -0.04046 -0.11427 -0.44141 -0.04010 -0.01967 -0.11870 0.15002 -0.08041 0.08823 -0.10898 0.09209 0.26520 -0.19445 -0.02023 0.08167 0.09172 -0.00485 0.14334 -0.43267 -0.05063 0.01606 -0.10705 0.02905 0.14235 -0.05558 -0.24596 0.08322 0.36878 0.01677 -0.14286 -0.11157 0.02159 0.09545 -0.04728 -0.41443 -0.05138 -0.00884 0.07744 -0.09430 0.02095 0.05757 -0.15933 -0.04847 0.23599 -0.20224 -0.15004 0.03253 -0.13247 -0.01837 -0.06915 -0.25407 0.14117 -0.07820 0.12559 0.05276 -0.02631 -0.06433 0.05847 -0.07544 0.07148 -0.01088 0.10499 0.09329 0.07919 0.08468 0.12974 -0.15162 0.04872 0.11466 0.07004 0.02620 -0.06306 0.06147 -0.06642 -0.10815 0.23583 -0.02821 0.02537 0.04159 -0.03577 -0.04838 -0.05215 -0.19705 -0.02907 -0.15042 -0.13704 -0.04507 0.04097 0.03680 -0.17569 0.02280 0.23130 -0.06280 -0.04197 0.07749 0.06653 0.24720 -0.02601 -0.07065 0.09751 0.03667 0.03225 -0.15413 -0.15297 -0.07587 -0.04117 -0.07979 0.14201 0.04979 0.11121 -0.13696 0.01662 -0.00149 0.03351 -0.11878 -0.15320 0.00592 0.12925 -0.13410 -0.12558 -0.02806 -0.20003 0.07581 -0.06648 0.15329 0.11034 -0.01908 0.09848 -0.02998 0.09416 -0.19470 0.11458 0.09570 0.03980 -0.28469 -0.07391 0.02190 -0.03218 0.13434 -0.23541 0.11221 -0.06460 -0.20865 -0.05075 -0.07226 -0.01168 0.00266 -0.03518 0.01619 -0.14830 -0.35547 -0.23684 -0.02119 -0.09057 0.08295 0.02560 0.31444 0.06197 -0.02507 -0.11877 -0.13294 -0.22002 -0.05409 -0.12324 -0.04994 -0.10257 -0.15813 -0.17020 -0.29736 -0.17129 -0.06570 -0.18238 0.41619 -0.01461 -0.03930 -0.07555 0.16336 0.00176 -0.15889 -0.12902 -0.20342 0.11191 -0.43464 -0.13613 -0.16350 -0.16410 -0.13070 -0.15892 0.27233 -0.12984 -0.12255 -0.00551 0.02136 -0.16872 -0.03305 0.08749 -0.13576 0.06024 -0.51595 0.01467 0.00477 -0.16816 0.01972 -0.19362 0.32260 0.03928 0.04603 -0.07859 0.09390 -0.04578 -0.18698 0.10436 -0.13316 -0.04633 -0.51867 -0.00639 -0.14087 -0.19763 0.03875 -0.17467 0.35598 0.04935 -0.23824 -0.15181 0.00829 -0.00355 -0.21091 0.01476 -0.02777 0.02584 -0.48587 -0.11739 -0.13001 -0.18266 0.00613 -0.11704 0.37569 -0.00216 0.02425 -0.05296 0.28122 -0.13890 -0.22316 -0.02303 -0.14452 -0.04147 -0.45801 -0.18385 -0.12019 -0.23284 -0.09686 -0.15645 0.39700 -0.10979 -0.05222 0.09508 -0.00023 -0.22549 -0.40545 -0.13601 -0.15377 0.10330 -0.50130 -0.07695 0.02804 -0.01444 -0.08045 -0.10212 0.32499 0.09029 -0.09720 0.04857 -0.00285 -0.16568 -0.29786 -0.05763 0.02939 -0.14371 -0.51489 -0.14243 -0.03697 -0.21061 0.12671 -0.13393 0.29830 -0.14827 -0.10523 0.09178 0.11423 -0.06897 -0.20070 -0.13071 -0.25806 -0.06476 -0.22040 -0.07817 -0.03971 -0.01721 -0.12773 -0.10832 0.32852 -0.03415 -0.04814 0.11879 0.20336 -0.09823 -0.24622 -0.05714 -0.03744 0.02941 -0.44179 -0.05533 -0.09043 -0.37873 -0.11187 -0.00133 0.16223 0.02902 -0.05673 0.06704 0.22483 -0.15754 -0.22702 0.12955 -0.00501 -0.00563 -0.26413 -0.19058 -0.03214 -0.16562 0.02049 0.06139 0.15854 -0.11328 -0.04084 0.06843 -0.04651 -0.22208 -0.45351 0.13163 -0.09168 0.12157 -0.26783 -0.09618 -0.02607 -0.15369 0.08703 0.06229 0.14466 -0.12740 0.03308 0.08272 -0.11270 0.03572 -0.35772 -0.12922 -0.25632 0.13977 -0.22950 -0.07447 -0.21138 -0.15642 -0.05972 -0.06070 0.11428 0.05946 -0.01491 0.08211 -0.11301 -0.00910 -0.34798 -0.00189 -0.06236 -0.12046 -0.31286 -0.11667 -0.20224 -0.34563 -0.04691 0.15162 0.18034 0.13140 -0.03397 0.08790 -0.10200 -0.01316 -0.33087 -0.11257 -0.01166 -0.04206 -0.39124 -0.20627 -0.02049 -0.00818 0.08216 0.09494 0.03299 0.10649 -0.06565 0.06759 -0.00728 0.05194 -0.28233 -0.10511 -0.15977 -0.02650 -0.39069 0.01811 -0.06847 -0.15315 -0.01353 0.20605 0.02669 0.14007 -0.14356 -0.10689 0.04864 -0.04833 -0.30397 0.06337 0.03642 -0.11004 -0.46228 -0.01486 -0.19627 0.06555 -0.05570 0.07546 -0.12514 0.11986 -0.03333 0.08267 0.05939 -0.23008 -0.23507 -0.06504 -0.10425 -0.06482 -0.43093 -0.18498 -0.01393 -0.20622 0.03706 0.19094 -0.23390 0.05390 -0.09196 -0.09598 0.08920 0.00533 -0.20966 0.02656 -0.16072 -0.02541 -0.45063 0.02856 -0.02046 -0.06194 -0.05815 0.09463 -0.21730 -0.04822 -0.15423 0.04652 -0.09641 -0.16739 0.03564 0.05677 -0.18858 -0.05802 -0.38153 -0.13799 -0.11683 -0.21903 -0.00864 -0.01737 -0.11723 -0.03717 0.01211 -0.06211 -0.25085 -0.08822 0.08472 0.10283 0.05647 0.10540 -0.14141 -0.15404 -0.16362 -0.16545 0.00717 -0.11052 -0.19322 -0.09277 -0.07962 -0.07174 -0.03999 -0.10071 0.28815 -0.15212 -0.04988 0.06245 -0.42234 0.02143 -0.03716 -0.14904 0.12179 -0.07988 -0.33890 -0.15015 0.01887 -0.10067 0.06688 -0.06317 0.28772 -0.03006 0.03453 0.04838 -0.20252 -0.08095 -0.11792 0.01530 0.06822 -0.22888 -0.25201 -0.08142 0.07112 0.02654 0.01429 -0.01709 0.26378 0.13324 0.04510 0.01211 -0.24802 0.02887 0.07496 -0.28804 0.00133 -0.11733 -0.26708 0.07446 0.02586 0.02854 -0.15434 0.03154 0.41617 0.10711 -0.09128 -0.00444 -0.15457 -0.12656 0.02880 -0.01319 -0.01436 -0.01606 -0.34911 0.05954 -0.08182 0.06919 0.06671 -0.01126 0.47909 -0.07599 -0.03279 0.03995 -0.14466 -0.02938 -0.05153 -0.10722 -0.08100 -0.15240 -0.32874 -0.09302 -0.08591 0.04126 0.02508 0.05569 0.64279 -0.12277 -0.07448 -0.11970 -0.01699 0.18700 0.11165 -0.16244 -0.07269 -0.25559 -0.34237 -0.13690 -0.07142 0.00093 -0.20511 0.18608 0.50516 0.11093 0.03693 0.06426 -0.09010 0.03954 -0.04814 -0.11797 0.01443 -0.15958 -0.46523 0.11996 0.16140 -0.09349 0.06992 0.08665 0.61835 -0.13143 -0.00770 0.05831 0.20151 0.02659 -0.09531 -0.17113 -0.11974 -0.15647 -0.37216 -0.11914 0.08096 0.02737 0.13216 0.19495 0.64693 -0.04041 0.03235 -0.04783 0.11814 0.09391 0.21675 -0.00220 -0.14758 -0.17086 -0.29986 0.01054 0.09944 0.06541 -0.10891 0.07490 0.66415 -0.08587 0.26419 -0.07574 0.14133 -0.00234 0.19297 -0.09015 -0.09934 -0.06331 -0.35820 -0.09911 -0.06661 0.02653 -0.21281 0.16022 0.59150 0.14192 0.10422 -0.06120 0.23940 0.15519 0.12986 -0.16037 -0.05697 -0.12853 -0.29788 -0.03124 0.08404 -0.02993 0.07692 0.05020 0.46162 0.13365 0.04949 0.11208 0.24689 0.14761 0.28132 0.01830 -0.04748 -0.19111 -0.32043 -0.05619 0.05292 0.00978 0.13588 0.19284 0.44442 0.05926 0.17372 0.03798 0.22793 0.21213 0.09457 -0.07860 0.11205 -0.04593 -0.24494 0.07805 0.25624 -0.02678 -0.09861 0.24932 0.44744 -0.07589 0.10325 0.00949 0.28648 0.29545 0.28763 0.04254 0.13120 0.03236 -0.19264 -0.05619 0.22985 0.13535 -0.07540 0.11459 0.17101 -0.08998 0.26548 -0.13070 0.37591 0.17500 0.11098 -0.06568 -0.09596 0.07999 -0.30565 -0.04560 0.07579 0.08010 0.05855 0.20125 0.20995 0.11335 0.15699 -0.02820 0.20869 0.09575 0.20248 0.15684 0.12242 0.13057 -0.16805 -0.00869 0.18495 -0.12309 0.10790 0.10941 0.24110 0.05799 0.17165 -0.11652 0.21334 0.14588 0.20153 -0.08518 -0.10506 0.16743 -0.28039 -0.15363 0.17198 0.12869 -0.16128 0.10206 0.15841 -0.05581 0.10271 0.10815 0.30054 0.19256 0.28901 -0.26393 -0.10506 0.06959 -0.15321 0.12514 0.16914 -0.07832 0.00498 0.10635 0.11806 -0.09555 0.06633 -0.02954 0.34498 0.17827 0.11252 0.01755 -0.11968 0.25754 0.00954 0.00877 0.09349 0.08036 -0.09609 0.04778 -0.10991 -0.00975 -0.00140 -0.15306 0.41289 0.10680 0.03722 0.01201 0.06561 0.29786 -0.13762 0.04488 0.10925 -0.14344 -0.21761 0.16666 -0.08793 0.08313 0.07543 0.00470 0.26433 0.12437 0.07879 -0.15713 -0.14674 0.28138 -0.00198 -0.10730 0.21120 -0.14747 -0.08642 0.06851 -0.21988 0.08039 0.16527 0.09967 0.18744 0.22955 0.08856 0.00897 0.04064 0.29250 -0.12782 0.06339 0.11389 0.08763 0.08176 0.14025 -0.11236 0.12958 0.08164 -0.00358 0.20118 0.11373 0.16564 -0.21796 0.10185 0.16623 -0.09509 -0.06094 0.08757 0.04088 -0.20211 0.09852 -0.21368 0.01240 0.11694 -0.11443 0.18842 0.07635 0.14808 -0.09127 0.11686 0.16017 -0.07380 -0.12016 -0.12574 -0.02073 -0.05647 0.05686 -0.13609 0.07300 0.04012 -0.00855 0.17039 0.02575 -0.04664 0.01710 -0.06071 0.23469
-0.05379 -0.00604 0.12759 -0.00890 0.08155 0.12529 -0.09689 -0.00600 0.14231 -0.00775 -0.07750 0.14912 0.15687 0.11624 0.00000 -0.09490
1.58876 -0.46855 -0.59961 -0.05113 -1.02877 -0.65611 1.82555 -0.23274 -0.52441 -0.20302 1.56084 -0.35522 -0.34926 -1.79004 0.18397 2.16059
0.50836